427 500
plane -1.740132 -0.820059 0.444023 0.16201 1.588861 -0.887802 0.514145 0.08978 0.309781 -0.848403 -0.865398 2.103606 2.110115 -0.189784 0.261976 1.99889 -1.034491 -1.501312 0.359373 -0.962469 -0.383552 1.738201 1.397461 1.427237 -0.184825 0.551145 0.873047 0.283105 -0.091533 -0.364901 -0.145118 -1.033557 -1.137236 0.876744 0.09778 0.207103 -0.533248 0.715222 3.025284 -1.214964 1.128549 -0.030643 0.278894 0.577507 -0.392527 0.420473 -0.280072 -1.205765 0.754591 0.259564 -0.008761 0.189193 -0.58116 1.128954 0.874067 -0.131853 0.536309 0.926779 -0.335663 -0.712444 0.36216 -1.861829 -0.522973 0.858456 0.959482 0.509914 -0.067162 0.326871 1.094064 -0.275733 0.53343 -0.878033 -0.658794 -0.710503 -0.593324 -1.611895 0.939284 0.510597 -0.954748 -1.004418 0.799485 -0.414419 -0.464328 -0.277375 0.612002 1.148449 -0.590018 0.003676 1.789887 -3.0297 -3.424327 0.94614 -3.054846 -1.536719 -0.350217 -1.145642 -0.174922 -0.694663 0.790384 0.554176 -2.148414 -0.473985 -1.709272 0.47499 -1.358337 1.029376 -0.206859 -1.405647 1.302292 0.960455 5.35056 1.436774 -1.52048 0.520516 0.764927 -0.508812 0.500671 0.295916 -0.064149 -0.916984 -0.123951 -0.315849 -1.449194 0.49157 0.292726 -0.343577 0.173284 -0.082335 -1.223852 -0.792905 1.481434 0.641968 1.513649 1.087008 -0.217993 -0.807475 0.458763 0.489566 0.532942 0.791611 1.488513 1.195529 -0.710381 -0.21437 0.286165 -1.489725 2.085634 -2.915485 -1.936923 1.686989 -0.746456 -1.389942 -0.206433 -0.963491 1.525922 -2.465532 1.40311 0.766844 -0.600472 -1.3987 -0.254877 0.140699 -0.075103 -0.964715 1.109334 0.511543 0.927564 -2.230851 1.111354 3.016356 -1.115364 -2.524253 0.123518 0.092725 0.00689 -0.276669 -0.431022 0.548503 0.729042 -0.959824 2.010298 -0.874226 0.835482 -0.179576 -1.374179 -1.809515 1.253817 -0.135889 -1.119947 0.834853 -0.746797 0.241298 0.448416 -0.603882 -1.269281 1.790811 0.509784 -0.051183 0.912539 -0.514735 0.127577 1.055248 -0.969785 0.078869 -0.788279 1.40175 -0.028265 -1.034852 -2.103389 -0.918199 1.061777 0.885256 1.484143 0.159806 1.291585 0.675846 -2.856544 -0.692317 0.736047 -1.846655 1.074021 0.566009 1.115026 -1.40598 -1.105195 1.067005 0.443593 -0.706889 0.120028 0.508248 0.971535 0.095037 -0.170837 -0.031395 -1.867152 0.959403 -0.415968 1.970029 0.567808 -0.40093 -0.547523 -0.031161 -0.63734 0.765621 -1.834459 -0.35057 1.001032 -1.038085 1.063652 -0.371078 0.815293 0.565832 0.837174 -0.173738 0.573068 0.682013 2.870598 0.2743 -1.174907 1.065823 -0.02773 1.198843 -1.519036 0.281835 0.499718 -0.49924 -0.283221 -0.850925 1.170635 -1.357328 0.056189 0.453552 0.563481 -1.512233 2.258502 0.57735 -1.384445 0.198176 -0.531001 -1.235774 1.067162 -0.50158 -0.421592 -0.547218 0.794972 -0.685419 -1.536207 -0.05512 0.336625 1.16709 -0.868314 1.676079 1.33534 -0.574003 -2.130278 -2.66227 2.239359 -1.100098 1.382882 -0.434457 1.087251 1.673282 0.471688 0.458438 -1.072306 -0.345212 0.949885 -0.439621 -0.961412 -1.753981 0.274171 1.352551 1.694369 0.893726 -0.691096 -2.413015 1.86919 -1.42488 -1.944155 0.204884 1.881118 -0.036391 1.111211 0.19671 -0.413694 0.853342 0.273135 -0.161022 -0.95212 -0.948755 -0.353675 0.90167 0.448173 0.386835 -1.243592 0.208572 1.017311 0.714578 -0.815331 -0.492359 0.637357 0.832591 1.148448 0.144091 0.673415 0.121002 0.262157 0.560688 -0.575101 -1.349086 0.818074 -0.207895 -1.146071 0.547765 0.833679 0.41739 -0.36386 -0.730622 -1.343981 -2.490273 1.368919 0.313675 -1.290763 -0.471927 0.372443 0.31979 -1.383632 -0.499564 -1.2354 -0.245124 -3.01263 0.080622 0.395865 0.496962 0.459387 -0.931593 -0.139894 0.273746 -0.442453 1.441064 1.130005 -1.347599 -0.776434 0.290346 -0.072864 0.350681 2.346435 -0.722389 2.052598 -0.405498 -0.298116 0.192906 -0.162307 -0.672115 0.278075 0.69414 -1.150438 0.600965 1.69606 0.005047 0.311714 -0.483031 0.319608 -0.303069 -0.772035 0.953387 -1.035747 -0.043598 -1.866892 -0.601567 -0.472211 -0.401737 -0.601822 -0.135074 -0.93079 1.620561 0.911545 -0.622934 -0.6233 0.965865 -0.76017 -1.154112 0.255739 -1.352191 0.304017 0.751755 -1.064973 -0.050053 -1.791778 -0.499301 -1.406914 -0.19294 0.658063 -1.74785 -0.2395 1.826153 -1.077884 -0.49537 -1.095715 -0.734289 0.271803 0.289278 1.395521 0.735377 0.48556 0.080039 0.67658 1.071309 -0.030444 0.24787 0.211587 -0.873726 1.414139 1.369382 -0.136887 -1.469455 -0.504497 0.590285 0.305905 -1.06611 -0.212852 -1.148475 -1.820927 -2.845833 3.375465 -0.022222 -0.06052 0.968321 -0.382993 -0.227425 0.793674 -0.567488 1.370735 -1.016851 -0.687827 -0.638571 -1.106368 -2.326619 0.003108 0.90662 0.599606 0.669188 0.280136 1.319125 1.248269 0.406742 -1.127689 1.492617 2.060908 2.004842 -0.03093 0.765822 -0.83113 -2.033677 -4.788342 -2.046817 -1.575264 2.335063 -1.156822 0.260088
stupid -0.450607 -0.011389 0.538511 0.392318 -0.056813 -0.254956 -0.160144 0.106484 -0.236329 0.514896 0.245311 -0.885916 -1.64197 -0.26862 0.5303 -0.884322 -0.113577 -0.162198 -0.06406 -0.687491 -0.63101 0.073416 1.122433 0.580434 1.006147 -0.097855 -0.458633 0.178617 -0.232416 -0.005863 -0.730749 0.75129 0.207863 0.93641 -0.100981 0.298841 -0.149948 0.32752 0.193607 -0.138391 -0.277459 0.486461 -0.522406 0.097939 -0.100446 0.367935 -0.539189 -0.149922 0.103764 0.152274 -0.682136 -0.32907 0.038122 -0.277151 0.393783 -0.065422 0.934444 -0.736883 0.302725 0.367913 -0.57042 -0.415509 -0.282917 0.687745 -0.103965 -0.452813 0.237072 -0.27095 -0.336907 -0.114139 0.292755 -0.710055 -0.120607 0.5593 -0.248183 -0.160048 0.350902 -0.452813 0.262351 -1.209942 1.233725 0.888797 -0.961204 0.646659 -0.272394 -0.095804 -0.41084 -0.40373 -0.419833 -0.52865 -0.256447 0.653571 -0.227835 -0.386567 0.083344 -0.674285 0.683905 -0.076288 -0.767392 -0.241186 -0.441479 0.54419 -0.45929 0.314963 0.22949 -0.288982 -0.164269 0.219321 -0.720044 -0.08753 -1.783206 0.205037 1.459252 -0.610498 -0.403399 -0.412085 -1.094416 0.029362 0.536107 0.340122 -0.076668 0.754344 -0.965547 -0.429788 -0.739552 -0.820097 -0.205976 0.204064 -0.604509 0.161552 0.530997 0.051809 0.039726 -0.232663 -0.616748 0.269672 0.396339 0.265449 0.3907 -0.420913 0.361398 -0.131118 -0.001678 -0.260041 0.504216 0.037847 -1.059576 1.391434 0.527941 -0.328809 -0.051408 -0.033603 -0.708075 -0.360658 0.019752 0.287066 0.309256 0.180036 0.361405 0.22407 -0.193664 -0.19245 0.021907 0.153249 -0.127603 -0.192896 -0.38787 0.15149 -0.428731 1.004022 -0.467351 -0.680069 0.286991 0.305039 0.547941 -0.37547 -0.06529 0.491696 -0.072201 -1.010882 0.444792 0.335015 0.405483 0.063258 -0.578041 -1.082621 0.045067 0.185023 -0.259123 0.180011 -0.454884 7.74E-4 0.652353 -0.938789 0.205096 -0.073665 -9.31E-4 -0.413857 0.106591 0.416442 -0.182452 -0.53604 0.146587 0.942285 -0.2507 -0.153322 -0.238256 0.184154 0.111455 -0.210759 0.057297 -0.265334 -0.01172 0.664618 0.295735 0.302587 -0.210624 0.133326 0.711735 -0.078989 0.061338 0.085157 -0.537382 0.116107 -0.098368 0.479539 -0.20975 0.075225 0.182287 1.052107 0.606594 -0.869648 -0.536448 0.601489 0.175961 -0.08832 0.186725 -0.26958 0.211378 -0.422554 -0.093027 0.454248 -0.211386 -0.427463 -0.501553 -0.604477 0.171407 -0.122722 -0.469177 -0.312266 0.141786 0.476212 -0.241676 -0.036502 -0.519373 -0.58108 -0.605345 -0.192148 0.329301 0.081889 -0.017105 -0.030142 0.188658 0.282604 0.261504 -0.054685 0.211371 0.14962 0.225025 -0.311889 -0.266786 -0.415003 -0.272272 -0.412187 0.530951 0.617723 -0.054222 0.142626 0.198644 -0.248208 -0.251954 0.395606 0.082736 0.298863 -0.313522 0.230594 -0.178519 0.08272 0.024909 -0.376732 0.63356 -0.602398 -0.507696 1.597198 0.033118 -0.171334 0.178012 -0.030448 -0.011241 -0.287048 -0.395485 -0.233041 0.025416 0.924638 0.562492 -0.47416 -0.730713 -0.242291 0.117944 0.175933 -0.413643 -0.409588 -0.995014 0.391862 0.360186 1.668845 -0.639187 0.951066 0.187634 -0.454203 -0.174013 -0.16638 -0.223723 -0.285638 -1.197568 -0.582057 -0.891189 -0.065576 0.237074 0.012757 0.357973 0.642343 0.693089 -0.284985 0.01616 0.510664 0.427894 0.508278 0.438578 0.387208 -0.897891 -0.175003 0.063104 0.32203 -0.871361 0.018181 0.007543 -0.571367 0.150093 0.049579 -0.147697 -0.149355 -0.321889 -0.697406 0.037752 0.055588 0.151075 -0.501137 0.12778 -0.23484 -0.418988 -0.123809 0.222825 -0.385766 -0.149219 -0.406693 0.132717 0.083674 0.066821 0.208937 0.42406 -0.181331 0.423937 -0.002116 -0.355483 0.102812 -0.401285 -0.549929 0.069011 0.370435 -0.1513 -0.133197 0.300876 -0.236251 -0.018553 -0.335862 -0.496645 -0.102998 -0.667204 0.371645 -0.019175 0.174764 0.141029 -0.301319 -0.017289 -0.310713 0.156999 0.223454 -0.195105 -0.15646 -0.18095 0.301244 0.512547 0.327423 0.491056 -0.085224 -0.278387 0.46792 -0.083862 0.090475 0.521606 -0.1223 -0.037023 -0.153639 0.308606 0.619703 -0.38835 -0.233648 -0.082329 -0.034203 0.329128 -0.146246 0.158471 0.226696 -0.938156 -0.626242 0.484418 -0.220296 0.097554 -0.034685 0.607418 0.098515 -0.463985 0.134239 -0.476612 -0.153872 -0.470158 -0.071183 -0.17009 -0.253448 -0.195482 -0.02948 -0.408987 -0.004625 -0.327365 -0.090353 -0.222667 -0.304372 0.988711 -1.604582 0.215929 -0.130364 -1.063488 -0.222149 -0.34837 0.953204 0.066999 0.352479 -0.020865 -0.264566 0.267734 -0.081513 0.272256 1.219543 -2.056886 0.469572 -1.027955 0.394728 0.294987 -0.575164 -0.139464 -0.154779 0.077663 0.102924 0.287659 0.065711 0.067033 -0.788407 -0.379936 0.08591 0.093855 -0.066153 0.685496 1.304485 0.418249 -1.16008 -2.116756 0.808585 0.089934 -0.103032 0.351443 -1.75042 0.250346 -0.234933 0.109942 1.049873 0.059658 0.986959 -0.120642 -0.157406
egg 0.252268 0.166155 0.494735 -0.271345 0.611753 -0.308062 -0.326572 -0.595541 -0.393371 -0.359825 0.147386 -1.112818 -0.692406 -0.208701 -0.136354 -0.398176 0.044258 -0.386718 0.746578 -0.146692 -0.820511 -0.221524 0.862157 1.032909 1.209007 0.19884 -1.105722 0.323409 -0.409143 0.134388 -0.58711 0.18607 -0.503926 0.154044 -0.156724 0.147618 0.679861 -0.155008 0.97513 -1.066934 -0.103078 -0.022941 -1.002267 0.204379 -0.215913 -0.281289 0.199414 0.296392 -0.357812 -0.235917 0.466426 0.616755 -0.761623 -0.111643 -0.378802 0.144744 -0.436757 -0.060985 0.00765 0.641878 0.096903 0.381919 -0.107268 -0.310316 -0.360595 -0.02668 0.118604 0.329026 0.947116 -0.427163 -0.734797 0.348767 0.044774 1.169455 -0.475436 -0.228673 0.028214 -0.30407 -0.598449 0.230867 0.237476 0.650012 -0.711462 -0.054496 0.028232 0.172476 -0.328835 0.395427 0.482927 -0.619148 -0.650794 -0.063226 -1.38409 0.218811 0.069578 0.003258 -0.320669 -0.507662 -0.085681 0.543834 0.930942 -0.222624 -0.244368 0.335093 0.266341 0.198909 0.031315 -0.573887 -0.417487 -0.128552 -0.571292 0.269642 -0.08006 -0.147992 0.416415 -0.007163 -0.640296 0.274117 0.266691 -0.032298 0.031937 0.814813 -0.289022 -0.099909 0.054103 -0.186021 0.081997 0.492896 -0.197222 0.192658 -0.083192 0.164583 0.084427 0.070793 0.227881 -0.086537 0.338576 0.346788 0.00341 1.34E-4 0.530599 -0.419391 -0.010062 -0.076376 0.913669 0.280993 -0.22063 0.73893 -0.314382 0.749916 -0.182871 -0.250783 -0.468237 -0.36436 0.271752 -0.380593 0.333672 0.016864 0.008527 -0.213956 0.362907 -0.679565 0.569628 0.951277 -0.565546 -0.601282 0.74545 -0.313809 -0.379694 -1.473885 0.810078 1.044451 -0.274044 0.555822 -0.417324 0.883355 -0.05056 0.058702 0.593326 0.731963 0.248242 -0.124917 -0.1497 0.223523 -0.181347 -0.080019 0.010482 -0.086325 0.2224 0.145221 0.138989 0.53526 0.531042 0.064657 -0.645746 0.417745 0.380611 -0.728961 0.212329 -0.96538 -0.508499 -0.310477 -0.426266 0.200572 -0.042149 0.137346 0.383361 0.02653 -1.0236 0.032492 -0.300113 0.347837 0.783802 0.251811 0.308235 -0.112714 -0.218964 -0.299261 0.162969 0.353062 -0.507233 0.274939 -0.279184 -0.135484 -0.155403 0.238437 0.628057 -0.122015 -0.021713 -0.033268 0.036519 0.003384 0.521178 -0.238798 -0.576266 0.16888 -0.631457 -0.664398 -0.772366 -0.191684 0.110301 0.240722 -0.247801 0.070275 0.4897 0.083932 -0.059879 1.01794 0.588051 0.171601 -0.250254 -0.207545 0.877422 -0.972325 0.382441 0.522285 0.448403 -0.209087 0.038716 -0.103865 0.39122 0.392984 -0.359264 0.50151 0.400921 -0.096372 0.222201 3.22E-4 0.712837 -0.264041 0.140771 -0.479187 -0.16914 -0.401569 -0.130307 0.698315 -0.779799 -0.212519 -0.504743 0.037552 -0.252016 0.342531 0.189394 0.802813 -0.088233 -0.08649 -0.066035 -0.298865 0.35039 -1.27105 0.569697 -0.913537 -0.301516 0.937899 0.191151 -0.066013 -0.573349 -0.201977 0.70632 0.159325 -0.113783 0.118218 0.264575 0.256656 -0.193476 -0.353412 0.664937 0.251276 0.645786 -0.341858 0.57201 0.103673 0.333393 0.592237 -0.817284 0.00499 0.117703 0.053675 -0.436536 0.040146 0.135986 -0.001236 0.53661 -0.651772 -1.157367 -0.635429 -0.839596 -0.614407 0.084189 0.409102 0.179866 -0.664458 0.077904 -0.028134 -0.567952 -0.736927 0.455905 0.01718 -0.176805 -0.123016 0.016768 0.4705 -0.043573 0.058875 -0.029311 -0.601171 -0.552673 -0.317016 -1.060716 -0.336138 0.68037 0.045178 -0.29096 0.061149 0.038093 -0.310325 -0.117227 -0.014332 0.203466 -0.430724 0.245763 0.457863 0.005538 0.532396 0.297426 0.024461 -0.051328 -0.243669 -0.015976 -0.005332 -0.545524 0.077241 -0.50697 -0.134127 -0.085267 0.048133 -0.3398 -0.576405 0.377104 0.429133 -0.023696 -0.533638 -0.62004 0.43389 0.37246 -0.254123 -0.306899 -0.170699 0.274535 0.704094 0.409698 0.398147 -0.384496 -0.117298 0.664082 -0.328855 -0.326177 -0.045977 0.39459 0.420802 -0.229653 0.241161 -0.156611 -0.041296 -0.440774 -0.067639 0.367323 -0.602028 0.595723 -0.104934 0.365845 -0.014764 -0.391736 -0.031123 -0.19706 0.624333 0.444459 0.48869 0.110583 0.197086 -0.349187 0.113261 0.41885 0.073014 -1.019148 -0.421201 0.446872 0.550864 -0.24212 -0.652486 0.344979 -0.51465 -1.433174 -0.407551 -0.595944 -0.48112 -0.334312 -0.091889 -0.598768 0.750488 -0.251022 0.52873 0.157191 0.163802 0.412915 0.73344 0.008593 -0.353439 -0.443591 0.355119 -0.523286 0.150091 0.630543 0.26454 -0.175951 -0.959651 -0.309684 0.032591 -0.659584 -0.317938 -0.027758 0.709087 0.075813 -1.028496 0.120532 -0.515511 -0.52411 -0.157758 -0.513631 0.518728 0.510188 -0.353267 0.022712 0.089208 -0.215879 0.013222 -0.21074 0.179467 -0.022889 0.804198 0.292643 0.453489 0.258075 2.070754 0.418303 0.334307 -0.24808 0.236809 0.223229 0.660123 -0.056598 -1.20035 0.531923 -0.036342 -0.512908 0.968099 -0.613696 1.150291 -1.78052 -0.23585
year -3.383411 -3.914866 1.034309 -0.719834 0.563142 -1.775082 -0.927058 0.461245 -0.761602 -2.039854 -0.65911 0.604584 2.545913 0.205147 -1.152344 2.964524 0.863742 -1.624832 1.757992 0.647723 5.68889 -1.174703 -5.555033 -3.009891 -0.71531 -0.69882 1.184303 0.619365 0.91405 0.048254 2.166708 -1.345922 2.8605 -0.505962 0.016646 0.817592 -3.016189 -0.659215 -0.429206 3.599131 0.920069 0.735391 2.568411 0.214286 2.116842 2.095785 -1.743589 -0.833068 -0.009483 -1.258724 1.013891 1.097805 -2.568291 -0.134122 -0.886984 -0.908722 2.04117 0.480111 -0.46099 -3.157646 0.892099 -1.925096 -2.002302 -0.335127 -2.675466 -2.758418 -1.393905 -0.392591 1.309975 -2.310422 2.828053 0.209599 0.198639 -1.159811 -0.311869 0.940478 0.738787 -1.201333 -1.49719 0.460015 -0.038145 -0.511824 -0.024135 0.925779 0.499823 -0.788928 -0.522426 -1.48351 0.294805 0.940361 0.123884 -0.119383 0.193676 1.501246 1.545146 4.056668 -3.930803 -0.23854 2.364685 2.652874 0.86909 -3.969965 -0.530182 0.38413 -1.798968 -2.10957 0.17164 -0.555675 -1.506707 -0.927269 0.094017 0.119329 -1.358197 1.564286 2.059385 0.842507 3.26454 -0.091488 -2.069875 0.69828 -0.264672 -1.072853 -0.122248 0.465358 0.777568 1.257145 -0.665024 -1.913606 -0.673053 -0.687122 -0.151931 1.219002 2.999073 0.739743 1.146051 -2.351944 -0.737202 1.159426 1.041434 -0.890417 0.292849 -1.772102 -0.510211 1.676883 0.661469 -0.156832 1.227118 -0.740666 -1.150975 0.916615 -1.859293 0.518183 -0.454298 -0.802858 2.27591 -2.451817 0.006082 1.681026 -1.418033 0.156444 2.505882 -2.629377 3.466157 5.341329 -0.636954 -2.145122 2.197052 -2.180987 0.536081 1.080608 1.824129 1.488551 -0.715382 -0.553481 0.709261 -0.395098 -0.783198 -0.965288 0.46526 3.673958 -0.580732 2.381742 -0.942431 -0.846416 1.511795 2.815944 0.321825 0.451165 -0.580461 1.850464 1.197344 2.30103 3.446294 -4.626222 1.946054 -3.134142 -1.934758 1.355138 0.557862 3.069267 0.929898 0.023479 0.167707 -0.265053 -0.185328 -4.453759 0.784302 -0.958617 -4.579237 2.053826 -1.097801 2.088874 2.134751 -1.233635 0.264394 -1.369029 -0.489603 0.165159 0.229326 -0.832575 -2.485414 0.877301 -1.746245 1.117784 0.309451 -2.198149 -0.087131 0.703832 0.992725 0.646122 -0.470036 0.182217 0.210447 4.378782 -0.447685 0.741096 0.185156 -0.390445 0.193804 -0.740868 -1.383703 -1.113137 0.539963 -0.801674 0.848485 1.806476 0.918991 -0.65828 1.006449 -0.032217 0.444093 -1.355303 -2.731014 0.177838 -0.753966 0.982297 2.679076 0.099855 -0.723267 0.22091 -1.028 0.404132 1.313498 1.171248 -0.960492 -0.223705 -1.187117 0.033336 2.389933 -2.827472 -0.690341 -0.072294 1.124223 0.438782 1.136631 -0.049588 0.745309 -0.934466 -0.030099 -0.464345 2.100237 -0.502643 1.555022 -4.09431 0.52211 -1.798173 -0.229738 -0.637066 0.661744 -3.219006 -0.229381 -1.519129 -0.667599 3.856872 0.233665 1.465597 0.925854 0.579552 2.587635 -0.216806 0.614628 0.627845 0.47746 -0.698018 0.199413 0.429789 1.200663 -1.677943 2.34414 0.536194 -4.20124 -0.666564 -3.030322 0.566449 -0.79103 0.869584 -2.685964 2.687746 0.886571 -1.862793 0.358849 -1.849365 -1.66494 -1.869185 -4.076015 -1.329223 -1.113937 -1.174328 -0.109649 2.199644 0.248393 -3.607206 -0.397694 0.441977 0.20247 -1.362885 0.886446 -1.301717 0.627901 -0.669083 1.408256 -0.903848 0.792923 0.901589 2.393798 2.422575 -0.820594 0.830726 -4.082253 -0.045986 0.511101 1.100715 2.326006 -1.999539 1.215669 0.345576 -1.895441 1.375156 -0.272566 -1.114109 -1.084017 -2.83844 1.10011 -2.805404 -1.031814 3.348316 -1.075354 -0.627507 0.767645 -3.310004 0.377799 0.852121 1.542327 -0.651303 -2.269105 1.532219 -0.790221 -0.818745 2.935532 -0.938241 -1.113139 0.269214 -3.952124 3.779349 0.31782 0.300465 -0.257184 -2.53618 -0.58898 -1.258677 -1.196862 -0.450657 0.587123 1.632239 -0.602684 -0.363691 0.507601 -3.189595 -0.792885 -5.43119 2.261956 0.622054 0.586885 -1.127874 -0.718144 2.999568 -1.695663 -0.046814 -2.029653 -1.895363 -0.399412 -2.867134 0.155033 -2.165233 1.768585 1.287993 -0.141437 0.97093 0.454298 2.028651 -0.697671 0.808386 -0.027342 0.459422 0.752151 -0.375801 -0.318309 -1.716903 -0.212211 -1.89439 3.563115 0.065417 -1.270939 1.395897 -3.419755 -0.714803 0.168023 -0.133379 1.790999 1.579838 1.065635 0.774867 1.688479 0.905247 0.081631 -0.819611 -0.359227 0.53775 -2.73165 4.618325 -0.456428 -1.167668 1.173382 -2.970417 -0.067023 -0.363308 1.091074 -1.017169 -1.944782 -1.504509 -0.776061 0.484876 -1.483701 -4.56741 3.08401 -1.965784 -1.534766 0.249809 -1.368792 0.730938 2.76145 -2.245823 -0.261142 -1.491424 -0.613194 -3.264769 -3.004716 -5.894604 -1.028241 0.006337 2.141957 0.098102 -1.890229 7.111051 -4.308262 -2.68957 0.80917 -1.67231 -0.372687 -3.561786 -2.180189 4.11101 2.763204 -2.274452 -3.957568 -2.684703 0.519125 -3.312246 0.375936 2.026644
psychiatry -0.312748 -0.165327 0.070952 -0.102963 -0.157547 -0.004542 0.057763 -0.09012 0.071214 -0.078607 -0.182867 0.119043 -0.08216 -0.082599 -0.208623 -0.013653 0.147475 0.198753 -0.083369 0.164654 -0.067698 0.005908 0.076391 0.196389 0.224911 -0.075423 -0.321127 -0.161401 -0.189596 0.045683 0.029802 0.311095 -0.030007 0.045075 -0.183279 0.078294 0.212322 -0.118878 0.054048 -0.084197 -0.204902 0.164865 -0.409438 0.069015 0.02674 -0.013575 0.115772 0.001677 0.008607 -0.066972 0.09142 0.048383 0.06244 -0.047177 -0.130733 -0.005853 0.014062 0.036517 -0.036387 0.11619 -1.34E-4 0.258869 0.11629 0.024354 0.035224 0.118586 0.027708 -0.13925 0.277032 0.199733 -0.214316 0.266609 -0.076324 0.077146 -0.31747 0.084177 -0.073399 0.048579 0.068019 0.148544 -0.209376 -0.198359 0.109989 0.170938 -0.172163 -0.111878 -0.093084 -0.063054 0.388035 -0.146652 -0.069148 -0.241095 -0.150521 0.050928 0.018374 0.230112 0.159018 -0.161913 -0.184121 0.079594 -0.214437 0.248079 0.131909 -0.096928 0.059444 -0.258351 0.06476 0.063066 -0.148346 -0.180048 -0.423056 -0.065599 0.371547 0.091078 0.095729 -0.101154 -0.606756 0.031688 -0.134627 -0.070487 -0.177204 0.443143 -0.18666 0.126624 -0.27273 -0.268236 -0.101518 0.010646 0.170651 -0.091304 0.060599 -0.020021 -0.137296 -0.053821 -0.063882 -0.083455 0.027615 -0.097106 -0.09802 0.005781 0.003437 -0.256362 0.296758 -0.005984 -0.003491 0.001737 -0.077366 0.330926 0.173507 -0.086629 0.03006 0.032852 0.061942 -0.091599 0.034107 0.283811 -0.034067 -0.262479 0.443529 0.273061 -0.063793 -0.070756 -0.116599 0.050246 -0.001312 -0.115494 -0.226979 -0.019633 -0.007426 -0.070276 0.013737 -0.074489 0.128511 -0.024824 -0.073051 -0.006478 -0.070315 0.10201 0.036787 0.044397 -0.034307 0.064215 -0.163731 0.052258 -0.116669 -0.058892 0.230133 -0.024025 -0.049776 -0.100792 0.306019 -0.143133 -0.099469 0.024734 -0.073592 0.162611 0.093007 -0.171815 -0.027381 0.02801 0.251633 0.225918 0.128851 -0.345581 0.058994 -0.01286 -0.021444 0.084284 -0.369548 0.105673 -0.114857 -0.001204 0.142421 -0.169036 -0.085549 0.016367 -0.288256 0.027072 0.09978 -0.220167 0.020095 0.131093 0.120939 -0.128535 -0.166617 -0.258902 0.028439 0.031474 -0.106124 -0.443119 0.017833 0.089989 -0.090738 -0.058917 0.063599 -0.188421 -0.073896 -0.185699 -0.38464 -0.101631 0.229861 -0.126092 0.016013 0.011583 0.124671 0.09041 -0.129182 0.216153 -0.052995 -0.098208 -0.054594 0.044758 0.261813 0.025273 0.293704 0.230023 -0.204668 -0.157172 0.065299 -0.095417 0.307291 -0.290138 -0.281032 0.130283 0.015636 0.078676 0.05086 0.0326 0.030029 -0.165249 -0.034131 -0.091713 0.141108 0.048668 0.022084 -0.095542 -0.197079 0.017931 -0.0115 -0.10079 -0.159953 0.023619 -0.075134 0.080264 0.084605 -0.017059 -0.033823 0.034808 0.158896 -0.010825 -0.155062 0.047581 -0.122664 0.138623 0.133567 0.13918 -0.121806 0.067628 0.093862 0.072554 -0.088297 0.056476 0.015512 0.007114 0.029816 0.08016 0.158708 -0.045206 0.054167 0.113654 0.095561 -0.185111 -0.064 -0.044539 -0.212194 -0.037107 -0.074575 -0.064446 0.096787 -0.241406 -0.037519 0.166929 -0.110701 0.07806 0.01439 -0.028087 0.074721 -0.174623 0.014135 -0.064871 0.085196 0.323334 0.235316 -0.020223 0.011972 0.285361 0.106246 -0.015865 0.036696 0.090247 -0.268227 -0.116116 -0.134063 -0.084822 -0.494262 0.039573 -0.073151 -0.079958 0.137606 0.047059 0.155078 0.090947 -0.112246 0.006933 0.112681 0.019688 0.004229 0.022713 0.078676 -0.043122 -0.026766 -0.036734 -0.074397 -0.109186 0.012925 0.067724 0.081667 0.18361 -0.003294 -0.078599 -0.055313 0.205251 0.056918 -0.195374 -0.024119 0.241577 -0.292606 -0.171006 0.118001 -0.155919 -0.066635 -0.004951 -0.039182 0.051388 0.050368 -0.095423 0.088572 -0.014429 -0.012091 -0.050908 0.113769 -0.076699 -0.309223 -0.0766 -0.18681 -0.006276 0.217472 0.187471 0.061916 0.344946 -0.166497 -0.173567 -0.030963 0.014484 0.028463 0.005339 -0.013697 0.020646 -0.163629 0.07818 -0.042849 -0.148506 -0.001348 0.0896 -0.270023 0.135978 0.005159 0.016637 0.062525 0.060651 0.044299 0.156459 0.085947 0.07374 -0.29211 -0.142144 0.151653 0.22057 0.058551 0.147043 0.13815 0.05022 -0.05236 0.131078 -0.07589 -0.103032 0.012931 -4.27E-4 5.53E-4 0.040293 -0.121343 -0.077213 -0.03787 0.026847 0.051688 -0.119937 -0.037221 0.030373 -0.173667 0.050833 0.033366 0.057301 0.084355 0.064082 -0.106768 -0.01944 0.080227 -0.283 -0.147161 -0.114629 -0.095444 -0.035926 -0.160114 -0.471273 -0.152354 0.061809 0.08972 -0.093975 -0.059864 0.035339 0.182835 0.125016 -0.04395 -0.109947 0.001137 -0.019138 0.010917 0.046906 0.014259 0.157464 -0.028991 -0.032051 -0.15687 -0.059735 0.243524 -0.272002 -0.181078 -0.126089 -0.098607 0.088764 0.395651 -0.075912 -0.316397 0.014866 0.217793 -0.064703 -0.143042 0.067679 0.144799 -0.068781
asylum -0.401989 -0.25569 0.009899 0.149036 -0.573803 0.160689 -0.193596 -0.085158 -0.159745 -0.220006 -0.522493 0.690096 0.581749 -0.087425 -0.317002 0.431908 -0.272271 0.262426 -0.192413 -0.112068 -0.158712 -0.114735 0.021426 0.141722 -0.119045 0.095091 0.209871 0.008315 -0.432623 0.533966 -0.555464 -0.006402 0.278202 -0.065045 0.596055 -0.562805 -0.224717 -0.096213 -0.316132 -0.047589 0.147345 -0.016298 -0.51391 0.268819 0.631193 -0.082075 -0.489221 0.020405 -0.366462 -0.138747 -0.015293 0.200748 0.763178 0.300325 0.225601 0.039123 0.997108 -0.491554 0.209453 -0.102502 -0.453308 -0.681534 -0.266324 0.15705 0.055436 -0.539297 -0.873828 -0.175283 0.366122 0.152695 -0.098568 0.205305 0.194661 0.411958 -0.264704 -0.331505 0.072808 0.367171 -0.123413 -1.011331 0.143474 0.060819 0.374324 0.298553 -0.238424 0.641797 0.00488 0.362418 -0.594713 0.282297 1.081081 0.340532 -0.162929 0.398678 -0.014955 0.87806 -0.673882 0.342574 0.793751 -0.059809 -0.254614 -0.311805 0.420609 0.3862 0.314966 0.150624 0.273725 -0.13683 0.347906 0.109408 0.476959 -0.008264 -0.507043 0.455377 -0.617688 0.707812 1.12697 0.084898 0.379441 0.358374 0.107746 -0.354857 0.33378 0.503742 -0.463242 -0.270916 -0.810783 -0.683981 0.100687 0.519706 -0.108357 0.236869 0.36382 -0.185608 0.532869 0.330649 0.538551 0.985305 0.381994 -0.373086 -0.042944 -0.052441 0.472745 0.644091 -0.256541 0.00418 0.325184 0.141438 -0.052405 -0.389183 0.041063 0.598629 0.922235 0.334902 0.275914 -1.342912 -0.401011 -0.25263 -0.173152 -0.25045 0.11929 0.605897 -0.207073 -0.150958 0.001716 0.126001 -0.027114 -0.641335 -0.144495 -0.521495 0.682954 0.267602 0.292905 -0.469259 0.314557 0.051403 -0.185854 0.021098 -0.182291 -1.275176 -0.088942 -0.145422 -0.230613 -0.549668 0.160994 0.844956 -0.35225 -0.817653 -0.505653 -0.18942 0.679891 -0.036386 -0.772237 0.856489 0.256418 0.2304 0.498994 0.609178 0.012765 0.074522 0.491343 0.529102 0.110976 0.152886 0.006817 0.673283 -0.016106 0.530628 -0.005982 -0.505243 0.125653 -1.001542 -0.467533 0.176298 0.00264 0.635241 -0.084528 0.133019 -0.240313 0.071967 0.429228 -0.275628 0.64193 -0.147121 -0.48546 -0.084108 -0.251638 -0.091886 -0.385742 -0.174712 -0.492207 0.405549 -0.040867 -0.40639 -0.333376 -0.352451 0.671504 -1.32492 -1.146969 -0.187652 0.10025 -0.075989 -0.623902 0.626888 0.304106 0.083644 -0.135569 0.731406 -0.566561 -0.160204 -0.110593 -0.294292 0.09067 -0.009578 0.202418 0.082507 0.753036 -0.098569 -0.549858 0.083722 -0.591522 0.057618 -0.26803 -0.453569 0.070842 -0.259761 0.307961 -0.423888 -1.075916 0.964134 0.391127 0.391061 -0.183115 0.332793 0.993388 0.306092 0.036426 0.508056 -0.10388 0.061254 0.460914 0.266111 0.27496 -0.35544 -0.413904 -0.157766 -0.315854 -0.327597 0.200478 0.124775 -0.175585 0.194473 -0.116381 -0.131289 0.109693 -0.174542 -0.700544 -0.631959 0.15596 0.118367 0.412782 0.475131 0.098479 -0.084143 -0.144294 -0.132034 0.214157 0.00623 -0.280455 0.002594 0.761489 -0.317749 0.448825 -0.512746 0.101383 -0.926237 0.934844 -0.641742 0.401256 0.541453 -0.652699 -0.47108 -0.20598 -0.176713 -0.540135 -0.751165 -0.292923 -0.597036 0.468341 -0.059267 -0.065074 0.955293 -0.45275 0.677259 0.198216 -0.51751 -0.442334 -0.679796 -0.177213 -0.278525 -0.345752 0.109111 0.100425 0.502062 -0.317157 0.362346 0.276783 -0.260645 0.479448 -0.155458 -0.113998 0.518922 0.450592 0.069101 -0.737911 -0.054129 -0.066493 0.254066 0.57046 1.234713 -0.492202 -0.425726 -0.250254 -0.528952 -0.814233 1.626037 -0.779828 -0.080271 0.108495 0.069522 -0.241874 0.566031 0.892479 -0.714134 -0.144206 -0.463386 -0.061356 0.512948 0.847838 0.41235 0.571212 -0.252904 -0.84639 0.658756 0.428347 -7.67E-4 -0.013816 0.171484 0.234255 0.148108 0.593174 0.239514 0.923526 0.274628 -0.142016 -0.462094 0.299602 -0.501808 -0.455826 -0.758989 -0.221653 -0.22339 -0.175775 0.492685 0.764281 -0.333605 -0.030525 0.692332 0.31408 0.444038 -0.15614 -0.015598 0.185099 0.05407 -0.157195 -0.008498 0.681522 -0.492226 0.072174 -0.967818 0.375683 0.018599 0.23182 -0.254947 0.406383 0.757301 -0.127241 -0.448166 -0.500323 -0.440839 0.344084 0.425766 0.408388 0.111306 -0.520003 0.521957 0.482595 -0.334585 0.190562 0.053932 -0.360558 -0.002606 -0.093946 -0.016121 -0.309976 -0.613896 0.33545 0.728782 0.411162 -0.188213 0.903546 0.397089 0.222927 0.13091 0.384788 -0.354384 0.328507 0.006482 0.205844 -0.401128 0.372185 -0.852267 -0.65254 -0.761031 0.446478 -0.222234 -0.152585 -0.555484 0.618739 -0.239136 -0.081539 -0.21211 0.186959 0.481971 -0.29533 0.850128 -0.142563 0.641626 0.633925 -0.031995 0.495373 -1.372338 0.076161 0.090488 0.019897 0.371561 -0.803207 -0.010954 0.695025 -0.198818 0.468951 -0.993215 -0.367332 0.027662 -1.622325 -1.128833 0.32845 0.497328 0.504456 0.307186
manslaughter 1.245919 0.02298 -0.062089 -0.621434 -0.126876 0.445264 0.011774 -0.477962 -0.740133 -0.310037 0.209932 0.491862 -0.204273 0.2137 -0.344044 -0.51545 0.231639 0.409956 -0.315297 0.236333 -0.390254 0.164781 0.533862 -0.403213 -1.561694 0.075305 -0.006276 -0.10114 -0.939918 0.187138 0.229739 0.556778 0.469905 -0.252244 -0.148195 -0.633075 0.114628 -0.426476 -1.418728 1.029259 0.53891 -0.22249 0.475462 -0.174115 0.002366 -0.496753 0.506844 0.124222 -0.430766 -0.204253 0.551185 0.627558 0.73929 0.199787 -0.395329 -0.625259 0.278893 -0.18016 0.183354 0.259354 0.316533 -0.014988 0.017621 -0.113253 0.148086 0.048544 -1.065021 0.10668 -0.31493 0.673005 0.388299 0.065143 0.264378 0.513572 -1.029232 0.135815 0.130922 0.287085 0.65154 0.112411 -1.696508 -1.438405 1.213317 -0.038536 -0.702847 -0.380746 -0.585096 -1.072593 1.393313 -0.192076 0.021786 -0.671049 -0.697906 -0.070649 -0.157077 0.182878 0.047555 -0.268167 0.265828 -0.261803 0.502507 -0.455468 0.189102 0.257914 0.395958 -0.034329 1.183195 0.586021 -0.173202 0.565286 -0.415213 -0.356692 0.089214 0.410446 -0.130505 -0.110823 1.426728 -0.610713 0.030335 0.321965 -0.499286 0.335173 -0.139984 0.655668 -0.143563 0.251236 -0.309239 -0.230752 0.25274 -0.398133 0.371448 -0.230932 0.402079 0.925998 0.351494 -0.578775 -0.282005 -0.58211 -0.279424 0.032058 -0.264494 0.160892 -0.42284 -0.241747 -0.524143 -0.517317 0.904276 -1.083995 -0.647025 0.469698 -0.001258 0.649705 0.317447 0.366061 0.074947 -0.400863 -0.235713 -0.94823 0.054886 0.556825 0.13044 0.263352 0.394149 0.32559 0.22217 -0.862265 -0.140489 -0.321563 -0.091047 0.260494 0.170088 -0.098704 0.347812 -1.052257 0.270896 -0.173144 -0.082431 0.311851 0.25017 -1.359252 0.452114 0.057059 -0.152631 0.080439 -0.415977 0.001896 0.153574 -0.527213 -0.481548 -0.512425 0.08233 0.146265 -1.001842 0.618829 -0.082991 0.563035 0.417995 0.846328 -0.068245 0.211661 1.240586 0.810109 1.027943 -0.372104 -0.122828 0.427482 -0.063255 0.578518 -1.048685 -0.359633 0.052139 -0.873335 0.184423 0.067592 0.261414 0.938304 0.092628 -0.641402 -0.078129 -0.571517 0.521594 -0.513209 0.094864 0.091767 0.289262 0.007298 0.167976 -0.281025 -0.237672 -0.879413 -0.473473 1.087175 0.312799 -0.753412 0.201579 -0.616145 0.964145 -0.782247 -0.692563 -0.617463 -0.696095 0.29376 0.317777 0.251839 0.223275 -0.430168 0.255729 -0.183548 0.484114 0.651114 -0.095837 -1.104597 0.742953 -0.19724 0.486505 0.522038 -1.338092 -0.57675 0.528104 -0.660168 0.764711 -0.706852 -1.130488 0.047252 -0.46712 0.516094 -0.10499 -0.262649 0.105008 0.026486 -0.011736 0.247436 -0.32818 -0.517688 2.455309 0.773507 0.363925 -3.74E-4 -0.413332 1.123205 0.230044 -0.245236 -0.062798 -0.450179 0.744326 0.606645 0.999061 0.775125 0.102284 0.667247 0.172361 -0.014328 0.248946 0.935386 0.102722 -0.241186 0.533905 -1.026709 0.626405 -0.982376 -0.524398 -0.099989 -0.366694 0.282089 0.408545 0.41255 -0.33764 -0.177972 -0.407382 -1.054475 0.082829 0.275648 1.436732 -0.449196 0.536794 -1.142728 0.073546 -1.300043 -0.590191 0.093747 0.370624 -0.232155 -0.980575 0.570861 -0.006847 0.387393 0.226253 0.147397 0.381282 -0.786981 0.331108 1.344275 -0.056768 0.072506 0.161505 0.073513 -0.459576 0.058715 -0.279055 -0.049302 -0.361468 0.284007 -0.400554 0.136998 -1.271063 0.316953 -0.135184 -0.062079 0.319589 0.262923 -0.85345 0.114925 -0.609845 0.316242 0.061553 0.512617 -0.132652 -0.58043 0.119691 -0.34102 0.115396 -0.217741 0.349906 -0.401094 -0.475314 0.694515 -0.037702 -0.595517 -0.188671 -0.015939 -0.760629 0.375938 0.033998 -0.556995 -0.966778 0.739999 -1.139798 -1.356077 1.583575 -1.244562 -0.243358 -0.358936 -0.696032 1.087681 0.036082 -0.286037 0.155837 -0.289732 0.12183 -0.118178 0.105108 -0.272273 0.496629 0.530105 -0.40386 -0.482014 0.539945 -0.309188 -0.150018 -0.505141 -0.328561 -0.849705 0.105693 -0.190951 0.612973 -0.505165 -0.045891 0.527781 -0.737476 0.579905 -0.813289 -0.001666 0.813852 0.687122 -0.744554 0.229171 -0.410695 0.729835 1.483284 0.871 -0.846788 0.355917 -1.033176 -1.602587 -0.376974 0.115628 0.389018 -0.360002 -0.871025 0.076117 -0.328944 0.516989 -0.25718 0.467214 -0.114084 -0.332081 0.235078 -0.548739 -0.291734 -0.127624 0.05187 -0.024021 -0.119016 -0.23209 0.368839 -0.391647 0.559428 0.130688 -0.709924 1.336621 -0.589672 0.467483 1.915134 1.085342 -0.132709 -0.985132 0.147211 -0.214716 -0.284922 -0.239798 0.131615 -0.397272 -0.341456 -1.012158 0.255574 -0.002306 0.288093 0.017191 0.1391 0.191872 -0.087943 -0.044303 0.096906 0.080971 0.702114 0.538935 0.166763 -0.079973 -0.20007 0.311507 -0.261289 -0.3141 0.110608 0.179741 -0.090044 -0.025654 -0.851597 -0.654528 -0.059562 0.055662 0.712405 -2.176605 0.375857 0.515828 2.163333 0.775546 0.43682 0.413487 -0.00618 9.68E-4
music 0.907236 -0.979412 0.022438 -0.728786 -0.107452 0.933408 -0.040588 -1.270305 -2.44935 -1.52066 1.028711 -3.155421 -0.456546 1.331613 0.599834 0.008906 0.548135 -0.077293 -1.016327 1.436368 0.943359 -0.94648 -3.120543 -3.226996 1.745827 -0.045634 -0.546463 0.759192 -0.012146 0.558192 0.709385 -1.457241 -0.768413 1.263435 0.651692 -0.742124 2.079842 1.262157 -0.362675 -0.655898 -0.351641 0.622278 0.90346 -0.389441 -1.135756 0.063415 0.116289 1.722685 0.095359 0.358808 0.04375 -0.489528 1.433029 -0.079932 -0.380949 -0.831416 -2.434023 -0.651829 -1.281427 2.646732 1.748347 -1.194597 0.299512 0.327742 0.897257 -2.661573 0.080326 -0.052438 -1.165837 0.540225 0.45567 -0.873794 0.406146 3.661211 -0.252404 -1.301102 -0.602455 0.574661 2.265944 -0.434392 -0.786583 -0.960766 -0.578655 1.159505 -0.130282 1.008685 -0.536313 0.027579 0.078707 -3.515974 -1.437578 -1.049032 -2.063117 1.716415 0.266038 -0.016226 0.237828 -0.035907 -0.126964 0.001188 0.102305 -0.57572 0.006971 0.169648 1.356163 -0.328188 0.613024 -0.779626 -0.463023 2.268895 -0.192624 0.389705 0.067674 -1.064316 2.39089 -0.21911 -2.362125 0.003024 0.839742 1.0386 0.313597 1.631188 -0.579358 0.458621 -3.874981 -1.050045 1.169118 0.070945 0.399141 -1.164239 -1.672951 -0.78923 -0.196642 0.573569 -1.82624 1.594681 -0.091082 -2.165302 -1.248855 0.364973 -0.454153 -2.088174 1.241207 -0.230805 0.390341 0.907173 -1.341024 2.96632 0.599104 1.912571 0.397135 0.446719 -1.80066 -1.932764 -0.844191 -2.077882 0.247643 -0.69126 1.142149 0.565642 -0.194837 0.262899 -2.869177 -0.692792 -0.135361 -1.960453 -1.789818 0.720831 0.677668 -1.291033 -2.589148 -1.494743 -1.515796 0.343787 -0.942 0.651251 -0.554402 0.107967 2.150293 3.74053 -2.201248 0.210014 -1.422275 -1.448456 -0.456616 1.335411 0.220833 -0.679238 1.158749 -0.150576 -0.547068 0.808167 0.422177 0.732121 0.087347 0.039393 -0.116895 0.986104 0.33983 -1.168843 -1.214096 -0.250135 -0.760231 -0.226058 -0.838347 -0.279427 0.002868 1.487717 -2.331966 1.489652 -0.60784 -0.611212 1.130013 0.011363 -0.736173 0.95341 2.577019 0.385497 -0.653544 2.054287 -1.860433 -0.032847 0.095428 0.823433 0.058612 3.505527 0.976483 -1.192584 1.579747 1.843025 0.746461 0.20811 -0.638083 -0.800929 -1.036377 -0.449999 -0.46833 1.47023 0.294243 -0.637448 0.753242 1.089047 1.811177 0.404092 1.284832 0.219308 0.713471 2.032713 0.053356 0.044895 -0.746686 -0.024968 -1.313054 -1.069339 -0.613421 -0.60489 -0.572677 -0.577646 -0.24148 -0.138633 1.715285 -1.460088 -1.599224 -1.463746 0.635701 1.02554 0.991046 0.429688 1.609835 -1.433606 -1.349226 -0.507456 1.237742 -0.827986 -1.475781 1.159137 0.974961 0.033007 -1.291685 -0.121824 -0.72302 -2.369423 0.84649 1.995361 -0.858242 0.615988 0.107182 -1.243431 -0.113831 0.249716 0.856316 -1.2595 -0.239436 -2.0664 1.088926 0.101426 0.529748 -2.263842 1.272236 0.799486 0.330335 0.868238 0.232709 0.384625 0.65935 0.208661 -1.10094 0.734124 -0.165066 -0.260108 0.903217 0.277807 -2.469066 -0.748559 -1.556131 2.829679 1.120269 2.002231 1.592749 -0.369026 -1.590733 0.002948 -0.633456 -0.51982 0.1347 -0.377075 -0.301526 -2.127568 -0.528585 2.279583 -0.284078 -3.074714 -1.823996 1.714395 -1.548294 -1.655004 -0.206153 -1.13332 0.614982 0.43688 1.584576 -0.26972 -1.281877 0.070738 -0.613328 0.396945 -0.157704 -0.50256 1.452118 -0.324793 -0.443183 0.331914 -0.117314 -0.003199 0.748366 -1.747117 -0.832423 0.901399 0.366047 -0.85069 0.390244 -0.322952 -0.342656 0.817139 0.846842 -3.462789 1.845918 -0.227093 1.325627 0.572319 -0.448557 -1.617755 0.871674 1.854273 1.341444 -0.822638 1.667855 0.782267 -0.585426 2.580951 -1.084613 -2.355837 -0.21855 0.893811 -0.749116 0.987701 1.694453 1.159571 2.01316 -0.703847 2.414445 -0.554654 0.101502 -1.390188 0.94156 -0.086577 -0.366966 0.450458 0.750705 0.505876 -2.036854 -0.463762 0.768016 -0.395453 -0.851452 0.28586 -1.352813 1.397101 -0.082151 -1.363432 -1.03517 -0.74269 -2.060071 -0.718359 -2.228259 0.05819 -0.481376 -0.948454 0.893712 -1.456358 0.252738 1.029909 1.314811 -1.942693 -1.075315 -3.003338 1.684787 1.076963 -0.578547 -0.281737 0.899491 -2.483422 0.134864 1.598544 0.473558 0.504187 1.59596 -1.344787 0.216331 0.084866 -0.666479 -0.333325 0.051846 1.057394 3.046725 -0.936857 0.496164 1.166261 0.045023 -0.258264 -0.039141 -0.255646 -1.16533 0.242693 1.494604 -0.92034 0.720501 1.103108 0.070433 -1.968358 0.54508 -0.219668 0.370046 -0.79413 -1.14742 1.016313 0.866235 1.091929 -0.622392 -1.236293 0.721019 -1.12852 0.034064 -0.343788 0.45358 -0.259149 -0.554765 1.41029 0.810088 -1.304517 1.282026 -0.011948 0.195866 1.657068 -1.090597 0.528057 0.77853 -0.001667 1.380317 -0.568543 -2.052223 0.795508 -0.897421 -0.175302 -0.782671 0.32604 1.426377 -1.20489 1.692961 -0.608793
record 0.890622 0.333193 -0.081089 0.964335 -4.883268 0.459236 0.301062 2.083809 -0.931746 -1.1148 -0.04 -3.396192 1.270013 -0.590922 0.819296 -1.438859 0.952812 -1.822301 0.089143 1.133944 -1.977604 0.121202 0.373645 -0.119985 -2.804425 0.533727 0.988225 -0.589322 -1.671322 0.878658 1.911286 -0.97612 -1.663134 0.005547 0.196169 -1.647074 0.179842 -1.760795 -0.943484 -0.748383 0.412832 -1.087062 0.600224 -0.956958 1.797244 -0.440003 -0.715663 -0.185456 -0.268947 0.796054 0.197681 -1.356717 -0.426109 -1.133111 -0.445507 -1.983731 -1.900822 1.338265 0.619575 -0.720705 0.407063 2.239596 -0.183206 -1.310615 -1.729963 -0.980276 0.166774 1.574426 0.161039 -0.01739 1.134414 1.682759 -0.26375 -0.32667 -0.953857 0.465045 0.679571 -0.22429 -2.374392 -0.977048 0.955253 -0.437872 -0.398607 0.689241 0.86573 -0.335981 0.467652 -1.265193 -0.16359 -1.650045 -0.972435 -0.029932 2.449443 0.50942 0.834017 0.380218 -0.001844 -0.74372 3.036203 1.128547 2.362432 -1.244103 0.109727 2.262602 1.128659 0.830683 -0.074112 -1.00241 -1.250426 -0.603325 1.018388 -0.655654 -1.469282 -0.426731 1.438761 -0.069034 1.58064 -0.326086 0.975953 -1.311447 1.065886 0.091332 1.087167 1.304288 0.06773 -0.528063 0.670975 1.293796 -1.321345 -1.575723 1.360054 0.261997 1.55688 1.314124 0.344247 -1.321197 -0.232344 1.492433 -1.724212 -0.327742 0.353329 -0.934475 3.751099 1.526653 1.30172 -0.638069 1.105399 -1.705305 2.051643 1.08877 -0.685512 -0.453514 -1.438003 -0.382519 0.641265 -3.436847 -1.06556 1.064394 -0.256377 -2.01589 1.124294 -0.004354 0.547559 0.226423 -0.107937 -1.542168 -2.490384 1.536551 0.317164 -0.496935 -2.943203 -1.861846 -0.798365 2.539422 -2.802564 0.162285 -1.368411 -1.437855 0.646287 1.03566 -0.440926 1.243529 0.551673 -0.754399 -2.504834 -1.306377 2.078892 0.326115 -0.768227 -0.722236 0.900744 -0.18916 -0.839144 1.811598 -0.19605 1.841776 0.476475 -0.041126 0.381637 0.491544 0.122126 -0.002408 0.242587 0.438987 -0.042668 -2.259262 -0.070363 -1.024479 0.984453 -1.06015 -2.135744 1.417969 -0.881947 0.498278 0.539565 -1.569886 3.431359 -0.188627 -0.80417 0.606193 -0.862811 -0.524085 -2.660089 1.103281 1.6639 0.274805 -1.676077 1.091335 1.204451 -1.314889 0.270709 0.926272 -1.326776 1.416396 -1.579027 0.538108 2.194916 -0.46127 0.116051 -1.211008 0.609407 -0.383201 -0.127776 0.936504 3.088181 1.049461 -0.366661 2.856405 0.179816 -0.105162 -1.054124 -0.715202 0.14012 -1.002656 0.575675 0.409103 -2.570349 -0.570199 -0.554883 1.477453 -0.680555 -0.50145 0.458235 -1.460029 -1.455499 -0.04755 0.003148 1.493211 0.038525 -0.745233 0.410428 0.464189 0.883019 0.30141 1.705124 1.422313 1.321998 -1.446207 -0.432956 1.220523 0.236961 -1.984445 -0.385548 -0.200079 -1.279575 0.442742 1.228896 -0.691551 -1.565468 -0.230545 -0.06704 -0.463515 0.319858 -4.072493 -0.984633 -0.198999 0.340019 -0.26697 0.526067 -0.34513 1.571762 -0.240018 -0.258836 1.202355 -1.234821 -0.040735 0.557799 -0.562843 0.805616 -0.155248 -0.402356 0.554856 -0.335783 0.740179 -0.328 -0.345828 -1.475614 2.755887 2.30573 -0.980245 1.072818 -1.090057 2.157963 -0.257585 1.395872 0.327482 -0.343184 1.136013 -1.528775 -0.17262 2.020988 -0.191598 0.453128 0.532397 -0.397146 0.612696 0.232935 0.258576 0.478501 -0.548643 0.311895 1.706472 -0.650559 0.623833 0.025025 0.183508 0.036341 0.011202 -1.153818 0.694335 -0.082767 0.283072 1.252469 -0.900394 -0.138892 -1.126249 -0.930095 0.530722 0.351607 -0.035513 -0.751728 -1.729815 1.12988 -0.974564 -0.748962 0.338919 -1.170797 -0.410656 -1.253661 1.49139 1.614787 -0.698713 1.343538 1.202101 0.048242 -2.133155 0.55781 -0.100892 -0.559267 -0.330614 -0.246366 -0.336952 0.184414 1.038378 1.43712 -1.247232 1.290891 1.246487 2.67506 0.188488 1.03494 2.255326 0.039331 0.408392 -0.314568 0.346295 0.575866 -2.065429 -0.172209 -1.997491 -0.337199 -0.082313 -0.517489 1.748334 0.129499 0.340904 0.725252 0.692891 -0.238176 -1.693181 -0.218837 -0.059646 -1.593812 -0.662674 -0.448634 -2.15598 -0.474826 1.535404 1.424921 1.797472 0.051905 -1.552898 0.119141 1.401097 -0.10893 0.413273 -0.230758 0.344189 2.015504 -2.593584 1.874802 -1.063475 0.976223 0.531361 0.490779 1.685851 -0.120385 -0.191828 0.794003 -0.620408 0.863535 0.76388 0.125517 0.730713 -0.900248 -1.086577 -1.216511 0.542368 -1.764389 3.705758 -1.249107 -0.10711 0.713761 -1.748735 0.401901 -0.2204 -0.15767 -0.685956 -1.403359 -1.782004 0.384368 0.602853 1.903518 -2.332034 0.749419 -1.096486 -0.282474 -1.003203 -0.281913 1.45289 0.310202 -0.417501 0.190112 -0.92248 2.265858 -3.280153 -0.151733 0.904184 0.35108 -1.110721 0.484126 -0.648949 1.408499 -0.391548 -2.400564 -1.599815 -0.589393 -2.253027 -1.401226 2.310791 -3.265735 3.623546 1.967928 0.39105 -0.443605 -1.360309 0.752352 -2.787535 1.171571 0.330715
energy -0.284252 -1.865162 1.219719 -0.754628 -1.618876 -0.127869 2.123882 -0.769475 1.558369 -1.13 2.240527 -1.133603 -0.564071 0.127208 0.411543 0.621856 0.188784 -0.272608 0.007541 0.674152 -0.4163 -1.062129 -3.048479 2.605966 3.726801 -1.084761 -3.028276 1.42969 -0.831904 -0.451324 1.788392 1.474261 -1.04261 1.80076 -1.362183 -0.832974 -0.678264 0.648336 -0.303201 -4.505121 -1.466503 0.034862 -1.886455 0.695815 0.738876 0.214363 0.90022 -1.004717 -1.513594 -0.717506 -0.804038 0.405149 -1.692262 0.076126 -1.33803 -0.149692 -0.134148 1.465909 2.689893 -1.298979 2.909512 1.371899 -1.896579 -5.64E-4 -1.581732 0.383563 0.761001 0.174568 -0.253373 -0.992905 -0.310178 1.580856 -0.104978 -0.225472 0.438424 -1.550702 0.488 -0.366078 -1.26579 -1.717265 0.705342 1.781635 -0.595457 2.022681 -0.624075 0.793085 1.171622 1.487932 -2.366714 2.554262 2.769081 0.267958 2.923234 1.172639 -0.631489 1.163068 0.334559 -0.688134 -1.80006 1.13177 0.503085 0.499862 0.359047 1.163821 0.204381 1.926924 0.825142 -1.313998 -0.596011 1.011626 -1.268438 -0.287345 -0.791402 -0.962164 1.447512 1.042613 1.551017 -0.853617 -0.2357 -0.395471 -0.513687 1.226395 1.039727 -1.503962 0.498708 -0.444241 -0.515943 -0.448944 0.32972 0.521846 -0.769676 -0.212297 -0.033326 0.972176 -0.885165 0.196004 1.083844 0.914698 -0.455573 -1.104477 -0.253383 1.880663 -0.974778 0.967316 -1.898031 0.314213 -1.933781 0.490355 -1.639854 1.236565 -1.968901 0.96184 -0.859003 -2.374119 0.421503 -2.092943 -1.953339 -0.831617 0.317183 0.394499 0.252279 0.648016 -2.968145 -0.091541 0.990164 -0.346575 1.423459 -1.218298 0.030728 -2.53941 2.794115 0.504163 -1.010251 0.265438 -1.646565 0.599667 1.376212 -3.520849 -1.047364 5.124686 -3.098117 -0.189861 -0.975213 -0.292397 1.080724 2.093298 -0.609872 -0.437525 0.317166 -0.581339 0.417729 0.281444 0.837905 -1.117259 -0.392222 -2.151454 0.713068 -0.810144 0.304998 1.565482 0.820827 0.30495 -0.986588 -0.025537 -0.221525 1.157343 1.216038 -1.615038 0.731137 -1.08005 -2.05698 0.340768 -0.054113 -2.051752 -1.320706 -0.320807 1.419884 0.180275 1.234918 -0.054852 0.069213 1.710096 -1.525629 -0.447336 0.910146 1.768812 -0.523922 -0.395668 1.542219 -1.143397 2.31841 -0.298793 -0.207169 -0.414542 1.991512 -1.720164 0.982323 -2.858461 -0.920914 0.902006 -0.179945 0.009353 1.465906 0.417299 1.400046 0.967036 0.143024 -0.766684 0.962928 1.394901 -0.894157 -1.152811 2.449143 0.594112 2.545685 1.364224 1.956734 1.787442 -1.42948 -0.345026 -2.094044 0.35843 0.743194 0.39093 -0.198682 -0.916451 -0.290521 -0.11369 1.934869 -2.610204 0.139554 -2.173513 1.402919 -0.353712 0.040273 -1.018054 -1.311403 1.423874 1.661113 -1.418977 0.796725 1.294 -1.125235 0.302711 1.03692 1.581504 1.535363 -2.311153 0.576849 0.445831 0.03561 -0.318108 0.294522 -2.483545 -0.782975 -2.516875 3.75136 -2.824875 0.120554 -1.600465 -1.563979 1.518287 0.0506 0.824843 -0.344623 0.962911 -0.270135 -0.977152 0.288454 -1.311206 2.608734 0.29189 -1.234273 -0.31851 -0.626319 -0.017566 -0.376255 0.868738 -0.1766 -0.751455 -1.901794 0.158294 -0.849056 -0.522851 1.63868 0.1677 1.319174 1.24139 0.700013 -0.779054 -0.677213 0.061966 -0.54598 -1.380083 0.498598 0.910273 0.607867 -0.956871 -0.653142 0.284538 0.067944 -0.130845 0.122295 0.493986 1.046719 -0.02551 0.403789 0.693708 -0.769817 0.571786 -0.568832 0.77141 1.880558 -0.388321 0.448513 0.860582 -0.759594 0.880164 0.56444 -0.352679 0.91673 -0.261741 2.273907 1.476179 0.92851 0.092139 -0.925914 -1.126942 0.128156 -1.170723 0.428233 0.211377 -1.413349 -0.545427 -0.62636 0.289662 1.040181 -0.21792 0.656682 0.612687 1.245151 -0.294433 1.864939 -0.85985 -0.108456 -0.880409 -0.226572 0.226182 1.064574 0.087987 -0.253549 -0.585936 -0.116634 -0.181832 -0.813129 0.658689 1.489349 0.23004 0.178719 0.905214 -1.401531 -2.427506 0.133099 1.016951 -2.343161 0.288973 0.634103 -0.267274 -0.218777 -1.228201 -1.417632 -1.011778 -0.253921 0.489384 -1.383969 -0.535189 0.224434 1.088795 -0.439988 0.125859 -0.149585 -0.342418 -0.144281 2.480326 -0.764137 0.933839 0.156231 -0.344266 0.082157 1.554288 1.579928 -1.95178 -0.125679 -1.763679 1.853997 -1.120499 1.792129 0.180296 -2.922498 0.532135 -0.913039 -0.986933 0.435395 -0.603783 -0.454065 -0.812877 -0.108411 -1.50215 0.499478 -1.571231 0.118731 0.400243 -1.776457 0.717686 -1.52421 0.449548 -1.442531 -0.445374 0.61456 -0.359816 -0.49462 1.578724 0.950993 2.939061 -2.2277 -0.643227 0.487762 0.068217 -1.898579 1.265298 2.979812 0.84854 -2.098737 0.112321 1.792519 0.674953 0.500794 0.532841 -0.007576 -0.229276 0.688755 -0.789704 1.747383 2.23972 0.575364 -0.945377 3.077945 0.890694 1.563407 -2.121808 0.667014 4.049845 1.613236 -0.014373 -3.027534 0.520971 0.522062 -0.536342 2.468098 -0.983741
announcement 1.55803 -0.705929 0.81236 -1.40539 0.315939 1.626106 -1.585249 -0.12381 -0.763782 -1.635417 2.693534 2.712624 1.085279 -1.266294 -1.427374 0.197682 0.4985 -0.264992 1.147983 0.505466 -0.730679 0.812597 -0.817284 0.759841 -0.009923 -0.914029 -2.172426 -2.146325 -0.806981 0.500898 1.376577 0.628938 0.9961 -0.907897 1.837076 -0.874054 0.322918 -0.738364 0.300273 0.192033 0.182346 1.353903 0.08617 -1.89564 -0.007707 -0.37386 0.186751 -0.457707 1.540575 1.282768 -1.023994 0.243665 0.566299 0.993382 0.904402 0.035722 0.758156 0.58655 0.304492 -0.087178 0.676476 -2.373308 -0.492165 1.065624 -1.392039 -0.87571 -0.373116 0.562293 -1.888237 -1.492295 1.204523 -0.951883 0.292452 -0.451918 0.623949 1.363525 -0.380519 0.156275 -0.483325 0.261769 -0.163592 0.264477 -0.549796 0.259008 -0.186256 0.23158 2.587723 2.056355 0.467616 2.421946 1.747239 -0.62719 -0.478665 -0.961206 0.868939 -0.364352 -0.289983 -1.606356 -2.289085 1.382364 1.513077 0.072178 1.014324 -0.563724 0.869361 -0.585641 1.309648 0.910505 -0.512335 -0.37728 2.155007 0.320239 0.208022 -0.396009 -0.694526 -1.048452 -1.036498 0.439602 -1.215067 0.045694 -0.033815 2.479523 -2.226134 0.660951 0.039574 1.146785 1.00749 -0.336423 0.990821 -0.50132 -0.030079 0.747976 -0.168698 -0.535331 0.897165 0.168138 0.67423 1.687923 1.54708 -0.785698 -0.297375 -0.033818 0.634829 -0.066385 -0.362822 -0.561893 2.592984 -4.569503 -1.543887 1.106837 -1.175202 1.239375 0.651244 -2.123413 1.374289 -1.045636 -1.233172 -0.147241 1.105589 -0.121663 0.104682 0.804834 -3.109655 0.104363 -0.059617 -0.192337 -0.403849 0.112051 -0.308776 2.043469 -0.970627 -2.117609 0.818005 -0.807997 0.324466 -0.937606 0.527134 0.72309 -0.461722 -1.846316 0.511545 1.003927 0.069453 0.420123 -2.264777 -1.347219 0.765582 0.448262 -1.051295 1.406354 2.056141 -0.521239 -0.268875 0.056077 0.705209 -0.914165 0.539162 -1.766052 1.449293 -1.62235 0.832743 0.25137 -1.24619 -1.212891 0.91634 -3.114401 0.824103 -1.276668 -2.038198 0.502562 -1.844791 2.449091 2.219876 -2.187698 1.724949 -1.112346 0.763793 1.197012 -0.012412 -0.359576 -0.133887 0.271067 -1.803637 0.330408 0.180278 -0.112123 -0.534138 0.907053 1.178612 0.491508 -0.357821 -0.107013 0.307427 -6.32E-4 0.746472 1.076998 0.22259 1.524163 2.78614 -0.735477 -0.361863 0.252434 0.569049 -1.062482 0.572737 -0.402167 -0.277776 0.020481 0.330717 -0.563854 0.322425 0.370398 0.455971 -0.563788 1.300282 0.456247 1.010839 0.376304 0.291041 0.05816 -0.233331 1.104869 0.708495 1.355018 -0.427378 -0.7596 0.556491 -0.51048 0.081055 0.048143 0.181865 -0.76332 -0.139082 -0.53208 0.929654 -0.647164 -0.562553 0.406326 -0.709853 -1.481865 1.980779 -0.626869 1.055555 -1.005955 -0.33505 -0.453621 -0.678782 -1.269568 0.390955 1.012232 -0.563271 -0.398804 0.508372 -1.14703 -0.425028 0.26579 0.925991 -0.796191 -0.61344 0.396045 0.613411 0.979315 0.421363 0.321607 -0.18918 0.111858 0.094775 1.305819 -1.412063 -1.948657 1.919145 1.58833 -1.729112 0.226754 -0.080219 1.573008 0.847906 -0.190871 -0.896874 0.222609 0.082458 -0.41164 0.450488 -0.362766 0.511297 2.084318 1.23303 1.766364 -0.265441 0.551405 0.005734 -1.817027 -1.162697 0.230878 -0.036777 -1.812588 0.518759 0.752295 0.817837 -0.156406 0.454113 0.800163 0.021561 -0.072942 1.24183 0.466738 0.447173 0.654652 0.458198 -0.313575 1.062634 0.015511 0.091737 -0.265254 0.56098 0.466895 -0.59938 0.723218 -0.561546 0.564456 0.536846 -0.27377 0.257599 0.195626 -0.41191 1.631029 -0.52108 -0.472004 -0.571058 -0.016577 -0.639511 0.910059 0.382483 1.742079 -1.247273 -0.872525 -0.106681 -0.520099 0.546857 0.089835 -0.917264 0.724314 -0.830942 0.914461 -2.7E-5 0.222005 0.222028 -0.38815 0.704985 0.447186 0.129817 0.818956 -0.634215 -1.104738 -0.659895 0.706478 -0.0197 -0.184765 1.204655 -0.991904 2.783276 1.845207 0.744312 -1.099116 -0.005786 -1.252113 -0.184041 0.153992 2.826144 1.476158 0.41357 1.478707 1.018999 -1.402586 0.987495 -0.830004 1.536384 -0.193768 1.045614 0.454177 0.864515 -0.189367 -0.495261 1.116289 1.991599 1.230286 -0.936704 0.008384 -0.601774 0.024218 -0.820748 -0.108936 0.56172 -2.69595 1.374371 0.893554 2.407107 -0.485917 -0.556001 0.172075 0.040734 -0.392756 -1.144432 -0.994449 0.263585 0.065566 -1.258662 0.299483 -0.90794 1.171553 -1.496542 -0.443531 1.004377 -0.746169 0.493551 -1.601416 -1.387734 1.895363 -0.079794 -0.001102 0.482351 -1.189157 0.164797 1.460191 -0.100241 0.379184 -0.821348 -1.113322 0.123391 -0.356393 -1.142107 -1.361958 -0.065881 -0.568948 -0.670059 -0.767274 -1.378955 -1.993199 -1.345206 0.243072 1.060913 0.474568 -0.09319 -1.339156 -0.720375 0.922419 2.437174 -0.594311 -0.382736 0.597103 -1.876166 1.583204 -1.291372 -1.237949 -3.064277 -0.702922 1.38206 -0.603319 -0.225795 0.434167
mile 0.221941 1.305519 -0.32174 0.681509 -0.279964 -1.136199 -0.079177 0.467581 -0.022256 -0.567636 -0.298768 -1.22162 0.49201 -0.984993 0.713324 0.467189 -0.656513 0.299886 -0.565275 -0.437259 0.817844 -0.55791 0.360359 0.828606 1.06538 0.055371 -0.047937 1.34062 0.495929 0.571998 0.110693 -0.565053 -0.152232 0.690183 0.416605 1.647685 -0.41604 0.555044 0.846538 1.726385 1.419275 -0.00157 1.39933 0.282959 0.525241 1.079273 0.019024 -1.003813 -0.029138 -0.695475 1.329036 0.415884 -0.81681 -0.219479 0.634273 1.055027 0.604036 -0.14135 -0.166421 -0.256993 1.506037 0.405873 -0.484859 -0.259209 0.046526 1.032263 0.684615 -0.224547 0.250079 0.009182 -0.064591 0.229024 -0.674999 -0.86325 0.620237 -0.214843 0.74909 -0.715424 -1.411934 -1.07715 0.901773 1.219676 -1.682989 -0.02238 0.664555 1.672385 0.211566 1.53593 0.057223 -1.0182 -1.349959 0.013762 -0.101027 0.168511 0.212212 0.059194 -1.447422 0.22522 1.549782 -0.020934 0.507315 -2.207715 -0.231996 0.431905 -0.02516 -0.092408 -0.295572 -0.186954 0.141868 0.300053 0.803074 -0.226263 -1.563881 1.079365 1.41944 0.138126 0.900126 -0.381753 0.205275 0.431997 -0.302321 -0.152359 0.665451 -0.789804 -0.051109 -1.233363 0.603072 -0.4651 -0.970602 -0.666652 0.449372 -0.465954 -1.283723 -1.349952 -1.211056 0.034749 0.071646 0.948241 -0.019903 0.66136 0.690738 -0.690661 -0.187207 0.668577 0.568326 -0.239681 0.2069 -0.895826 0.100663 -0.370526 0.405959 -0.92261 -0.45377 0.677897 1.212852 -0.878198 0.46791 1.115975 -0.321324 0.055001 0.165383 -0.24798 -0.498741 -1.463789 -0.440895 -0.618437 0.895118 -0.708424 -0.885363 0.686768 0.5119 -0.133523 -1.23767 0.883254 -0.800527 1.070854 0.63243 0.117215 0.796743 -0.168599 0.649098 -0.460649 0.969504 0.642594 -0.294513 -0.800007 0.410048 0.242469 -0.391049 0.172834 -0.348917 0.271129 0.941131 -0.630751 -0.687231 0.491159 -0.147415 -0.904686 -0.515846 -0.355254 1.15474 0.640655 -0.366787 -0.966768 -0.720887 0.821273 -0.515601 0.573858 -0.636036 0.368598 -0.606422 -0.371288 1.146418 0.360245 -0.007876 0.55787 -2.108682 -1.020777 -0.374593 -1.591682 -0.055216 1.062946 0.436759 -0.385394 -0.070098 0.008233 0.59878 -0.076571 -0.543863 -1.183119 -0.016332 0.997186 0.16154 0.096791 -0.05135 -0.266875 -0.866946 0.005165 0.04984 -0.284759 -0.711194 0.461774 -0.820445 -0.210844 -1.099409 -0.274486 0.793201 0.256201 -0.315124 -0.790228 -0.039879 -0.142312 -0.253691 -1.029356 -0.665873 -0.365637 1.666952 1.429014 -0.801358 0.855079 0.222887 1.007788 0.155334 -0.551129 -0.067498 -0.858186 0.321344 0.102133 -0.477135 0.21151 0.42941 0.379575 0.05852 -0.190022 0.182113 0.190137 0.310589 -0.100806 0.114736 0.923861 0.293641 -0.254418 -0.570074 -0.095271 0.269128 0.280394 0.44782 0.496083 0.090396 -0.141473 0.721806 -0.490844 -0.004737 1.00179 -0.084905 -0.356545 1.255796 -0.029387 1.539337 0.038102 -0.291634 0.513682 0.810102 -0.281272 -1.657049 0.103466 1.224468 -0.237504 1.100775 0.894026 -1.110796 -0.679746 -0.126123 0.458734 -0.896244 0.477034 -0.610427 0.065107 -0.04326 -1.315806 0.599275 -0.077319 0.502478 0.244598 -0.203371 0.702125 -0.939134 0.51648 -0.587281 -0.206142 -0.372568 -1.164557 0.421979 -1.053225 -0.360842 -0.932953 1.376281 -0.455136 0.020466 0.134904 -0.236174 0.280531 0.686027 -0.461767 3.302697 -0.189122 0.702253 1.031429 -1.083966 -0.794553 0.39217 -0.453219 -0.323066 -0.640195 1.111153 -0.075311 -0.265275 -0.455059 -0.580817 -0.958243 -0.404047 0.645631 0.663853 -1.250249 -0.976324 0.425959 -0.442223 -1.029845 -0.114565 -0.42069 -0.415592 -0.946147 -0.747284 0.437927 -0.064417 -0.332973 0.67121 -0.134532 -0.539399 0.191438 0.11932 0.247839 0.369242 0.28399 -0.133885 0.142952 -0.716598 0.539369 -1.171047 0.702925 -0.297405 -0.443574 -0.48593 -0.050689 0.044924 -0.520404 -1.032094 0.679056 0.636729 0.880374 -0.770242 -0.422259 0.902123 -0.543006 -1.319589 1.153649 -0.149842 0.282118 -0.424386 -1.300187 0.03933 -0.952177 -0.121491 0.494679 -0.212722 0.701047 0.20144 -0.034928 0.334151 2.164357 -0.390474 -0.315052 -0.850186 -0.849412 -0.984646 -0.586314 -0.165811 0.619502 0.062536 -1.859854 1.460668 -2.123318 -0.676789 -0.085726 -0.231945 -0.778655 -0.973669 0.110945 -1.161559 -0.249682 -1.123786 -0.247545 0.696595 -0.448281 0.372688 0.271413 0.443578 -0.248894 -0.581724 2.327736 -1.06541 0.300445 1.684223 1.173888 0.062136 -1.937492 0.974873 -0.482351 -0.490132 -1.581948 -0.447158 1.070489 0.549892 -1.612959 2.212971 -0.063468 0.729842 0.147472 -0.436899 1.170159 0.87997 0.448091 -0.724093 -0.501208 -0.622666 -0.536476 -0.922564 -1.552672 -0.566952 0.200653 -0.683518 1.669558 -0.08906 1.081824 -1.379924 2.747263 0.482735 -0.042292 0.729681 0.168097 -0.670648 0.021982 2.170809 -0.996095 -0.716692 -0.116262 0.177302 -0.283227 -0.025852 1.298882
airport -0.559164 -0.715016 1.025378 -0.161602 1.091749 -0.160176 0.097221 1.309235 -0.62623 -1.276284 1.161097 0.619941 1.458778 1.043074 1.061162 0.922723 -1.304293 -0.270401 -0.805526 -0.54541 -0.805907 1.062525 1.039167 0.387003 -0.820553 0.75141 0.005352 -0.025834 0.853847 -0.123756 0.490813 -0.510293 -0.285567 0.936341 -0.637511 0.136253 -1.345891 -0.60845 1.21864 0.918518 0.110799 0.746178 -0.158782 0.883796 -1.351565 -0.39467 -0.024082 -0.503891 -0.527773 -0.950145 3.258462 0.1591 -0.188435 1.656773 0.482939 -1.292125 0.715086 0.233985 -0.002047 -0.354623 -1.270497 -3.370946 -0.70945 0.865214 0.884038 1.121123 -0.084208 -0.18174 0.205288 -0.384941 1.946024 0.157422 -0.581293 -2.638775 0.226562 -1.422027 -0.174037 0.705841 -0.45443 -1.617059 2.060019 -0.136601 -0.234896 0.075958 0.582201 1.979627 0.988435 3.174518 -0.861209 -1.209883 -0.760515 -0.030928 0.614372 -0.474959 -1.306706 1.340607 0.487783 -0.775104 -0.084614 0.125213 -2.205372 1.346253 -0.491007 0.075832 -0.292114 -0.306585 -0.374038 -0.589443 0.448815 1.709228 3.718584 0.787267 -2.364544 0.670625 -0.779207 1.027178 1.108961 -1.515771 -0.353357 0.086606 0.126337 -0.453249 -0.890903 0.706994 -0.921879 -0.336701 0.279626 0.536381 -0.892363 -0.361134 0.740868 0.445345 1.83338 1.208738 0.955355 -2.26306 0.236422 1.168595 -0.010094 0.335826 1.742398 1.763761 -2.258866 1.215386 -0.144553 -1.358334 1.377225 -1.857492 -2.960886 2.415497 -0.948792 -1.554557 -0.052639 -1.336252 2.222532 -3.13699 -0.482978 0.836631 -1.226627 -1.445164 -1.449463 0.497269 -0.531937 -1.890042 1.432505 -0.166182 0.943889 -1.723212 -0.51763 0.543208 0.084185 -0.084586 -0.698434 -0.080571 -1.429209 0.643325 -0.409173 0.346794 0.080525 -1.902008 0.120816 0.095115 -0.464792 -0.705961 -0.525097 0.009126 -0.155807 0.23267 -1.134449 0.367992 -0.221829 -0.256664 0.935357 -0.175007 0.674931 0.948269 -1.153992 0.677233 -0.32112 0.935398 1.464376 1.543682 -0.311316 -1.466692 -0.354018 0.747553 -0.304867 -0.165157 -2.792042 -0.017943 0.40827 0.127237 1.854878 0.923618 1.039228 0.242923 -0.541658 -0.236738 0.933255 -1.470132 1.49089 0.675872 1.569855 -0.659093 -1.817683 -0.450644 -0.598594 -0.548881 -0.674584 -0.096578 0.2827 0.021878 0.172422 0.64685 -0.038766 0.567882 0.288583 1.459683 1.132639 -0.43018 -0.204991 0.223256 -0.498772 0.919102 0.067804 -0.493545 0.889976 0.15363 0.025657 -0.949758 0.851235 0.214503 -0.394486 0.029852 0.389389 -1.358571 1.785611 1.274461 -2.10166 1.13369 -0.494212 0.889444 -0.761963 0.120195 1.25005 0.120305 -0.456958 0.328885 1.992277 -1.145429 0.389106 0.201209 0.851204 0.435928 1.063148 0.262218 -1.233088 0.943628 0.089668 -1.261525 -0.174235 0.462612 1.506045 0.400688 0.004014 -0.721431 -2.351447 0.778584 1.021557 0.472578 -1.172315 1.73695 0.914264 -0.487772 -0.951146 -1.03631 1.645906 -1.512622 1.799369 -0.721124 0.058034 0.808706 -0.064774 -0.509712 -0.884321 -1.68699 1.490024 -0.40539 -0.773749 -2.679007 1.495483 2.052606 0.178458 -0.301524 -1.32516 -3.050893 2.12817 -0.990903 -1.470753 -0.588149 0.075498 -0.653161 0.367741 0.212571 -0.988626 -0.264263 0.413692 0.028329 -0.023435 -0.516259 -1.127401 -1.495589 -0.175495 0.636112 -0.128633 -0.203361 0.541868 -0.039364 0.001335 0.749421 -0.099825 0.943611 1.378323 0.455488 0.964931 0.827118 0.596833 1.089697 0.08337 -0.731687 1.584747 -0.380745 -0.032992 0.9792 0.438544 0.696778 -0.509281 -0.460089 -1.446021 0.458516 -0.666871 -1.181796 -0.652698 -0.324056 -0.161795 -0.995327 0.186522 -0.370472 -0.132602 -0.611461 -1.893195 0.066683 1.546806 0.620228 0.002459 -1.636894 0.358109 1.044908 -1.246011 1.559038 1.42284 0.227273 -0.571123 0.090295 -0.163494 0.342172 2.407988 0.435971 1.433998 1.149303 0.012546 0.909267 -0.201732 -0.248066 -0.108288 1.441614 0.402893 1.035906 1.3813 2.189917 1.528982 0.712155 -0.166736 0.108206 0.534229 -0.376779 0.049128 -0.588513 -1.215341 0.404446 -0.148144 -1.093135 1.006431 0.599656 -1.021908 1.175131 1.646198 -1.349683 0.3191 0.777891 -0.808154 -1.218148 -0.218303 -1.134381 0.169929 0.281112 0.527785 -1.342484 -1.077 -0.070563 -0.284036 -0.477968 0.237011 -0.31833 -1.547903 0.866802 -0.122634 -0.022282 -0.529245 -1.480011 0.218423 -0.093571 -0.406363 0.381356 0.980622 -0.177432 -0.472238 1.801755 -0.813141 2.947648 0.160159 -0.604115 3.036645 0.60784 -0.135896 -2.33825 -0.116539 -1.747937 -0.705918 -1.184474 0.407908 -0.468554 0.23434 -2.943901 1.619763 0.305229 0.087864 0.330075 -0.397718 0.288917 1.010215 1.480048 0.881998 -0.079319 0.875706 -1.319391 -0.930919 -3.57818 0.787394 0.916928 0.731088 0.15685 -0.108349 -1.717038 -0.351216 2.937685 0.347067 0.479198 3.344103 -0.5862 2.81456 -1.06096 -0.332475 -0.224447 -2.583581 -0.978363 -0.486311 2.732533 -2.61568 1.172761
population -5.413734 -3.793125 1.112209 -0.150529 0.764435 -0.756899 0.7299 0.639433 0.898972 -1.11061 -4.06625 3.513709 0.963257 0.123824 0.18864 0.991279 2.079714 -0.07794 -0.589795 -1.086764 0.412384 -0.889323 -1.225604 -0.203401 0.658131 -0.935738 1.474218 3.982338 0.296332 1.431797 1.220191 -1.021455 1.496239 0.24761 2.016968 -1.538975 0.849895 -0.600354 -0.444531 1.953243 1.258573 1.286009 -1.239324 0.225084 0.287334 2.284603 -0.052225 1.306781 -0.402613 1.135101 -0.069848 0.74129 -1.005067 -0.356605 1.310231 1.220208 0.583003 -0.508585 0.368648 1.689946 0.836366 2.576316 -1.10055 0.839591 1.49784 3.218022 1.385376 0.398885 -0.77616 1.29682 -1.418126 0.722003 -1.794357 1.385813 -1.275497 -0.104683 1.524313 0.454834 -2.081937 -1.778146 2.519534 0.551848 -0.977989 0.217493 -0.259948 -0.668665 -1.214109 5.56302 -1.919997 0.53136 1.882843 0.304828 1.006839 2.897697 1.614443 1.229297 0.114126 -1.71115 -0.618028 2.120126 0.835443 -0.561812 0.604179 0.177476 -0.915109 -0.252862 0.721709 -1.373241 -0.310498 -1.60801 0.211761 0.645493 -2.837065 1.169357 0.619489 -0.214808 0.710447 -0.764646 -0.150168 0.663351 -0.699028 0.705388 1.175035 0.091377 0.438422 -1.171398 -0.784171 0.039173 -1.63236 -1.498173 -0.551482 0.200737 1.158816 2.103563 0.002194 0.412174 0.854461 2.943527 0.330477 0.577864 1.71994 -1.086925 -1.281675 0.222881 -0.245769 0.919043 0.13353 3.483092 -1.333696 0.22417 0.408889 0.42151 -0.35474 1.985451 0.342899 0.211208 0.639996 1.333193 -1.145244 -0.126975 -0.253819 0.607987 -0.484349 0.301644 -0.208401 -0.640824 1.027384 -1.537021 0.716928 -0.474663 2.888974 1.497442 -0.114509 -0.691919 -0.15301 0.627387 0.597579 -2.032159 -0.074517 1.459431 1.65478 0.047747 -0.372788 -1.285905 -0.804545 -0.060911 1.14341 -0.99345 -0.43012 0.876947 -0.73125 0.184171 1.070701 0.059846 -0.724006 0.835739 0.046549 0.098471 -0.477809 0.461449 -0.079188 -0.537709 0.619859 -0.170363 0.301933 0.768292 0.363042 0.589022 1.033937 0.716099 0.17533 -0.498644 1.353798 0.728255 -0.638994 -0.931306 0.90696 0.715144 -0.115814 0.45162 -0.981325 -0.010461 1.210375 -0.643592 1.048376 1.250013 -0.001018 -0.310816 0.828173 0.100148 1.24377 0.218121 1.312453 -1.504787 0.426736 0.242513 -0.979425 0.464934 1.183216 -0.779471 1.185327 -0.099423 -0.028362 -0.245198 2.852046 1.160848 1.029201 3.045339 0.647463 0.601156 -0.766053 -0.470926 2.301423 -0.460086 0.90591 0.424932 1.033444 1.204158 -2.817929 0.549793 -0.971041 0.47813 0.158112 0.725469 -1.659529 -0.316952 0.389705 1.272313 -1.09794 -0.968504 0.968243 1.562437 -0.146306 -0.669093 3.322211 0.881239 0.472871 -0.199949 -0.638475 0.029551 -0.614985 0.822181 0.319185 1.860724 -0.93593 -0.834468 1.774097 0.460934 1.545648 0.084424 -1.333098 -0.96727 -0.542545 -0.559866 1.701944 -0.882551 0.525317 -0.740261 2.081836 0.790955 0.491213 0.863081 1.952043 0.517995 -0.055141 -0.655872 1.337794 -0.257348 0.354166 0.648875 -0.471248 -0.645184 -0.63072 0.073013 -1.278015 0.914282 2.484645 -0.894003 -0.085278 -0.742947 -0.525104 -0.423258 -0.271719 -1.062677 -2.991532 -3.064266 -0.600107 -0.987793 -0.531932 -0.035179 0.580532 1.370348 -0.196495 -0.970034 0.107548 1.865796 1.697771 1.492763 2.929438 -0.144447 -2.377715 -1.178932 -0.61294 2.151297 -0.450594 -0.069961 -0.481467 1.029395 -2.246921 -0.692469 -1.376761 1.186908 -0.130692 -0.327563 0.488276 0.657638 -2.439598 -0.191202 0.910735 0.146484 -2.180981 -2.234159 -0.052559 -1.072386 -0.473023 -2.055717 -0.588559 -0.727181 1.500723 0.686146 -0.097638 -0.902471 0.744271 -0.481062 0.024575 0.529611 -1.255972 -3.126974 1.355732 -0.903003 -0.390519 -0.618678 -1.050738 1.075106 0.231833 -0.796453 -0.754019 -0.83547 -2.40325 1.900903 -1.324832 0.380149 0.126863 -0.787636 1.978625 -1.588153 -1.305768 -2.118986 -1.520037 -3.300585 -1.03465 -0.019498 0.511944 0.739465 -0.848693 1.102511 0.622828 -0.580106 -2.481486 -3.101979 1.097215 -0.032024 -1.703227 1.63009 -1.999729 3.634577 -1.294517 1.361387 0.940059 0.927427 1.267234 0.619413 0.535823 1.366469 -2.623199 -0.54044 0.513015 0.80901 -1.078148 -1.461182 0.154679 -1.693892 -0.682353 -0.318123 -0.454989 1.089055 -1.277434 0.145493 -1.895563 0.715453 -1.911448 -0.84968 0.712164 -0.859736 -1.513669 0.145233 -0.899869 0.53424 1.234315 -2.325455 -0.523276 -0.209461 -0.637211 0.618936 0.58927 0.005937 -0.431926 -0.192795 -0.639028 0.166334 1.017924 1.0773 -1.094297 -3.025659 1.691886 -1.014843 0.331812 -0.33027 -1.046708 1.678391 1.128812 0.178635 -0.124511 0.453955 -0.465594 -1.198364 -1.134736 -0.373403 -1.065174 1.48076 -0.868772 0.33207 0.610098 2.451065 0.443184 4.335625 3.938005 -0.189568 0.584333 -0.501382 -0.117381 1.722949 0.636047 -0.417448 -3.497985 -1.576551 0.382784 -0.039514 0.355569 4.229776
planning -2.008438 -2.191636 1.591627 1.281873 -0.222375 0.790375 -0.753978 -1.372834 0.135883 -0.017484 0.606885 2.159326 1.837165 0.162365 -0.399007 1.436083 -1.117053 -0.005897 -0.27932 -1.099284 1.242463 -0.750239 -0.019792 -0.327199 -1.103074 0.871258 0.648509 1.36087 0.294195 -1.274416 0.777468 -0.180459 1.716977 0.267701 0.288097 0.308537 0.232581 -0.933499 -1.922094 0.097884 -0.902711 -0.581957 -0.565937 -0.318471 -0.631828 -1.063835 0.011035 0.917122 0.039075 0.519447 0.18516 -0.641871 1.854406 0.853146 0.91065 -1.228209 0.242931 0.236002 1.196655 -0.74766 -0.403203 -1.417826 -1.081899 -0.586104 0.437062 1.181148 0.54555 -0.316165 0.31462 -0.905874 1.158303 -0.122786 -0.033483 -1.027008 0.880482 -1.292171 0.655165 1.325414 1.788664 1.356766 0.946044 -0.020682 -0.325071 0.398081 -0.042551 0.483283 0.26527 0.747785 -1.50514 0.645079 1.447701 -0.234984 1.75962 -0.240698 -0.340266 -0.342277 0.982034 -0.025912 0.15397 -0.046726 1.328422 0.23908 0.477371 1.232148 0.137895 0.216064 0.08458 -0.386372 -0.252878 0.578824 -0.025311 0.157177 1.824609 -0.509704 -0.665587 -0.196181 2.312153 -1.090448 -0.349491 -0.15563 0.109145 -0.722117 0.488671 -0.170394 -0.075077 0.697963 0.509303 0.874111 -0.432404 1.5742 -0.85655 -0.990873 -0.02342 -0.152072 -0.867821 0.512396 -0.014536 0.401741 1.314711 0.735798 1.49648 1.564464 -1.511983 -0.348727 0.013955 -0.483143 0.613314 -1.035741 0.806376 -0.304849 -0.460718 0.707081 -0.731996 -0.637454 1.244275 -1.595788 0.385712 0.961692 -1.022519 -0.251274 0.524005 -0.582912 1.021429 0.548294 -1.179774 -1.548061 -0.259416 -0.611638 -0.900933 -0.617461 0.955805 0.343127 -0.173205 -0.357362 -0.555152 -0.127514 1.016451 -0.456557 -1.695556 1.064589 -0.363863 -0.091975 0.823343 1.651753 0.566854 2.59302 -0.737215 -0.167868 0.277678 0.38906 -1.602666 0.747517 -0.428543 -0.051712 -0.62428 -0.831827 -0.544784 0.862063 -0.241005 1.115244 0.343175 -1.040937 -0.174218 -0.408889 -0.687145 0.427567 0.490787 -0.19813 -1.236797 -0.458555 -0.971336 -0.052224 0.392502 -0.560646 -0.979043 0.241717 -1.189375 -0.625656 0.366067 -1.968971 0.287006 0.394367 -0.484587 1.321208 -0.130499 -0.64678 -0.515367 0.969782 0.577893 -1.049613 -0.737053 1.232854 -0.874542 1.581351 0.585067 0.665558 -0.005197 -1.287745 -0.881277 0.541379 0.187097 0.165578 -0.560108 -0.307873 -0.844613 -0.763448 0.254325 -1.521904 -1.076593 -0.813779 0.241613 0.881513 -0.590352 -0.205434 -0.82684 -0.619871 0.459805 -0.057521 -0.721355 0.358193 -1.133851 -0.075852 -0.008599 -0.594363 -0.220259 -0.257102 -0.887665 -0.311747 1.759845 -0.790926 -1.146204 0.442865 -0.043793 -0.559889 1.817927 -0.020404 -0.456065 -0.253141 -0.370806 -1.169301 -0.118715 -0.568401 0.354578 0.191866 -0.658859 0.519182 -1.263707 -0.858145 -0.206594 0.158169 -0.25329 1.021963 0.780024 -1.200101 -1.014644 -0.712633 0.843779 -0.779098 0.786135 -0.814082 0.233441 0.466267 -0.402758 -0.061159 0.645992 0.688181 0.056438 -0.21207 -0.798357 -0.146997 0.601943 0.239788 0.442567 -0.101079 0.463781 1.048731 0.930714 -1.302126 -0.29848 -0.066942 -0.2493 -0.1886 -0.287384 0.31036 0.371084 -0.727353 0.648781 -0.036287 -0.183668 0.287266 -0.335316 -0.276041 -0.78147 0.025839 0.062282 0.394078 -0.648554 -0.510234 -0.299519 0.068341 0.015651 -0.167989 -0.316518 -0.167279 -0.218521 -0.646463 1.278438 0.512554 1.520803 1.184485 0.811826 -0.469325 -0.023547 0.312016 0.048869 0.116187 0.034965 -0.544598 1.572618 1.186541 0.974224 -0.84734 -0.172282 -0.715991 -0.416132 0.394309 -0.289353 0.095659 -0.307236 -1.264081 0.40585 -0.753909 -0.07667 -0.967103 -0.908282 1.404826 -1.021944 -0.471627 0.088646 -0.641174 -0.336057 0.768908 0.745506 0.740684 -0.755502 0.482479 2.630742 0.270853 0.880407 -0.331793 -0.540735 -1.005953 -0.541637 0.652688 -0.246262 0.842297 -0.501336 0.796436 1.032675 1.781368 1.244029 -0.875071 0.469479 -0.175103 0.348468 -1.17511 0.050954 -0.919613 1.086813 2.162812 1.156384 0.89143 -0.250238 0.57809 0.889301 -0.556541 -0.669825 -0.321422 -0.452234 0.939177 0.241257 0.008572 -0.824441 -0.986635 -0.81017 0.404267 -0.184305 -0.178371 -0.816597 -0.561859 0.818191 -0.677058 -1.285401 0.386282 -1.648424 -0.263516 -0.254486 -0.643045 2.003944 -0.254622 1.190827 -0.246163 -0.925521 1.141703 -0.638573 -1.265202 0.134373 0.827398 0.624081 -0.48305 0.491441 -0.748529 -2.019908 3.86E-4 -0.310511 1.772085 -0.355363 0.56249 0.158716 -1.008019 0.29354 -1.027627 0.014103 1.408578 -1.706413 0.027439 -0.078715 -0.259058 -0.868622 -0.691996 -0.918483 -0.636349 0.261132 1.058338 0.297989 -0.248751 0.452995 -0.044346 0.252689 0.215865 0.014767 1.528188 -1.815427 -3.262393 -0.993755 1.629254 1.825999 -0.861583 0.070439 1.074848 -1.281191 -2.245814 -0.078405 0.308525 2.773942 2.448211 -0.309467 0.176629 0.661257 -0.643052
canyon -0.011446 0.108312 -0.228835 -0.008288 -0.054818 0.034915 -0.18618 4.8E-5 -0.014049 0.054986 -0.051168 -0.366651 0.206122 -0.171448 0.140106 -0.006669 -0.048974 -0.07465 0.029774 -0.190098 0.002085 -0.173484 0.141941 -0.094376 0.258728 0.062341 -0.200525 0.034869 0.157224 0.093012 -0.040715 -0.058467 -0.109547 -0.04991 -0.01235 0.171651 -0.019012 0.045797 0.329714 0.001364 0.067574 0.20234 0.085433 0.104831 -0.104711 -0.183308 0.067369 0.05319 -0.081051 -0.109243 0.319192 0.184748 -0.087959 -0.115683 0.125213 -0.092247 -0.111703 0.044219 -0.136066 0.238507 0.03685 0.293896 0.170143 -0.09731 -0.071482 -0.279203 -0.112141 -0.087452 0.454416 0.023545 -0.190251 0.12402 -0.186379 -0.134754 -0.088077 -0.136373 -0.09014 -0.121031 -0.099988 -0.258121 0.070887 0.106043 -0.210019 -0.002604 0.083045 0.272291 0.036062 0.165274 0.020905 -0.1867 -0.295059 -0.120785 -0.278883 -0.088118 0.136138 0.040016 0.054019 -0.096333 -0.01471 0.062584 -0.245103 0.041597 -0.07937 -0.069753 -0.007112 -0.148376 -0.036136 0.008481 0.161351 -0.026487 -0.214535 -0.037401 -0.228085 0.113384 0.252457 0.002224 0.126092 -0.090001 0.093776 -0.102072 -0.03439 -0.015469 -0.050651 -0.144819 -0.040943 -0.280423 0.052184 0.039393 -0.022642 0.026826 0.133159 0.100232 -0.060111 -0.02597 -0.241257 0.071675 -0.108012 -0.075541 -0.199482 0.096654 0.050656 -0.130001 0.084272 -0.014942 0.211619 -0.130859 -0.113217 -0.033 -0.128002 0.096532 0.022914 -0.169133 -0.164003 -0.134178 0.115576 0.064968 0.139393 -0.01397 -0.125724 -0.0016 -0.04139 -0.127125 -0.142486 0.01655 0.054005 -0.08064 0.113867 -0.011388 -0.065015 -0.015187 -0.022502 -0.038953 -0.00867 -0.083023 -0.044485 0.071697 0.070081 0.12646 0.190964 -0.200429 0.047516 -0.076892 -0.050898 0.031642 -0.092294 -0.203068 0.109984 0.139063 -0.052223 -0.006555 0.015013 0.048576 0.1378 -0.107524 -0.033948 0.079724 -0.002558 -0.026497 -0.08271 -0.01619 0.008298 0.234143 0.170244 -0.096963 -0.107864 0.114023 0.020336 0.170832 -0.182939 0.106485 8.71E-4 -0.097113 0.080542 0.024448 -0.037852 0.242975 -0.124052 -0.048621 0.068116 -0.018389 0.047348 0.045296 0.115912 -0.124399 0.014702 0.030726 -0.085133 -0.222379 -0.082397 -0.085244 -0.027174 -0.037837 0.096311 -0.027774 -0.109407 -0.127638 -0.080228 -0.147041 -0.159308 -0.016016 -0.008838 -0.029016 -0.152384 0.01574 -0.13712 -0.047648 0.038553 0.075637 0.203807 0.089839 -0.037128 0.012147 -0.069625 -0.119087 -0.105772 -0.156091 -0.038103 -0.042253 -0.07045 -0.008628 0.198213 0.012071 -0.293523 0.125073 0.098899 0.150209 -0.057014 0.023499 0.212283 -0.101809 0.228895 -0.080188 -0.063141 0.043988 -0.010272 0.253924 -0.279569 0.089228 -0.191348 0.014997 -0.156928 -0.008377 0.095726 0.224777 -0.042264 -0.035823 0.032672 0.12157 0.177185 -0.005657 0.023426 0.066281 0.048001 -0.070433 -0.081875 0.030451 -0.023595 -0.085072 0.287901 0.059275 0.033784 0.089531 0.123288 0.039161 -0.035484 0.108512 0.274097 0.040262 0.066077 0.125338 0.056648 -0.194346 -0.066798 0.102226 -7.45E-4 0.010464 -0.077447 0.177146 0.076307 -0.174812 0.047039 -0.108914 0.163851 -0.116694 -0.04149 0.202476 0.034131 0.06591 0.120527 -0.06909 0.128028 0.519851 0.238115 -0.045899 0.028619 0.116677 0.251596 0.038873 -0.02259 0.154272 -7.16E-4 0.021444 -0.006674 0.006361 0.051472 -0.064958 0.04319 -0.064569 -0.084648 -0.018993 0.236515 -0.047532 -0.093087 -0.113369 -0.050779 -0.037278 -0.10775 0.046072 -0.051253 0.112435 -0.029386 0.087608 -0.036422 -0.055996 -0.1144 0.184274 0.043016 -0.038744 -0.035706 0.067081 -0.063595 0.100925 -0.071689 -0.052564 0.139782 -0.034277 -0.00383 0.125692 -0.311881 0.12143 0.036886 -0.031223 0.187521 -0.169751 0.015587 -0.069403 -0.089511 -0.171352 0.016954 0.001294 0.211975 0.055384 -0.2836 -0.117462 -0.141157 -0.025866 -0.044245 0.235599 0.268909 0.306327 -0.154051 -0.088934 0.140669 -0.091933 0.058679 -0.002829 -0.150027 -0.067675 0.014979 -0.155997 0.022529 -0.003682 -0.060093 0.040793 -0.128293 0.095069 0.067877 0.091933 0.118587 0.142968 -0.04887 -0.076691 0.029371 0.063574 -0.160054 -0.230141 0.093279 0.064526 0.038656 -0.053175 0.007011 -0.153072 -0.176005 0.02577 -0.107571 -0.084101 -0.041601 -0.050999 -0.024456 0.094532 0.087609 0.069517 0.13558 0.03417 0.207705 0.107086 0.172067 -0.073959 3.6E-4 0.067314 -0.076445 0.116941 0.249806 0.055198 -0.137769 -0.279978 0.018633 -0.255233 -0.244843 -0.194267 -0.018984 0.24008 -0.020005 -0.631383 0.213911 -0.064799 0.094093 0.046753 -0.2043 0.19031 0.227241 0.062326 -0.103651 -0.037877 -0.034509 -0.150157 -0.112731 -0.240563 0.009099 0.154319 0.029787 0.059972 -0.076297 0.143998 -0.060053 0.273214 0.28018 0.044367 0.015049 0.212965 0.111304 -0.081853 0.307931 -0.174268 -0.615321 -0.169651 0.033524 0.101841 -0.072428 0.028508
delay 1.559191 0.064039 -0.237719 0.230008 0.816162 0.276299 0.604548 0.02709 -0.241124 -1.459333 0.097178 -0.025403 -0.510253 0.356346 -1.867346 -0.494593 -0.613546 -0.408018 0.725274 -0.389368 -0.121513 1.007659 -0.725383 -0.057093 0.644015 0.104576 -1.344875 0.137782 0.017155 0.457514 -0.184563 -0.007443 0.04216 0.915171 0.503173 -0.169879 0.414216 0.173052 -0.316355 -0.936138 -0.517816 0.905579 -1.073444 0.412165 -0.318011 -1.411613 -0.296543 -1.171925 -0.367759 0.011788 -0.080114 1.038335 -0.478923 0.240697 -0.477957 0.069535 -0.95654 -0.059495 0.131802 -0.201575 0.500076 -1.287397 0.457355 0.009761 -0.251917 -1.003989 -0.550595 0.951799 -0.346112 -0.639289 0.048533 1.546641 -0.392773 -0.961988 0.897241 0.076559 0.517864 0.896554 -1.422273 0.408389 -0.326284 -0.905967 0.681613 -0.471805 0.128569 -0.284344 0.319465 1.8795 0.022177 1.458689 0.647228 -0.399725 -1.397819 -0.659246 0.413107 1.184111 -0.152167 -0.150885 0.646664 1.113203 1.294022 0.836829 0.657116 0.006576 -0.795408 0.428643 0.746519 0.07304 0.498644 -0.152827 0.581245 -0.290754 0.246032 0.397804 -0.971563 -0.360643 1.958439 -0.542845 -0.382771 0.549416 0.494932 0.436983 -0.706761 -0.229483 1.246987 0.826137 0.183737 -0.310892 0.211735 -0.305597 0.607441 -0.443243 1.150607 0.728662 1.265956 -0.346851 0.428767 1.175089 1.025113 -0.445231 0.830475 1.599833 -1.80728 -0.172016 -1.544826 -0.972875 3.26462 -4.730618 -1.595921 0.689174 -0.86554 0.269759 1.042166 -0.673743 1.141592 -0.836189 -0.302822 -1.350341 1.094221 0.79999 0.126552 -0.194321 -0.295403 1.000154 0.082132 0.195488 -1.177891 1.314657 -0.969206 -0.588812 -0.160747 -0.42793 0.248156 -0.696812 -0.480496 0.728282 0.305993 0.084449 0.257848 1.190978 -0.236288 -0.451881 -0.170376 0.491376 -1.692702 -0.831224 0.703081 -0.098656 -1.057763 0.423085 0.142957 -1.046816 -0.601317 0.997268 0.30629 1.005011 -0.333776 -0.519143 -0.092881 1.141877 -0.997331 -0.677647 -0.144074 0.318172 0.281404 -0.25281 -0.138408 0.922337 -0.700573 0.368695 0.093064 0.599917 -0.281219 -1.748427 0.771228 -0.327655 -0.940678 -0.019092 -1.032435 -1.024276 1.475482 0.726669 0.680812 -0.592585 -0.789378 -0.44542 0.831028 0.160595 -0.400316 -0.294557 -0.32388 0.601481 0.595836 0.25345 -0.723203 0.334007 -0.036036 -1.067307 -0.15724 -0.910813 -0.602508 0.060187 -0.930915 0.07027 -0.981854 -0.44696 0.985869 -0.526706 -0.029611 -0.626241 0.694962 0.382628 0.128681 0.08523 -0.238234 0.539572 0.151098 -0.170383 -0.507916 -0.267982 -0.597368 0.276399 -0.437295 0.739941 0.795465 -0.372538 -0.362562 -0.748725 1.156832 -0.241327 0.3675 -0.708937 -0.665409 -0.105071 2.031884 0.800138 -1.079881 0.628893 -0.237912 -0.773961 1.099588 0.238397 -0.224461 0.399969 0.200902 0.34301 0.255987 -0.823187 0.586 -0.028575 0.786277 -0.976015 -0.232129 0.230412 -0.199037 0.497617 0.291365 -0.388699 0.269562 -0.520684 0.198614 0.25393 0.438339 -1.006089 0.640908 0.31768 1.903085 -0.554439 0.019614 -0.799958 0.296442 0.548002 0.919745 0.019414 0.252826 0.140268 0.169069 -0.451382 -0.293844 0.191562 1.122907 0.47718 -0.902171 0.752119 0.037436 -1.16021 -0.131765 -1.507595 -0.54648 0.166201 0.567524 -0.756614 -0.865419 0.366315 -0.180005 -0.821137 0.606119 -0.062784 -0.219803 -0.130189 0.217606 0.621692 -0.769714 0.37677 0.486973 -0.010519 -0.106092 0.615516 -1.104385 0.071712 0.190897 0.001196 0.293896 0.60995 -0.001619 -0.431383 -0.851963 0.396084 0.604856 -0.102004 1.199201 0.240284 0.196631 -0.64494 1.201621 -0.059128 -0.923111 -1.532471 0.548234 0.131392 -0.974018 -0.111776 1.041618 -0.335398 -0.495573 0.198488 -0.899918 -0.327109 1.315895 -0.366443 0.36911 -0.124954 -0.889812 0.825632 -0.299115 -0.924557 -1.236126 -0.3289 -0.446714 -0.314878 -0.646665 -0.350428 0.823636 0.697083 -0.608577 0.119934 0.304327 -1.425727 -1.074094 -1.596778 0.422531 0.291239 -0.680722 -0.605531 -0.539056 -1.25831 -0.139354 0.355221 0.364025 0.618326 -0.263483 -0.221612 0.69286 -0.518825 0.101638 -0.514826 1.176515 0.536568 -1.043626 -0.095295 0.687011 -0.120312 0.338039 1.791723 1.672767 0.70402 -1.40692 -0.27627 -0.446061 0.052474 -0.485917 -0.123326 0.407947 -0.688827 -0.064315 0.339998 0.558774 0.124587 -0.494706 0.084075 0.200858 -0.14717 -0.287913 -0.36202 -0.780038 -0.528834 -0.311049 0.530051 0.008625 -0.014441 0.172693 -0.620212 0.601096 -0.2189 1.41104 -0.962356 0.319391 1.087785 0.07585 -1.127645 0.018818 -1.773934 -0.435587 2.074384 -0.165937 0.686225 -0.524683 0.066692 -0.031517 -0.789351 -1.299454 -1.296311 0.694944 -0.013107 -0.297515 0.32551 -0.301731 -0.122512 0.085644 -0.204012 0.725069 0.903421 -0.453495 -1.644215 -1.401858 1.19007 -2.104614 -1.24098 -0.189323 1.07177 -1.244259 -0.008034 0.582615 -0.251098 -0.648865 0.324378 0.098801 0.211734 0.407793 0.545063
size 0.88348 -1.049246 0.186196 -0.43403 -0.431522 -0.519044 1.273309 0.124499 -0.235051 -0.037359 -1.857788 1.585488 -1.042678 0.131277 -1.137529 0.458202 1.890804 0.396855 1.254045 -0.747497 0.741236 -0.821541 0.125816 1.212625 0.529835 -0.880217 -1.459191 -0.243044 -1.171154 1.054839 0.266739 1.026454 0.484482 -0.570603 0.816761 0.838953 0.486186 -0.289331 -0.117026 -0.029306 -0.170233 0.658007 -0.675361 1.586622 -0.640415 -0.631176 0.793646 -1.142241 -0.420105 1.243573 -0.170528 0.682546 -0.734652 -0.228647 -0.095979 0.38263 0.128246 0.502398 -0.248387 0.277413 -0.453701 1.849171 0.234986 -0.658665 0.295317 0.736293 -0.233917 -0.321818 -0.06998 0.277977 -0.423722 0.602214 -1.119827 -0.801143 -1.027749 0.330236 0.831355 0.108612 -2.122946 -0.197754 0.911732 1.269361 -0.925619 0.148634 -0.369455 0.778773 -0.346723 2.63881 -0.098165 0.930448 0.717863 -0.030812 -0.61336 1.632028 0.92909 0.753127 -1.002187 -0.663491 2.067639 2.686748 2.089375 -1.115964 -0.684287 0.282734 -1.30305 0.812627 -0.109986 -1.215652 0.193992 -0.510893 1.726156 0.507906 0.861833 -0.118968 0.334235 -0.607168 -0.35851 0.041399 -0.363959 0.50743 -0.429382 0.520835 1.492533 0.412709 -0.326488 0.106894 -0.754779 0.547412 -1.607378 -1.273975 -0.776748 -0.082258 1.28574 0.775169 -0.25819 -1.122773 0.88742 2.025108 0.468602 0.286647 0.321815 -0.918526 0.132165 -0.872516 -0.028753 -0.131865 0.727624 -0.173634 -1.454949 1.152217 -0.880893 -0.328017 -0.650366 -0.512077 1.636732 -0.93058 1.09526 0.150914 -0.330218 0.115193 -0.130823 0.286038 -0.998783 0.596368 -0.054261 -2.364336 1.698702 -0.986895 -0.399659 -1.010577 2.605921 1.57613 -0.200599 0.086887 0.151967 1.232298 -0.2846 -1.003388 1.778656 2.742549 1.210411 -0.082544 -0.055318 -0.048116 0.580322 0.826112 1.035419 -0.268347 1.315956 0.88005 -0.891537 1.546594 1.155622 -1.001146 -1.23562 -1.19093 -0.903772 -0.226274 -1.038092 1.095232 -0.925926 -1.78654 -0.178558 -0.020567 -0.467289 0.599427 -0.197468 0.111763 0.496241 1.404214 0.25262 0.21504 2.276423 0.760615 -1.78947 -0.527697 -0.469725 -0.121298 0.274879 -0.590752 -1.580227 1.489243 -0.219275 -0.027774 0.484572 0.109754 0.840375 -0.147653 -0.203663 0.34073 1.560938 0.284457 0.865676 0.024695 0.127976 -0.21914 -1.558472 1.112658 0.023813 -0.209829 0.642637 -0.371996 0.223062 -0.011487 1.710571 -0.311664 0.895013 1.376954 1.575697 -0.663546 0.228308 -0.883092 0.327422 -0.610313 1.092088 0.358983 0.515855 1.435774 -0.021725 0.160948 0.265577 0.795192 -0.335251 0.518276 -0.651818 -0.373431 1.671463 1.008971 -0.105813 -0.605187 -0.104605 0.953835 1.092271 -0.278622 1.221124 0.621825 -0.820328 0.620163 0.465238 -0.919483 0.57213 1.304329 -1.109606 1.107819 0.96543 0.078006 1.033597 0.12499 -0.563314 -1.292902 -0.35758 -0.615698 -0.525261 0.571609 0.762764 0.132967 1.830295 -0.346415 1.826308 0.191955 -0.333571 -0.74277 0.988019 -0.138211 -0.850022 -0.161345 0.851315 -0.254767 1.899623 0.59978 -0.902723 -0.374155 0.497642 0.947233 -1.213253 -1.013604 -0.442117 1.41769 0.103401 -0.471524 -1.161315 0.26553 0.103599 0.470601 -0.419267 -1.28514 -0.177175 -0.044403 -0.412578 -0.731243 -0.545725 0.527838 0.544514 -0.817958 -1.211931 0.686897 1.026468 0.629235 2.530416 0.890471 -0.116237 -0.606629 -0.146751 0.048827 -0.01586 -0.288475 -1.61668 0.280471 -0.726085 -0.576069 0.260043 0.660205 -1.828998 0.328904 1.556228 0.452642 -0.267109 -0.141997 -0.635634 -3.28463 1.071025 0.287296 0.258032 1.132844 0.22737 -2.672203 0.464799 0.576698 0.096676 -0.56821 0.776087 -1.737276 -0.797731 0.724974 0.565723 0.545177 -0.472296 -1.09044 -0.305843 -1.212122 -0.770593 0.786393 -0.300322 0.291338 -0.668666 -0.341442 -0.412513 -0.244994 -1.417747 0.511137 -0.643558 -1.382112 -1.930157 -1.019466 1.986998 -0.393954 -0.692879 -0.826788 0.239845 -1.155074 0.579684 0.430175 -0.157905 0.974258 -1.96691 0.810406 -0.809129 -1.075462 1.605487 -1.039277 0.251486 1.337411 -1.692756 -0.182746 0.683641 -0.347765 -0.895094 1.148944 -0.069287 2.566625 -0.535169 0.628377 0.591713 0.136184 -1.07449 -0.520342 0.02288 1.664974 -0.301625 -0.150437 -2.616207 -1.22803 -0.59474 0.308787 0.418315 0.037702 -2.145645 -0.328403 -0.929574 1.116612 -0.537452 -0.150548 0.660018 -0.17988 -0.965901 1.034721 -1.521183 -1.117523 -0.95202 1.773123 -1.455217 -0.325215 2.01093 -0.418974 0.149568 -0.827399 -1.642576 0.287737 -0.758577 0.766774 -0.772742 0.38511 -0.137009 0.382941 0.734362 -1.063383 -0.082696 -0.849143 -0.976173 0.620619 0.560994 -0.528332 0.245486 -1.371648 0.223082 -0.621521 0.264434 -0.83062 -1.342318 0.42808 -0.317951 -0.235844 0.269459 2.435839 -0.850922 1.89769 2.461125 -1.434965 0.77239 0.642743 0.480494 -0.305241 0.762948 -0.428409 -0.903172 1.527897 -0.142811 -1.084057 0.533095 1.13453
peace -2.337403 0.073943 1.547099 1.488502 1.587103 0.685366 -1.736925 -0.617827 -0.988261 -2.009305 -0.19286 3.616371 1.736094 0.026203 -1.027727 -0.484422 -0.32301 0.946974 0.324747 2.347947 0.46443 -0.542328 -3.841873 -2.095093 -1.061603 0.313528 0.482302 0.891428 -0.159224 1.871479 0.275358 -0.294674 -0.4533 -0.260242 -0.205587 -2.32109 -0.069511 -1.154243 -1.210753 3.378184 1.461452 -1.202518 -2.931381 0.302053 -0.291669 -2.336805 -0.243088 0.824475 -0.59012 -1.335629 3.262494 2.441181 -1.951715 -0.208208 1.336222 -1.490041 -0.259312 0.024751 -0.623609 1.597607 -0.095435 0.575424 0.267905 0.211854 -2.585227 -3.452858 -1.84056 1.988914 1.656114 -0.225171 0.310967 3.526857 -0.802828 2.475919 -2.422071 0.020565 -0.328401 1.207475 -1.263248 -0.910592 0.049992 0.286849 -1.461276 0.109735 0.216593 1.121859 1.348721 1.560818 -3.193796 -0.087158 1.977713 0.12997 0.36548 -0.01721 -0.839672 1.267335 1.443234 -0.113434 -0.477574 -0.518969 1.074788 -0.324702 1.683631 1.277176 0.347941 1.527889 0.451458 -0.3678 1.881653 1.045526 0.951019 -0.06051 -3.768636 3.282331 -1.11635 0.484105 3.647697 0.154387 0.34656 0.725691 -0.677306 0.784506 -0.309285 1.594518 1.154103 -0.109743 1.102844 0.00555 0.403974 -1.5587 0.008681 -1.567405 0.207178 1.996318 1.340984 1.289207 0.645944 1.929137 0.83356 -1.746051 -0.165629 1.746771 -1.132945 0.337697 -0.39545 2.053615 0.067888 -1.687609 -0.589125 -1.572518 -0.14233 -0.75914 2.165161 3.449405 -1.834633 1.813874 -1.666323 -0.883004 0.788642 0.025475 -0.265065 -0.523476 -3.630038 -0.939922 1.327842 0.727167 -2.217968 0.492636 -0.183101 -0.153864 -2.138684 -0.41997 -0.34455 -0.879309 -0.257962 -0.582522 0.825168 -0.772878 0.430722 -2.678365 -0.711409 0.30545 0.945984 0.866021 0.201533 -0.013521 -1.161965 -1.746649 -0.789439 -0.485552 -0.745912 0.836546 0.532118 1.905263 0.340938 0.800137 0.652058 0.237353 0.26533 -2.228645 -0.094092 0.673916 1.122341 -0.011942 0.095303 -0.418989 0.256536 -0.310851 -4.924608 0.222284 0.331581 0.049131 3.52347 0.091426 -1.239306 0.812791 0.048912 -0.1428 0.777342 -0.731572 0.239903 -0.263362 -0.155097 -0.654586 1.215899 1.344766 -0.877129 0.197325 0.668983 0.878937 0.319454 -1.313953 -2.100873 -0.140769 -0.882942 -1.475077 0.599523 0.044749 -0.424335 -1.204431 0.822436 0.199678 1.396894 -1.786619 0.940091 -0.567255 -0.393544 0.290316 0.652436 0.395239 -1.030639 -0.49236 0.505143 -0.376174 0.683959 -0.503954 2.90733 1.014968 -1.776999 0.942132 -0.543137 1.241005 -0.163224 0.801609 0.988352 -0.677644 -0.607374 -0.990344 -0.709843 0.070144 1.624523 -0.65499 -0.513202 0.625799 -0.987256 -0.780655 0.781635 -0.883997 -1.883747 2.257465 0.19444 0.436264 0.270148 0.141458 -0.118848 -0.666504 -0.044543 0.338608 1.513258 1.628469 -0.633018 -0.429691 0.602981 0.163887 -0.138371 -0.017993 -0.416083 -1.203856 0.556885 -1.114506 -0.413131 -0.788338 -0.133275 1.145592 -0.45869 -2.591688 -0.188758 -0.340597 -1.388041 -2.470325 0.905529 0.354587 -1.046258 1.310074 0.502902 1.223882 -0.876096 -0.025484 1.437995 -0.344465 1.170865 -1.397692 -0.965126 0.285849 -1.933376 0.617037 -1.45997 0.280232 -0.647596 -0.999621 1.264723 2.811909 0.388408 -0.031964 -0.719092 0.238417 1.531867 0.92775 0.667913 2.243836 -0.887577 0.620088 -0.51479 2.054767 2.504765 0.401271 -0.572615 0.667609 -2.393179 0.331343 -0.359441 1.088667 2.7309 -0.243431 -0.775766 1.910007 -0.412051 0.806518 0.487146 2.750038 -1.405889 -0.562418 2.114659 -0.363141 0.190474 -1.833968 0.812366 -1.653485 1.090315 0.208336 -0.921314 -0.989893 1.008288 0.832085 -2.052752 -0.450634 -0.966828 -1.419458 0.980847 0.290814 0.137311 0.147766 1.245954 0.023218 0.295353 -0.014167 0.068659 -0.011166 0.532197 1.207458 -0.351281 0.363673 -0.502507 -0.323572 -1.329866 0.638616 0.855885 1.365625 1.271951 3.152315 -1.330497 0.152264 -0.792047 -0.308216 -0.990121 -1.578892 -1.069095 -0.031693 2.489919 1.61458 -0.713461 1.171002 -0.778272 2.553957 -1.236916 -0.671202 1.286741 -0.968308 -0.628084 -1.317901 -0.86466 -1.036991 -0.399158 -0.404529 -0.795175 -0.526802 0.756923 -0.070926 0.865428 0.467522 0.479832 -1.024221 2.8839 0.379249 -0.200601 1.521128 0.831513 0.13761 0.66907 -1.137859 -1.679219 -1.501382 -0.325355 -0.671282 -1.054691 -2.4857 -0.912656 1.765587 2.813571 -5.072876 0.89357 -0.26549 -2.552763 0.498627 0.317663 0.766105 -0.299075 1.65677 1.445073 0.417833 1.185551 -0.591679 -0.680162 4.321456 -2.983378 1.255204 -1.962932 0.916444 -0.814384 -0.692148 -0.235481 0.451062 2.230691 1.323759 -0.881781 2.021825 -0.163891 2.42556 0.805123 0.124929 0.116918 -2.934144 -1.09101 -0.827599 -0.49446 -1.649052 0.385375 0.920835 1.509284 -0.589964 -1.113361 -1.429699 1.648143 0.683359 -1.513592 -0.471302 0.868943 -1.438799 2.052891 -0.546159
science -0.612218 -2.285739 0.338884 -1.069879 -0.847506 0.89959 -0.068166 -0.282 0.165883 -0.584013 -0.468727 1.138214 0.479832 -0.467821 -0.984637 -0.346535 -0.713418 0.039738 -0.872738 1.177346 0.679585 -1.84805 -1.587368 -0.124274 1.945029 0.544542 -1.327048 0.907376 -1.101917 0.320191 0.632698 0.126602 -1.445445 0.681372 -1.095622 0.708451 1.116515 -0.803174 0.327166 0.066681 -0.118485 -1.006139 -1.883384 -0.442676 1.764932 1.869774 -0.927141 0.461768 -0.102346 0.338692 0.01316 0.230964 -0.153292 -1.081055 -0.42512 -0.486471 -0.136753 0.042628 -0.042431 0.863648 0.372754 1.966397 0.679978 0.296437 -0.463605 0.384828 0.214492 -0.885858 1.988678 0.987234 -1.467188 1.151702 -0.521753 -0.030217 0.31255 -0.834251 0.975362 0.283467 -0.918922 0.147633 -1.190491 -0.084379 -1.597304 0.926258 -0.641735 0.16977 0.828938 2.368054 -0.32539 -1.206483 0.873117 1.103777 0.061396 0.530649 0.470537 1.028082 1.419258 -0.744563 -1.185489 -0.559752 -1.859588 1.129348 1.068533 0.433344 1.745553 -1.119324 -0.603567 -1.173092 -1.093434 -0.28705 -2.636825 -1.245519 4.197596 -0.848242 -0.055634 0.388184 -1.934608 -0.523431 0.480365 -0.108496 -0.042294 1.669181 -0.529866 0.345229 -3.515493 -1.587621 -1.281358 -0.044386 0.837212 1.405435 -0.427362 -0.864209 0.226535 -1.018137 -0.180746 0.303547 0.068629 0.105568 -1.478631 -0.200094 0.823196 0.198232 0.700948 0.816625 -0.036067 0.107221 -1.660605 2.885081 0.931412 0.656877 -0.109808 -1.108886 -0.707505 -1.118293 0.282628 0.59904 0.040579 -1.16084 3.20381 2.22182 -0.564592 0.464534 -1.790937 -1.106797 -0.718766 -0.884658 -0.469708 -0.890528 -0.222203 -0.690603 -0.008336 -0.626911 -0.146658 0.287169 -0.419465 1.784447 0.224974 0.441441 -0.02413 1.226808 -0.266801 0.604766 -1.734685 -0.495034 0.873281 0.401684 0.892039 -1.269635 -0.385811 0.531177 -0.333688 -0.189989 0.580068 -0.850205 -0.190212 -0.056661 -1.283983 0.632509 -0.062997 0.23146 -1.167679 -0.186353 0.034379 0.593181 -0.711708 -0.788475 0.055113 -0.114243 -0.16813 0.243194 0.031172 0.094824 1.221038 -0.31418 -0.392678 0.3652 -1.375985 -0.235628 1.150488 -1.251828 -0.464271 1.23048 0.470092 -0.17773 -0.776013 -0.237869 0.317874 0.609965 -0.438952 -0.421905 0.351021 0.677208 -1.484152 0.022966 0.349492 -0.097948 -0.42301 -0.619639 -1.181193 -0.132121 0.576974 0.208025 0.812546 -0.483851 -1.343794 -0.802046 0.884825 -0.282459 -1.066257 -1.102066 -1.01925 0.959243 1.278865 0.433202 1.840062 1.071546 0.511368 -0.033734 -0.116817 0.28371 2.010503 -1.409588 -0.360804 -0.44955 -0.07132 0.983998 1.172266 -0.038622 -0.713992 -1.760172 0.166432 0.056525 0.530009 -0.517413 2.134482 0.319231 -0.342167 -0.115931 -0.94062 0.461039 -0.2013 0.208936 -0.380148 0.335427 0.349826 -0.317355 0.034174 -0.034521 0.264906 -0.882168 -0.497453 -0.118108 -0.375019 0.193082 -0.707536 -0.099921 1.353853 -1.687365 1.411654 0.165373 -0.104735 1.125839 0.875455 0.103031 -1.317666 1.446598 -0.353993 -0.675486 0.04801 1.391038 -0.637456 -1.059198 0.53833 -0.828477 -1.893801 -0.90848 1.084175 -1.030997 0.267694 0.362095 0.204713 0.330837 -1.263252 0.376141 1.132539 -0.156998 -0.805099 -1.014212 0.305747 -0.212317 -0.420724 2.215971 0.16088 0.448776 -0.054449 0.798684 0.926269 -0.193939 0.307999 1.824292 -1.131508 -0.103446 -0.363047 -0.729224 -0.569901 -0.15994 -0.207111 -0.157802 0.600265 0.188137 -0.44192 -0.010637 -0.196979 -0.505819 -0.380657 0.556603 0.371087 -0.186534 -1.033965 -0.888811 -0.461456 0.171115 -0.172795 -0.474969 0.445179 -1.465388 0.407711 0.323895 -0.301802 -0.567131 0.783515 -1.044293 -0.597087 -0.446651 -1.261149 0.751386 -1.609007 -0.762798 1.548081 0.115862 -0.170972 0.057647 0.368242 0.253767 -0.627191 0.038602 -0.612826 0.743225 1.516369 -0.53569 0.414325 -1.184083 -0.282584 -0.406155 -0.288236 -0.191516 0.243239 1.197304 -0.413431 0.584586 -0.669747 -0.464476 0.171475 0.534888 -1.2477 -0.014182 0.982593 -0.705265 -0.790205 0.065737 -0.363856 -0.711251 -0.982236 0.037147 -1.387955 0.394798 -0.747507 0.205838 -0.344252 -2.044195 2.185292 0.484708 1.350546 1.537187 0.106662 -1.29706 0.427967 1.442493 -0.27898 0.363272 -0.555504 -0.195672 1.176428 -0.333489 1.481589 0.012039 0.182748 -0.036261 -0.334809 0.291549 -0.676871 -1.103235 0.370184 -0.1586 -0.575366 -0.673011 -1.350729 0.156061 1.149994 -1.315577 0.37429 -1.044964 -2.408689 0.309067 0.751668 1.721405 0.601003 0.887864 0.428508 -0.400405 -0.37825 0.264388 -0.686306 -2.160667 -2.384977 -0.349458 0.093786 0.047875 -0.735407 -0.019118 -0.106492 -0.420397 0.625882 0.038295 0.712025 0.728981 0.252717 1.732291 2.039649 -0.48038 -0.261629 0.003098 -1.461102 1.191276 -0.167741 -1.652224 0.33025 -0.619285 1.819287 0.348331 -0.774134 1.16558 -0.782549 -0.291899 -0.765884 -0.122923 -0.401566 0.341156 1.383813 -1.679855
dawn -0.791593 -0.191445 0.298838 -0.042014 -0.423422 -0.46156 -0.957028 0.166043 -0.218474 -0.353097 0.425567 0.154679 1.253131 -0.174193 0.192645 0.423266 -0.009011 0.030325 0.23707 0.304197 0.219006 -0.755524 -0.480288 -0.603225 0.628489 0.426989 -0.491658 0.283407 -0.3237 -0.083745 0.158072 0.352471 0.131741 0.571913 0.487391 0.629636 -0.251867 -0.100442 0.261174 0.578722 -0.191488 0.07569 -0.623581 -0.155114 -0.037269 -0.180431 0.434885 -0.049277 -0.264965 -0.839719 1.510569 0.888849 -0.542552 -0.096054 -0.682306 0.214554 -0.742158 -0.840355 0.714333 0.073533 0.672999 -0.397433 -0.059088 0.451703 0.442115 0.269912 0.05459 0.24906 0.979843 0.151867 -0.289715 -0.28933 0.014062 0.649617 -0.112539 0.07985 -0.656122 -0.156375 -0.551919 -0.83243 1.014705 0.327341 -0.490494 -0.438831 0.355405 1.12762 1.31832 0.881945 0.332046 -0.571197 -0.85987 -0.459614 -0.554899 -0.739615 -0.088328 -0.112719 -0.140219 0.32614 0.303909 0.413517 -0.507261 0.53061 0.093656 -0.506939 0.455335 -0.201407 -0.642771 0.082398 0.861085 -0.154853 2.162641 0.12897 -1.618684 0.378002 0.293056 -0.074727 0.455428 0.332785 0.423185 0.310327 -0.202398 0.170677 -0.576804 -0.019049 -1.150144 -0.176968 0.416297 -0.114517 -0.050061 -0.215604 -0.116125 0.417516 0.210455 0.483632 -0.22998 0.471871 -0.201652 0.555212 -0.39297 0.36875 0.207801 -0.039354 0.207844 -0.23392 0.266352 -0.152285 -0.523527 0.477795 -0.487772 0.328195 -0.299679 -0.702004 0.090974 0.20714 -0.202277 -0.002296 -0.197885 1.111409 -0.518581 -0.348091 -0.300443 -0.062578 1.203827 0.121036 0.390755 0.077717 0.620763 0.455148 -0.204122 0.541383 -0.287997 -0.421864 -0.095704 0.245078 0.188111 0.313484 0.145963 0.378605 0.111804 -1.387052 0.493992 0.121619 -0.655391 0.433196 -1.512693 -1.904671 0.40587 0.599758 -0.941719 -0.264175 1.532925 -0.644554 0.296421 -0.315896 -0.280751 0.683832 0.087575 -0.091421 -0.486473 -0.335183 -0.287779 0.10349 0.526249 -0.285985 0.124591 -0.239512 0.374143 0.245426 -1.898617 0.766859 -0.824429 0.468446 1.314449 -0.207413 0.315076 -0.170102 -0.307649 -0.079747 -0.336242 -0.786061 -0.430959 -0.195467 -0.161938 0.425387 -0.484228 -0.268788 -0.245404 0.237947 0.825188 0.159184 -0.236791 -0.306457 0.148136 0.008653 -0.128825 0.377375 0.03134 -0.142961 0.542993 -0.565273 -0.215394 0.479132 -0.055827 -0.403987 -0.57675 -0.49508 0.054695 0.257073 -0.715169 -1.571764 0.791698 1.310184 -0.023617 -0.671559 -0.422809 -0.541241 0.545884 -0.178549 0.178517 0.079094 -0.721715 0.94411 0.838195 -0.349785 0.297161 0.434465 0.313654 -0.118542 0.325382 -0.474601 0.517504 -0.40671 -0.278767 -0.229232 -0.38804 0.630022 -0.940071 -0.359968 -0.316233 -0.482511 0.360859 0.194615 0.040363 0.17813 -0.3202 0.380238 -0.45311 0.130154 0.427356 0.33529 0.00719 -0.391782 -0.342004 0.726879 -0.294027 -0.318072 0.260818 -0.675061 -0.02708 0.041727 -0.002224 0.382562 -4.76E-4 -0.109885 -0.132038 -0.234072 0.336222 -0.103138 -0.318209 -0.95481 0.345562 0.407315 -0.372498 -0.148993 0.176158 0.554645 0.282371 0.244516 0.094325 0.019802 0.189946 -0.019915 0.828276 0.466138 -0.152211 1.649823 0.601339 0.711828 -0.278536 0.217002 0.05177 0.319221 -0.598294 -0.306413 0.081704 -1.146553 0.63935 0.172638 0.233907 -0.227312 0.172447 0.455057 0.784665 -0.443831 0.377 0.075132 0.196058 0.519327 -0.072964 -0.038583 0.222802 0.030289 0.319635 -0.340155 -0.323012 -0.001321 -0.058374 0.037136 -0.391004 -0.113552 0.261645 0.068477 -0.240849 1.159288 0.413506 0.106042 -0.179291 -0.409032 0.036901 0.567433 -0.124756 -0.235446 0.10486 0.735656 0.770611 -0.676608 -0.617506 -0.786568 -0.483889 0.408225 -0.055328 -0.591375 -0.384867 -0.203744 -0.014488 0.340681 0.241584 0.339587 -0.12469 0.545985 0.149947 0.597888 0.209561 -0.256396 0.105051 0.533798 -0.245347 0.625843 0.763428 1.405382 -0.925415 0.347666 -0.175946 -0.968372 -0.111637 0.258939 -0.536192 0.301619 -0.467206 -0.357935 0.079492 -0.035733 0.271383 -0.102553 -0.07062 0.390339 0.073917 -0.201539 0.227618 0.361945 -0.497201 -0.137889 -0.169355 -0.322105 0.223271 -0.604272 0.66659 0.103106 0.819665 -0.72625 0.268475 -0.13131 0.037207 -1.171389 0.161515 0.017641 0.077294 -0.285626 -0.538687 -0.123621 -0.130355 0.676288 0.296689 0.130539 0.708643 0.061496 -0.536349 0.644213 -0.201554 0.185627 -0.391615 -0.129669 0.34905 0.190033 -0.841081 -0.998453 0.393985 -0.181114 -0.687821 -0.533545 0.104526 0.322236 -0.378238 -0.816612 1.181817 -0.038219 0.292372 -0.023326 0.105621 0.915971 1.113841 -0.044303 -0.127628 -0.031547 0.075149 0.272632 -0.511617 -1.121358 0.338452 1.012658 0.529677 1.976164 -0.839928 -1.035401 -0.66711 0.809614 -0.128821 0.521261 0.388067 0.081041 0.022424 -0.661572 0.690154 -0.417163 -0.71792 0.250405 -0.091344 0.567528 -0.613183 0.749662
