437 100
plane 0.026515 -0.702148 0.408282 -0.013314 -0.004637 0.150006 0.522328 0.163632 0.375193 -0.346288 -0.530617 -0.199869 0.209476 -0.141858 -0.31448 0.27781 -0.392608 -0.6815 -0.473176 -0.11905 0.709559 0.539041 -0.37675 -0.488159 0.731067 -0.027505 -1.732646 -0.281506 0.652702 0.170963 0.311236 -0.010754 0.99367 0.400518 0.105912 0.391787 -0.235786 0.079585 0.371354 -0.355612 -0.848114 -0.339878 0.420563 0.525591 -0.287632 0.507937 -0.860612 0.816561 0.196653 -0.760505 1.105534 -0.254799 0.275224 -0.105269 -0.704429 0.006823 1.121729 0.222921 0.140473 0.684456 0.632964 0.559335 -0.548896 0.475788 0.170021 -0.700833 0.036386 -0.179234 2.857407 1.357405 0.27598 -0.323199 -0.378261 -0.034981 -0.712803 -0.699511 -0.653597 0.608173 -0.838729 -0.242116 -0.657621 -0.616006 0.590569 0.557067 -0.078499 0.6119 -0.407913 -0.67625 -1.023257 1.086497 -0.117806 0.568635 -0.861789 -0.665472 -0.32497 -0.7718 -0.57537 -0.03332 -0.894809 0.301488
stupid -0.175287 0.491322 -0.261847 0.693403 0.149802 0.501629 0.138647 0.141342 -0.42696 -0.218122 -0.418033 -0.554763 0.523344 0.309552 0.517817 -0.186458 0.500568 0.441067 -0.542353 0.297078 0.507913 1.439442 0.156561 -0.949871 0.450111 -0.43365 0.614648 0.442359 -0.758685 -0.601327 -0.477173 -0.106811 -0.45235 0.680893 -0.097977 -0.375322 0.139269 0.662634 0.480409 -0.192822 -0.236712 -0.135626 -0.457282 -0.14495 -0.03676 -0.089022 -0.569288 -0.827845 0.074108 -0.184649 0.283868 -0.280407 -0.320593 -1.064627 -0.12405 -0.585401 -0.681673 0.164329 -0.819266 -0.644416 0.630895 -0.203697 0.272267 1.063838 0.100664 0.081175 -0.173542 -0.161109 1.606278 -0.252342 -0.642815 -0.183514 -0.409476 -0.835221 -0.570083 -0.129264 0.158023 -0.17795 0.098745 -0.637109 0.101514 -0.601754 -0.218513 -0.32816 -0.462547 -0.265727 0.228152 -0.004765 0.175276 -0.740258 -0.43686 0.88994 -0.440386 0.502237 0.743014 -0.925659 -0.207598 0.184251 -1.079917 0.561771
egg 0.070273 -0.067913 -0.425451 -0.453189 -0.547131 0.656775 0.435753 -0.415588 0.130263 0.180111 -0.343496 -0.563447 0.289599 0.166062 -0.029221 -0.584645 5.92E-4 -0.112004 -0.813452 0.465427 0.712657 0.262693 1.419537 0.200709 0.044821 0.441981 -0.08007 -0.630067 -0.129731 0.376885 0.369874 -0.137471 -0.293256 -0.299014 0.198907 -1.097517 -0.275346 -0.180628 -0.666262 0.752319 0.701397 1.185107 -0.242442 -1.011355 -0.091399 0.226614 -0.324751 0.66617 -0.563476 0.334474 0.421993 -1.482508 0.719547 -0.119556 -0.449138 0.844313 -0.402387 -0.091034 0.093522 -1.705321 0.382557 0.515804 -0.453888 0.121641 -0.051864 0.420367 0.513887 -0.870731 1.342738 -0.269252 -0.610728 0.397625 0.256452 0.505733 0.674228 -0.637772 -0.228948 0.416686 -0.19448 -0.790149 -0.523005 -0.853725 0.149801 0.139518 -0.151664 -0.865028 0.595819 -0.145699 0.265667 -0.278877 -0.630895 -0.625822 0.748152 0.609275 -0.259883 0.554673 0.022755 -0.273325 -0.592188 -0.52568
year 0.084131 0.040192 -0.442358 0.551445 -0.122346 -0.398711 0.098371 -0.17048 0.36927 -0.741692 0.473699 -0.203159 0.113238 -0.082271 0.339367 -0.210415 -0.448266 0.325072 -0.277291 -0.287583 0.023362 -0.374391 -0.230114 0.63245 -0.346885 -0.186839 0.302507 0.134908 0.267803 0.086345 0.14714 -0.314592 0.587714 0.123688 -0.237905 -0.209794 -0.765202 -0.242123 -0.288877 0.392677 -0.203073 -0.202114 0.401195 0.697901 0.298545 -0.151705 0.030166 0.113882 -0.605416 0.517401 -0.600933 0.188479 0.282019 0.040674 -0.154888 0.259098 0.027606 -0.192253 0.337863 0.42144 -0.088488 -0.156811 0.298602 0.868403 0.389737 0.138608 -0.1077 -0.317936 4.66547 -0.064821 -0.378283 0.317811 0.327925 0.031665 0.249138 0.24458 -0.189458 0.534554 0.200641 -0.169689 0.334879 -0.119161 -0.518094 -0.409794 -0.468172 0.136566 -0.266888 -0.013362 0.133479 -0.43498 0.354765 -0.598975 0.18128 0.465426 -0.055501 0.688405 -0.106061 -0.55132 0.119348 -0.201113
psychiatry 0.024568 0.304977 0.387381 1.334578 0.976176 -0.026767 -0.804976 0.244683 -0.024608 0.622201 0.572041 -1.130935 0.494295 -0.132002 1.155005 -0.014066 0.584487 -0.151395 -0.193911 -0.008756 0.383231 -0.548245 0.391199 0.318663 -0.118181 -0.018086 -0.46546 -0.392764 0.179745 0.053063 0.24558 -0.369675 -1.173049 -0.087125 0.03213 0.292837 0.698677 -0.142075 -0.026022 -0.126329 -0.205934 -0.867785 0.580412 0.115503 0.843502 -0.484874 0.142889 -0.435975 -0.079467 0.737517 -0.320386 -0.172067 0.101464 0.276848 -0.250814 -0.341648 0.023932 0.719923 -0.323969 0.447742 -0.806287 1.148302 -0.528936 -0.714059 0.151809 -0.122056 0.298565 0.002701 0.353691 -0.143777 0.419799 -0.169912 -0.283622 0.231181 0.202051 -0.109831 0.437598 0.096076 -0.562812 -0.162039 0.487706 0.630561 0.22587 -0.409053 -0.486761 -1.035115 -0.219538 0.793788 0.418759 -1.010987 -0.994858 0.629281 -0.376102 -0.820802 0.285204 0.193964 0.277363 1.161129 0.060384 -0.53521
asylum 0.275883 -0.291646 0.710252 0.785544 -0.639349 0.780147 0.079635 0.084341 0.139392 0.106911 0.068839 0.077375 0.121228 -0.523104 0.089204 -0.167694 -0.173647 -0.208381 0.084867 -0.412657 -0.174389 -0.065626 0.074975 1.182544 1.394177 0.114037 1.018642 -0.745746 -0.30806 0.428521 -0.612261 -0.541923 0.531814 0.348016 0.181481 -0.587775 1.005112 0.313078 -0.032866 0.124246 -0.620196 -0.634821 0.519153 0.273613 0.032533 -0.233007 1.108685 0.346431 0.198279 -0.157969 0.995697 -0.346394 0.853194 -0.632589 0.474184 -0.809099 0.344019 0.161169 -0.549116 0.610149 -0.032331 -0.799746 -0.202743 -0.01659 0.90724 0.123975 -0.261239 -0.434153 1.517105 0.118612 -0.35623 0.710314 0.218153 0.648114 0.603757 -0.480791 -0.132359 0.664615 -0.945509 -0.992134 0.113648 0.557235 0.237527 0.216788 -0.312757 0.440144 -0.181368 0.275409 -0.871817 0.845398 0.076642 0.49169 -1.023391 -0.059333 0.01718 0.655807 0.778806 0.359468 -0.357862 -0.390458
manslaughter 0.749773 0.289781 0.156471 -0.388581 -0.045437 0.328526 -1.044073 0.69417 0.322988 0.620216 0.208812 0.239586 -0.695053 0.184375 0.887922 0.395711 0.078614 0.02049 -0.469697 0.461752 -0.486201 -0.689885 0.826001 -0.039316 0.036789 -0.85789 0.828165 0.596056 0.482667 0.678757 0.160613 0.599936 0.757661 -1.082147 -0.518565 -0.650108 0.652085 -0.316283 0.070509 0.276098 -1.1235 -0.737707 0.123955 0.113542 0.008921 0.589026 -0.228504 0.114973 1.317444 0.245358 -0.68145 -0.139219 0.616948 -0.058346 0.322197 -0.01659 0.062201 0.864313 -1.396977 0.513394 0.185239 0.624276 -0.135293 -1.168163 0.146568 -0.13464 -0.119086 -1.346066 1.184859 0.283638 -0.167088 -0.312447 -0.729517 0.00472 0.442538 0.584257 -0.565483 0.309983 -0.618447 0.263891 -1.110445 -0.924521 0.088293 -0.008677 0.253736 -0.517065 -0.394547 0.809251 0.903764 0.310579 0.5387 -0.306344 -1.005816 0.160594 -0.841107 0.895173 0.008869 -0.075103 -0.214983 0.881991
music 0.099665 0.326036 1.196701 0.965418 6.81E-4 0.177856 0.522709 0.299129 0.130682 -0.067891 -0.096754 -0.483333 -0.621791 0.335097 -0.284939 0.094995 0.114272 -0.077459 -0.845149 0.006637 -0.903568 0.758381 -0.154468 0.514293 -0.685575 -0.052199 -0.233704 -0.239379 1.130056 -0.014097 -0.430303 0.404157 -1.055147 0.169835 -0.026769 0.144491 -1.4906 0.475124 -0.263048 0.591976 0.29883 0.09187 -1.05971 0.070304 -0.825447 -0.664235 0.643191 -0.956512 -0.442701 -0.004806 -0.352045 -0.074068 0.920707 0.192764 0.7622 -0.176895 0.413465 -0.046456 -0.140486 0.30582 0.06513 -0.229362 -0.532093 -0.037648 -0.688779 0.071995 -0.411177 1.257861 3.145773 0.02438 0.736731 -1.229662 -0.176056 -0.62174 -0.683176 -0.457828 0.173506 -0.724632 -1.145848 -0.457506 0.062913 -0.310856 -0.373228 -0.582793 1.236186 -0.642524 0.435917 0.747527 1.240454 -0.305482 0.557331 -0.186188 0.262928 -0.220635 0.030185 0.041191 -0.090586 -1.117399 -0.148297 0.068698
record -0.27711 0.362823 -0.708941 0.269711 0.069304 0.102722 0.081591 0.350557 -0.105458 -0.257352 -0.157033 0.656855 0.730906 -0.189144 0.053869 -0.691278 0.041872 0.991853 -0.232139 -0.112193 -0.642985 0.243337 -0.57379 0.263897 -0.057342 0.313967 0.279049 0.003504 0.489663 0.165258 0.113473 -0.394499 0.727764 1.150636 0.024226 -0.082729 -1.053523 -0.273846 -0.935181 0.295752 -0.739759 -0.774119 -0.15638 0.563577 0.197439 0.249481 0.447377 -0.038529 -0.017297 -0.427524 -0.776763 -0.08402 -0.127765 -0.302533 0.096274 -0.205826 -0.248078 -1.072139 0.162206 -0.219722 -0.279379 0.075338 -0.052282 0.127609 0.376788 0.319272 -0.364597 -0.45926 3.624997 0.253214 -0.098552 -0.551973 0.307839 -0.252441 -1.058382 -0.329899 0.117951 0.373697 0.387524 -0.213244 -0.225983 0.201695 -0.035391 -0.340735 0.145337 0.061172 -0.133152 0.025756 0.203935 -0.011026 1.043638 -0.365289 1.01039 0.556966 -0.150591 0.59882 0.297777 -0.632541 0.812387 -0.0264
energy -1.581155 -0.077069 0.424228 -0.133102 -0.197919 0.062201 -0.25907 -0.058305 0.471591 0.017869 -0.699663 0.43967 0.412995 -0.938837 0.424128 0.65597 -0.396846 -0.306685 -0.557331 -0.279648 -0.141163 -0.35283 -0.134852 -1.060758 -0.31849 -0.354582 -0.33094 0.96513 -1.246809 0.211454 -0.164322 0.725476 -0.651686 0.347507 1.074042 0.310292 -0.97901 -0.651003 -1.083247 -0.659207 0.448344 0.72668 -0.737531 0.048883 -0.283302 -0.854317 -0.211817 0.151245 -0.414201 -0.780334 -0.619924 0.155766 -0.047863 0.225248 -0.289122 0.205136 -0.214407 0.674885 0.081186 0.289597 0.19312 -0.331908 0.195642 -0.735718 0.088507 0.542536 0.271794 -0.009758 3.632693 -0.689804 0.021832 0.356104 0.722959 0.050005 0.350512 -0.584854 0.016987 0.335262 -0.357506 0.118354 -0.590826 0.459242 0.315178 -0.599783 0.192515 -0.342321 0.942331 -0.557183 0.22625 0.006397 -0.748999 -0.748296 0.506593 0.604243 -0.002461 -0.092303 -0.399055 0.2579 1.068595 0.276794
announcement -0.143896 0.012624 0.270311 -0.434741 -0.001676 -0.483733 0.377208 0.033599 -0.034707 -1.208911 -0.134208 -0.076002 0.025549 0.388557 0.057037 0.508038 -0.928803 0.249891 -0.050302 -0.351989 -0.042837 -1.117462 0.227224 0.323958 0.479762 -0.061164 -0.536709 -0.025234 0.452778 -0.09325 0.107918 0.429354 -0.005856 0.28904 -0.429856 -0.437964 0.746147 0.337364 0.254708 -0.118264 0.038233 0.322345 0.156488 0.311875 -0.380348 0.977011 -0.269504 -0.394973 -0.418708 -0.485629 -0.100485 0.560924 -0.22618 -0.018215 -0.325201 0.665107 -0.646006 -0.264707 0.614424 0.169456 0.216016 -1.052227 0.318248 0.388393 0.10734 -0.020402 -0.214633 0.18638 2.809188 -0.240035 0.020757 -0.406609 0.151002 0.012801 -0.130327 0.545366 -0.307805 0.469171 -0.450118 0.404874 -0.057528 0.122687 0.316649 0.127362 -0.398615 0.066621 0.526329 0.122246 -0.032068 -0.396561 0.23083 0.124031 -0.225543 0.722029 0.085477 -0.703448 -0.069565 -0.181704 0.4524 -0.563027
mile -0.234037 -0.349228 -0.579134 0.240873 -0.35154 0.654017 0.174094 -0.07398 -0.269389 0.483547 -0.057792 -0.05792 -0.032415 0.084412 0.687912 -0.040415 -0.207947 0.419957 0.833012 0.20219 -0.233537 0.954479 -0.565735 -0.068428 -0.009394 -0.527011 -0.314699 0.540569 0.603042 0.765066 0.260638 -0.322751 0.529257 -0.143281 0.860105 -0.547296 -1.441369 0.242256 0.811628 -0.487975 -0.281827 -0.083375 0.160378 -0.258977 0.616026 0.470616 0.613195 1.822874 0.305347 0.121951 -0.054026 -1.019342 0.426136 -0.457546 -0.466146 0.168037 0.24911 -0.40123 0.377412 -0.263603 0.361713 0.176393 0.157086 0.899035 0.171264 0.103218 0.168088 0.204073 1.948308 -0.08022 -0.250017 0.037085 -0.004174 -0.04334 -0.684258 -0.235382 -0.234679 -0.186565 -0.140972 0.467191 0.389843 -0.156207 0.171464 0.924378 -0.730101 0.367321 0.060799 -0.405927 -0.015763 0.239964 -0.094113 -0.207437 -0.259109 -0.530018 -0.155894 0.266477 -0.31769 0.602689 0.695748 -0.134506
airport 0.052229 -0.178834 0.221121 0.213789 0.193239 0.94212 0.466282 -0.167731 -0.366684 -0.790161 -0.220602 0.162214 0.222461 0.325254 0.608038 0.593157 0.091046 -1.545941 -0.227599 -0.192932 -0.013429 0.346804 -0.211328 0.495185 0.267115 0.177253 -0.652772 -0.630126 0.29015 -0.152812 -0.391553 0.178776 0.655107 -0.465205 0.606405 -0.197222 -0.165544 0.117436 0.397885 -0.68831 -0.122424 -1.057685 0.825044 0.102774 0.315511 -0.354498 -0.234157 0.635124 0.04439 0.116173 1.331191 -0.336383 0.694639 -0.617923 -0.7398 0.278361 0.929643 0.457623 0.728708 0.419973 0.164625 -0.176334 0.424177 -0.204041 0.115655 -0.483399 -0.229226 -0.666105 2.968342 1.006678 0.490964 -1.218424 0.201465 -0.102177 -0.201943 -0.027703 -0.449716 -0.041378 -0.376829 0.55971 -0.258586 -0.274881 1.966835 0.759338 -0.375463 0.819353 0.006545 -1.033492 -0.437477 0.239607 -0.397725 0.001515 -0.848777 -0.331384 -0.42827 -0.267824 -0.140253 -0.153203 -0.489838 -0.173589
population 0.017828 -0.226764 -0.856921 1.090483 -0.936958 -0.041565 0.62048 -0.195181 -0.300221 0.96097 -0.077691 -0.645419 0.352248 -0.246168 0.329112 -0.065239 0.20197 -1.361159 0.611667 0.305606 0.323329 -0.272345 -0.17964 0.321227 0.823337 -0.185361 0.473275 0.318826 -0.948389 0.429273 0.436933 -0.347796 -0.159806 0.378569 0.445055 -0.538841 0.012355 -0.237545 -0.512934 0.676883 0.124449 -0.567877 -0.871409 0.225374 1.404817 0.467149 0.129128 1.690939 -1.083774 0.485625 -0.536272 -0.697449 0.337936 0.192159 -0.139815 -0.136389 -0.043001 -0.115116 0.213131 -0.414454 0.211516 -0.564482 0.158125 0.229599 0.5505 0.751268 -0.53157 0.005576 3.076541 0.105753 -0.081057 1.183939 -0.223916 -0.310534 0.459666 -1.042926 0.132721 0.567726 -0.608077 -0.844072 0.139717 -0.123673 -0.49965 -0.580043 0.843661 0.329902 0.132835 0.4457 0.519501 0.031253 -0.842936 -0.076167 -0.023417 -0.700961 -0.371005 -0.041329 0.068148 -0.286333 -0.082684 -0.922192
planning -0.052385 0.079 0.42163 -0.083706 0.025301 0.348915 0.053396 -0.892772 0.121787 -0.428054 -0.362726 0.378389 0.109203 -0.218833 0.40357 0.056343 0.495965 -0.065883 -0.458631 -0.543912 -0.393674 -0.269284 -0.087795 0.014479 0.48198 -0.157878 0.103114 0.050966 -0.014789 0.365356 0.253677 0.739295 0.113921 0.121759 -0.131646 -0.006855 0.394073 0.441237 -0.480283 -0.107333 -0.473006 -0.062862 0.154564 -0.253632 0.087687 -0.800457 -0.086278 -0.342943 -0.17279 -0.054279 -0.343419 0.136608 -0.078425 -0.422461 -0.200716 -0.325436 -0.169014 0.24628 0.482287 0.155932 -0.067269 -0.576574 0.261779 -0.034754 0.04148 -0.539995 0.137962 -0.235151 3.177633 -0.738789 -0.284948 -0.570294 0.19561 0.298273 0.88137 0.233698 -0.032928 -0.024922 -0.275057 0.547933 -0.008666 -0.005049 0.116224 0.758089 -0.231652 0.366939 0.247435 0.440898 0.15524 0.148684 -0.358513 0.025244 -0.826179 -0.426859 -0.123539 0.115596 -0.7217 -0.199297 -0.002311 -0.212011
canyon 0.072574 -0.601351 -0.151112 0.282086 0.130054 0.009548 -0.07444 0.372634 -0.629358 1.284761 0.381812 0.435685 0.039084 0.639305 0.026475 -0.660736 -0.690019 0.807214 0.401459 -0.917511 -0.068778 0.788889 -0.712885 -0.237117 0.568677 0.261444 -0.137119 0.111115 0.661784 0.51905 -0.018768 -0.466759 0.002864 -0.710889 0.385558 0.544114 -1.128453 -0.30007 0.209836 -0.321863 -0.122487 -0.342462 -0.489225 -0.01356 0.312945 0.32285 0.413176 0.864683 0.764993 -0.411946 -0.811691 -0.513382 0.354552 0.586473 0.223202 0.437703 -0.226279 0.530884 0.435523 -0.440023 -0.041471 0.13259 -0.592366 0.636296 0.564413 0.079029 -0.107823 0.065816 0.138287 -0.039796 0.069636 0.005941 -0.542229 -0.161783 -0.286742 -0.34349 -0.246528 -0.45991 -0.286997 -0.033722 0.327645 -0.250912 0.005293 0.314771 0.520887 0.440856 0.813098 -0.546771 -0.02707 0.32604 0.489015 0.830512 -0.137735 -0.526028 0.129186 -0.542629 -0.302354 0.976463 -0.426011 -0.130258
delay 0.189586 -0.218833 -0.135842 -0.025314 0.514526 -0.502379 0.147592 -0.546889 -0.359584 -0.596084 -0.824641 -0.180168 -0.323652 -0.129213 0.794059 0.661701 -0.421476 0.031183 -0.723918 -0.700396 0.108905 -0.052098 0.559627 -0.535614 0.86685 -0.319545 0.033683 0.287651 -0.309327 0.835238 0.946209 0.734793 0.752609 0.507395 -0.332841 -0.481443 0.844739 0.264107 0.041813 0.657683 -0.754425 0.193636 0.066498 0.462363 -0.420593 -0.164443 0.046442 -0.055738 -0.123154 0.139261 0.174723 0.47871 0.277098 -0.515733 -0.611842 0.335848 -0.187298 0.108817 0.664547 0.426638 -0.295377 -0.42866 0.297465 0.185787 0.216217 0.173007 -0.219862 -0.354021 2.514439 -0.270254 0.063728 -0.317859 0.548016 0.080297 -0.23534 0.402366 -0.235965 -0.171652 -0.788936 -0.068915 -0.097781 -0.431467 0.593901 0.912829 0.320231 -0.710321 0.350273 0.292741 -0.03634 0.325122 0.111183 0.843974 -0.016705 0.611179 0.490215 -0.201813 0.132002 -0.345159 0.276044 -0.549623
size 0.45524 -0.313598 0.12137 -0.635272 -0.011711 0.244981 0.46125 -0.557122 0.235261 -0.077244 0.235636 -0.075206 0.339412 -0.098321 -0.099134 -0.394813 -0.111378 -0.977992 0.467267 1.084907 0.536959 0.208643 -0.23469 -0.492268 -0.235677 -0.320845 -0.221926 0.277769 -0.1912 0.612095 0.878461 0.582663 -0.415839 0.083455 0.230251 -0.771725 -1.069906 -0.53693 -0.075408 -0.199892 -0.29788 0.171787 -0.433864 0.480043 0.79666 0.701371 0.044194 0.648201 -0.587343 -0.144969 0.032098 0.029872 0.040891 -0.24552 -0.207332 0.661893 0.329033 -0.098678 0.572734 -0.901151 0.148635 0.642557 0.491439 0.481288 -0.112175 0.334703 -0.682034 -0.165189 2.764894 -0.008084 -0.785363 -0.477999 0.056155 -0.238461 0.514333 -0.686087 -0.041847 0.349348 -0.079211 0.526072 0.009682 0.116322 -0.123433 -0.507626 0.237219 -0.298064 -0.245191 -0.138889 0.577152 0.275496 -0.471544 0.079162 0.457978 -0.420351 -0.047041 -0.576546 0.117499 -0.173182 -0.091497 -0.696049
peace -0.156639 -0.454957 0.103225 0.172722 -0.013551 -0.173107 0.245379 0.742852 0.958596 1.02245 -0.053024 0.826875 -1.028388 -0.437617 0.101424 1.571092 -1.137233 0.380601 -0.805308 -0.577235 -0.127309 -0.06749 0.72482 0.684862 1.114404 0.031588 -0.25912 -0.415786 -0.526856 -0.603465 -0.318786 0.188457 -0.639807 0.449097 0.432184 1.103345 1.06095 -0.238644 0.162939 0.920471 -0.44892 -1.458898 -0.974252 -1.236861 -0.377671 0.049914 0.493982 0.628934 -0.473295 0.247558 0.526077 -0.616109 -0.434102 -0.479374 -0.438831 -0.064131 -0.686417 -0.689887 -0.005588 0.163856 0.753982 -0.268169 0.479712 0.0483 0.669371 -0.28384 0.899623 0.320222 3.019774 -0.527504 -0.122244 -0.50619 0.377357 1.055333 0.470861 0.740109 0.196543 -0.318049 -0.191712 0.573179 -0.201499 0.141805 -0.635418 0.07307 0.035527 0.509969 0.443078 -0.001838 0.497449 -0.317996 0.742285 0.696153 0.530619 0.104724 1.86E-4 0.593839 -1.026046 -0.889781 -0.745633 -0.26705
science -0.611503 -0.184818 0.612085 0.805135 0.21345 -0.215455 0.153679 0.171982 0.901499 -0.238555 0.343549 -0.553512 0.669028 -0.141879 0.439385 -0.312563 -0.414149 -0.128337 -0.483696 -0.273208 0.477511 0.168007 -0.04823 -0.527103 0.768022 0.120051 0.409271 0.007952 0.065719 0.372669 0.084064 0.11839 -1.148163 -0.302502 0.834845 0.41489 0.374128 -0.143933 -1.295622 -0.740236 -0.638055 0.021364 -0.519673 -0.029573 0.303479 -0.792625 -0.219903 -0.921885 -0.880469 0.231559 -0.046155 -1.233009 -0.084329 0.613964 -0.283779 -0.49584 0.116789 -0.020934 -0.469894 0.502212 -0.292788 0.814957 -0.457262 -0.628508 0.223816 -0.45526 0.038063 0.112585 2.763401 -0.663207 0.184915 -0.529053 0.57248 -0.980908 0.099718 -0.977888 -0.36182 -0.637599 -0.62829 0.347693 0.294044 0.078703 -0.494554 -0.770889 -0.496396 -0.757533 0.043604 0.83885 -0.280115 -0.801357 -0.338931 0.810585 0.396107 -0.696419 0.154339 0.096811 -0.254225 0.397511 0.402923 0.176502
dawn -0.585519 -0.028362 -0.208737 -0.073848 -0.098273 0.145168 0.276277 -0.092618 -0.519774 -0.396101 0.367935 -0.334611 -0.108703 -0.306372 -0.02647 0.928575 -0.500579 -0.080887 -0.145969 -0.682737 -0.18724 0.924587 0.393041 0.885762 0.449531 -0.335977 -0.556132 0.283728 0.6473 0.013666 0.650853 -0.375914 0.428 -0.371028 0.553395 0.216514 0.336007 0.006889 0.496468 -0.594759 0.673734 -0.275979 -0.289382 -0.270552 0.093539 0.661896 -0.074234 0.736503 -0.519939 0.293982 0.01047 -0.481621 0.36004 -0.245765 -0.199596 0.028512 -0.280133 0.958945 0.157986 0.046303 0.466618 -0.147236 -0.567365 0.09531 0.019586 -0.308081 0.643582 -0.140934 1.529412 0.41486 -0.365107 -0.600769 -0.903036 0.352793 -0.374931 -0.015661 -1.141766 -0.071505 -9.84E-4 -0.01734 0.479301 0.340886 0.129071 0.677053 0.095629 -0.356853 0.6472 0.028406 0.269258 -0.010821 0.248372 -0.403987 -0.258173 -0.457132 -0.048674 0.213627 -0.336639 -0.337707 -0.312912 0.023829
brother 0.31706 0.239333 -0.274927 -0.131091 0.276122 0.393642 -0.252477 -0.023721 0.773016 -0.289578 -1.18585 0.028482 -0.342607 0.418046 -0.472509 0.428145 0.170008 0.664518 0.41688 0.927897 -0.446587 0.478921 0.413199 0.208859 -0.002492 0.205378 -0.572944 0.230662 0.939918 -0.806925 -0.259176 0.346183 0.210258 -0.064776 -0.148986 -0.457498 0.767709 -0.235134 0.423558 0.906169 0.040015 -0.222345 0.304258 0.139993 0.49466 -0.178757 -0.426032 -0.080898 0.924368 -0.101251 0.316077 -0.067323 -0.164942 -0.19215 0.29885 0.436012 -0.073198 0.496019 -0.907676 0.371609 0.105778 0.238756 -0.609309 0.150599 -0.138577 -0.076653 0.37187 0.092399 2.806116 -0.149523 0.385891 0.400386 0.673548 -0.193615 -0.057104 0.016337 0.560031 0.070204 0.118422 -0.734152 -0.362736 -0.268749 -0.423825 -0.564052 0.351173 0.352614 -1.429593 -0.238417 0.642852 -0.006758 -0.383382 -0.073485 -0.873347 -0.820661 -0.172955 -0.135982 -0.673606 -0.711588 -0.153718 0.846152
wine 0.060104 -0.05868 0.20374 -0.308827 -0.142984 -0.029082 -0.091527 0.834621 0.681796 -0.035111 0.126613 -0.071196 -0.198842 0.606105 0.569314 0.282512 0.411158 -0.252705 -0.9041 -0.229823 0.544684 0.726683 -0.149522 0.369819 -0.782461 -0.001565 0.844392 -0.483469 -0.014923 -0.253028 -0.446628 -0.517404 -0.3813 0.089928 1.155672 0.170045 -0.808466 0.504291 -0.417326 0.023004 -0.006093 0.627729 -0.532532 0.183037 -0.194855 -0.020859 0.88767 -0.077027 0.192835 0.272626 -0.278328 0.059758 0.685532 0.855514 0.346999 1.094574 1.411815 0.386049 1.160842 -1.119869 -0.084551 0.742829 0.07851 -0.323146 -0.78523 -0.887489 -0.247507 0.340368 2.395861 -0.532272 -0.771617 -0.135472 0.527152 0.072231 0.043562 -0.673379 -0.252946 -0.346637 0.287294 -1.457111 -0.474046 -0.691797 -0.311781 -0.99351 -0.092837 -0.619588 1.398807 -0.754707 0.478681 -0.283151 -0.291853 -0.735247 0.259262 0.123096 -0.660373 0.345722 -0.347897 -0.036928 -0.518738 -0.162227
object 0.524839 -0.011905 1.050618 -0.262518 -0.028602 0.119526 -0.315289 0.183487 -0.255576 0.116662 0.260618 0.101845 0.084513 -0.260894 -0.177096 0.008448 -0.540415 -0.510411 0.082847 -0.025029 0.446388 0.83803 -0.087352 -0.701651 0.755418 0.115453 -0.34403 -0.43708 -0.085536 0.461316 0.381809 -0.017176 -0.434389 -0.3527 0.387838 0.058163 -0.389337 -0.160095 0.150558 -0.33563 -0.881872 0.252203 -0.307351 -0.02698 -0.328061 0.44572 -0.019002 0.204738 0.072724 0.110278 0.104308 -0.177732 -0.356186 -0.08139 -0.223639 0.492323 -0.081039 0.586639 -0.513551 -0.266847 0.659472 0.043994 -0.095424 0.186658 0.311351 0.467338 -0.421682 0.284987 1.576416 0.151509 -0.925332 0.087874 -0.312443 -0.339285 -0.445303 -0.582538 0.095681 -0.409611 -0.667002 0.938834 -0.738606 0.128397 -0.149971 -0.189433 0.122341 -0.554632 0.172414 -0.224039 -0.174374 -0.17879 0.238734 0.003706 -0.335541 -0.343812 0.063752 -0.402925 0.255312 0.408728 -0.176331 0.474494
attitude -0.170859 -0.191363 -0.022417 0.622155 -0.171828 0.513018 -0.27207 0.388302 0.103106 0.269124 -0.379925 0.369016 0.185395 0.197624 0.603877 -0.163461 -0.066416 0.007378 -0.010825 0.892911 0.012493 0.747181 0.191503 0.001939 0.408199 -0.63843 0.656354 0.136078 -0.597861 -0.606601 0.038012 -0.555602 -0.969109 0.473511 -0.490551 -0.401085 0.14728 0.228539 -0.125396 -0.885351 0.210696 -0.588348 -0.924826 0.109375 -0.480652 0.616972 0.515734 -0.639147 0.418302 0.367127 -0.251752 0.198056 -0.736623 -0.942083 -0.008747 0.511502 -0.184683 -0.551868 -0.206156 0.172037 0.065732 -0.425566 0.136075 -0.297504 -0.594475 0.282636 -0.110256 0.711758 1.889498 0.189563 -0.254483 -0.27668 -0.201823 -0.757468 0.09035 -0.283433 0.107036 0.440635 -0.45221 0.09243 -0.204368 0.6436 0.115986 -0.008459 -0.432352 -0.307096 -0.046383 0.249861 0.110869 -0.173633 -0.956445 0.739653 -0.375313 -0.127178 -0.19723 0.243808 -0.196728 0.214686 -0.807391 -0.101328
treatment 1.039501 -0.339056 -0.088615 0.680203 0.069759 0.699266 -1.370574 0.443824 0.532838 0.509584 -0.576075 -0.105295 -0.728922 0.329081 0.815465 -0.334048 0.400529 -0.559652 -0.00281 -0.338451 0.563982 -0.105174 -0.030348 0.076058 0.545034 -0.071129 0.423583 0.264902 -1.071014 0.043735 0.277494 0.472964 0.383992 0.639838 -0.184283 -0.903944 0.69998 0.111456 0.687135 -0.196528 -0.045466 0.179396 -0.0191 -0.308672 -0.421271 -0.1335 0.1504 -0.54402 0.923967 0.776975 0.122432 -0.412586 0.620493 0.298722 -0.813072 -0.341233 0.15018 0.926314 -0.324439 -0.107235 -0.894163 0.165515 -0.344166 0.236675 0.001868 0.475447 -0.052324 0.305919 3.254113 0.013471 0.887951 0.317358 0.742633 0.570127 0.002332 -0.020411 -0.280743 0.403673 -0.530238 0.350263 0.482258 0.432282 0.203476 0.448493 -0.802468 -0.137508 -0.008633 0.747527 -0.179896 0.178729 -0.984087 -0.161821 0.586113 -0.033781 -0.442176 0.49638 0.726614 0.379153 -0.010861 -0.813724
flight 0.077634 0.138578 -0.209907 0.142867 -0.02979 0.113242 0.714584 -0.321124 0.001346 -0.436722 -0.484055 0.060579 0.2787 0.273339 0.167309 0.15096 0.053722 -1.212786 -0.748004 -0.048671 0.716283 0.667961 -0.098682 0.017533 0.337597 -0.530887 -0.91256 -0.060273 0.836364 0.751392 0.468043 0.692338 0.830521 0.250011 -0.166023 0.576696 -0.301855 0.257527 0.108575 -0.694617 -1.03431 -0.809652 0.735668 0.282537 -0.692265 -0.215397 -0.245326 0.525815 0.159005 0.022136 0.855643 0.032167 0.412113 -0.521943 -1.024825 0.384086 1.020022 -0.142732 0.676802 1.184934 -0.25534 0.464365 -0.258523 -0.104352 0.204642 -0.505928 0.081708 -0.028655 3.007019 1.048297 0.603162 -0.752152 -0.293132 -0.217472 -0.502767 -0.817528 -0.495678 0.725013 -1.007082 -0.530535 -0.858936 -0.570268 1.118825 0.703882 -0.271847 0.086884 -0.358931 -0.115979 -1.247624 0.399302 0.13575 0.356058 -0.522943 -0.651475 -0.559933 -0.149194 -0.577688 -0.36293 -0.307569 -0.296957
forest -0.207127 0.139734 0.070248 0.223438 -0.302188 -0.215199 0.651114 -0.268105 0.157833 -0.006922 -0.536816 0.177991 0.290143 -0.396678 0.460869 0.043291 0.195962 -0.063385 -0.403715 -0.326313 0.244675 0.862263 -0.061186 0.20176 0.383878 -0.134651 -0.25177 0.397146 -0.358954 0.521606 -0.334854 -0.288728 -0.255938 -0.326459 1.164684 0.399649 -1.038701 -0.115269 0.408338 -0.255743 -0.450421 -0.446398 -0.386461 0.347024 1.132112 -0.221441 0.396704 1.055587 0.535164 -0.493131 -0.643682 -0.037863 0.853839 0.610233 0.451235 -0.148083 0.4954 0.485755 -0.484978 -1.246424 0.217289 -0.691551 -0.418394 0.190315 0.578686 0.373835 0.151173 0.221339 1.919521 -0.629049 0.601372 0.495173 -0.299551 1.223462 0.097824 -0.725351 -0.365075 0.388796 -0.285564 0.511407 0.204838 0.461958 -0.808741 0.293331 0.656862 1.017328 1.103732 -0.942488 -0.252321 -0.168161 0.112502 0.730858 0.165489 -1.034606 -0.615353 0.046613 -0.334849 0.291159 -0.416251 -0.886415
abuse 0.740846 0.149134 -0.270848 -0.482885 -0.122786 -0.038687 -1.512009 0.593544 -0.977053 0.273855 -0.187285 -0.485928 -0.98402 0.174313 0.242902 -1.015979 0.590838 -0.278668 0.880636 -0.188845 -0.354935 -0.113073 -0.060739 -0.033824 0.861336 0.392415 0.555122 0.09963 -0.573713 0.416008 -0.809648 0.275891 0.040859 0.514595 -0.012715 -0.514283 1.038361 -0.643486 -0.437923 0.902997 -0.213789 -0.997347 0.101581 -0.690625 0.30597 0.352088 0.678347 -0.694202 0.412844 -0.364206 -1.337579 -0.438699 0.694129 -0.637145 -0.069773 -0.38451 -0.028296 0.87287 -1.277461 0.376808 -0.094738 0.11391 -0.682478 -0.051571 0.204493 0.493778 -0.116854 -0.3793 2.920913 0.766584 -0.197996 0.87782 -0.603277 -0.443398 0.163479 0.235994 -0.226322 0.151213 -0.01685 0.201085 -0.105425 -0.210526 0.680199 -0.23191 -0.097866 -0.60008 -0.209496 0.531325 -0.125951 -0.644202 -0.281881 0.131741 -0.138638 -0.183979 0.08854 0.248895 0.194409 0.132188 -0.441593 -0.332516
criterion -0.189945 -0.106819 -0.100014 -0.162446 -0.121006 0.423631 0.295203 -0.821475 0.757083 0.42355 0.124103 -0.503376 0.666801 1.040283 0.056614 0.055895 -0.515633 -0.539414 0.273609 -0.436643 0.133853 0.205036 0.687112 0.185668 0.654908 0.116979 0.736237 -0.257511 -0.274576 0.630459 0.1723 0.320755 0.04917 -0.160317 -0.122675 -0.715319 0.288027 0.223065 -0.293326 -0.216326 -0.044437 0.054026 0.082362 0.304465 -0.666562 0.347666 0.458557 0.489089 0.115598 0.102467 -0.345089 -0.158765 -0.007356 -0.679714 0.017913 -0.665224 -0.301265 0.144917 0.437148 -0.31637 -0.01425 -0.255551 0.489767 0.073578 0.668396 -0.411216 0.115137 -0.445943 -0.44782 -1.225157 0.069747 -0.406751 0.357288 -0.44181 0.753056 0.172914 1.037176 -0.434371 -0.078474 -0.233872 -0.855779 0.447398 -0.274595 0.257565 -0.114161 -0.622512 -0.165896 -0.106183 -0.511908 0.509638 -0.593569 -0.037433 0.514827 -0.075742 -0.698076 -0.392984 1.349548 -0.601488 -0.237046 0.070068
sea -0.62256 -0.568189 -0.253215 -0.09555 -0.212123 0.221916 0.951734 0.145223 -0.18135 0.085206 -0.102429 0.024225 0.248678 -0.700176 0.079019 -0.16748 -0.679206 0.100094 0.543808 0.317838 0.682825 0.734893 -0.556435 -0.472331 0.668255 -0.850386 -0.228081 -0.506936 -0.527498 -0.016238 0.395921 0.603587 0.174618 0.087715 1.630911 0.535792 -0.764321 0.190524 0.126137 -0.281416 -0.413207 -0.500889 -0.409489 0.459425 0.204273 0.669353 0.259642 0.765257 0.040577 -0.12041 0.214881 -0.160674 1.068922 0.454518 -0.446606 0.850046 0.290205 0.624564 0.326822 -1.082903 -0.217715 0.233335 -1.270528 -0.46042 0.308475 0.902363 0.578558 -0.438905 2.631812 0.545573 -0.875913 -0.054953 -1.057317 -0.074403 0.194578 -0.868018 -0.625534 -0.20384 -0.386517 -0.51919 0.118694 -0.554584 -0.6914 0.536667 -0.496859 0.457387 0.228141 -0.188379 0.401466 0.115176 0.20785 -0.24153 0.299528 -0.413698 -0.50572 0.50735 -0.738187 0.327829 -0.25451 -0.737242
dollar -0.794098 -0.43962 -0.386429 -0.318232 -0.208093 0.322767 -0.771619 0.77789 0.725744 -0.582634 -0.094315 0.325004 0.764446 -0.234627 0.809666 -0.076721 0.228789 0.622823 -0.951838 0.609147 -0.222322 -0.184555 -0.518993 -0.181029 -0.253259 -0.307768 -0.44795 0.193852 -0.785424 -0.34483 0.299357 -0.335916 0.328026 0.158926 0.626126 0.544567 -0.304649 -0.552887 0.138155 -0.770624 -0.096239 -0.088264 -0.053749 -0.262869 0.330591 0.993682 -0.472056 0.318793 -1.110463 -0.160976 0.407836 0.911363 0.204258 0.37085 0.377111 0.62402 0.123281 -1.02322 1.08942 0.111109 0.781615 -0.231565 -0.390011 0.642159 -0.283635 1.017145 -0.114408 -0.228642 3.002404 0.822258 -0.964732 -0.174488 0.389008 -0.091702 -0.254332 0.322314 -0.266673 0.309249 0.367319 -0.870203 -1.324578 0.410155 -0.246441 -0.712322 0.312972 0.685747 -0.047852 0.941449 -0.729994 0.660621 0.022617 -0.128042 0.871734 0.777294 0.853517 0.036241 1.12439 -0.098123 0.856858 -0.945384
example -0.129855 0.009047 0.257691 -0.077543 0.332751 0.052973 -0.199244 0.047161 0.387132 0.05316 0.051566 -0.071793 -0.566742 0.278476 0.294466 -0.245101 0.440329 -0.556303 0.191761 -0.052376 0.375109 0.012333 0.22735 -2.64E-4 -0.112012 -0.014291 0.430902 -0.018326 -0.36142 -0.127887 0.237493 -0.015422 -0.258439 0.488677 0.013185 0.20433 -0.247976 0.318088 -0.369101 -0.375977 -0.273566 -0.073083 0.011712 0.232788 -0.084561 -0.265374 -0.043723 -0.068649 -0.223137 -0.428228 -0.256532 -0.156583 -0.024614 -0.049777 -0.177565 0.119607 0.216681 0.172081 0.042917 -0.556624 0.220088 -0.050271 0.072763 0.397442 -0.054157 0.207232 -0.002195 0.230226 3.118178 -0.046821 -0.068756 0.035235 -0.046047 -0.399817 0.305093 -0.432687 -0.012514 -0.012124 -0.017352 -0.034052 -0.107796 0.263184 -0.266852 -0.26787 0.078409 -0.067482 0.135159 -0.091443 0.182316 -0.244095 -0.195239 0.033292 -0.128866 -0.238366 0.083597 -0.373111 0.259187 -0.359423 0.167524 -0.055941
journal 0.27496 -0.33026 -0.011105 0.30963 0.454829 -1.569623 1.082975 0.16076 0.016349 0.377714 -0.390505 -0.242261 0.073938 -0.68698 -0.319821 -0.51447 0.484973 -0.768286 0.342229 -0.2059 0.912797 -0.884226 -0.330177 0.431736 -0.264419 -1.063545 -0.100746 0.363637 0.045431 0.081768 -0.08786 -0.067973 0.103797 0.488108 0.290356 -0.341011 0.89869 -0.156805 -1.466153 -0.048708 -1.212064 0.132343 -0.10039 -0.580516 -0.298475 -0.292249 -0.7671 -1.056052 0.105099 -0.046504 -0.261993 0.015523 -0.389274 1.467182 -0.205745 0.581306 0.205562 0.144666 -0.804551 0.328487 -0.230497 0.943191 -0.068285 0.386958 -0.210592 0.130973 -0.16934 0.959316 1.745123 -0.315077 -0.325768 -0.875301 0.205366 -0.76454 -0.082137 -0.678379 -0.804368 -0.080779 -0.371671 -0.517381 1.216876 0.591158 -0.913398 0.016642 -0.782121 -0.177289 -0.100723 0.788838 -0.084527 -1.885792 0.237236 -0.07798 0.544029 0.06087 -0.847849 0.54614 0.920431 0.928213 -0.006616 -0.106815
laundering -0.191635 -0.65501 -0.834716 -0.211125 -0.393595 0.365926 -0.960793 0.166986 -0.651682 -0.395049 0.061603 0.317085 -0.688887 0.031636 0.467112 0.170466 0.827757 0.275771 -0.65856 0.894872 -0.157103 -0.585498 0.707253 -0.605169 -0.359634 -0.498695 0.134713 -0.008101 0.113129 0.589511 -0.501248 0.823568 -0.422921 0.322676 0.944702 -0.330595 0.745526 -0.691187 -0.874342 -0.30103 0.216721 -0.745058 0.565248 -0.652077 0.233355 -0.117406 -0.257382 -0.3771 0.095842 -0.573051 -0.052006 -0.110391 0.632701 -0.035932 1.37504 -0.762532 0.327356 0.939552 -0.303943 0.49411 0.645476 0.86869 0.36686 0.384908 -0.14256 -0.011083 0.004908 -1.353941 1.254715 0.77661 -0.63014 0.340747 0.006376 0.428588 1.104028 0.040542 0.028291 -0.41153 0.43629 -0.081942 -0.754236 -0.404913 0.770605 0.653344 -0.238622 0.164199 -0.816702 0.634037 0.309239 0.004538 0.496831 -0.916068 -0.14879 1.365188 0.195167 1.042797 -0.17861 -0.184014 -0.43745 0.391354
hotel 0.327433 0.619293 0.429526 -0.155024 0.187889 1.302749 -0.556834 -0.181637 0.548618 0.477591 0.814411 -0.214316 -0.124694 0.894544 -0.193969 -0.181403 0.570122 -0.802874 0.259364 -0.484362 -0.339675 0.302802 -0.563273 1.038155 -0.260757 -0.022204 -1.104211 -0.527546 0.847556 -0.754668 -0.41975 0.109477 0.683298 -0.142437 0.604015 0.655991 -0.714547 -0.017317 0.484091 -0.937657 0.020084 -0.229519 0.402226 -0.265492 -0.347723 0.066472 -0.296331 0.299553 0.604764 0.326067 0.646192 0.268273 0.557222 -0.108343 0.339148 0.761626 0.406902 0.597747 0.968678 -0.693918 -0.36634 0.345844 0.598381 0.007557 0.267532 -0.791766 -0.441027 -0.775162 2.98599 -0.136528 -0.390816 -0.573075 0.091442 -0.446619 -0.191517 0.413786 -0.350384 0.458622 0.004248 -0.393789 -0.768802 0.188041 0.513861 0.095261 -0.123464 0.517225 1.417728 -0.3436 0.21239 0.70421 -0.122264 -0.282677 -1.049686 -0.552976 -0.314985 0.209697 -0.547893 0.207869 -0.247333 -0.451482
term -0.118104 0.25216 -0.713642 -0.169613 0.148096 0.447433 -0.458766 -0.023636 0.307379 0.011958 -0.111639 0.690858 0.222055 0.348127 0.676797 0.47923 -0.907522 0.093678 -0.236116 6.41E-4 0.391964 -0.123809 0.595325 -0.188104 0.4556 -0.263049 0.944508 0.474416 -0.300992 0.112459 0.436979 -0.267286 -0.198812 0.223132 -0.090157 1.3E-5 0.451816 -0.046594 -0.272086 0.311381 -0.248314 -0.615973 0.571734 -0.451474 0.063542 -0.289921 0.800546 0.141261 0.038263 0.713134 0.038178 0.522814 -0.252439 0.397515 0.201078 -0.047019 -0.65931 0.700549 0.401702 -0.11797 0.250441 -0.128188 0.755591 0.581741 0.585994 0.322538 0.637831 0.02985 3.256414 0.064453 -0.75899 0.052259 0.569004 -0.004515 -0.015058 0.398616 -0.423743 0.311726 0.814524 -0.383272 -0.073215 -0.193033 -0.012704 0.07008 0.570082 -0.989081 -0.36364 0.706074 0.047433 -0.29762 -0.015915 0.39133 0.67018 0.088625 -0.062508 -0.679881 0.228523 -0.384684 0.826877 0.079256
listing 0.281796 0.454279 0.570003 -0.567357 0.235946 -0.610046 0.158754 -0.515665 0.300374 0.061247 0.010095 0.52612 0.716538 0.846952 0.576685 -0.076229 0.806701 -0.507204 0.040997 -0.043144 0.410592 -0.373542 -0.168593 0.158434 0.649006 0.430932 -0.236829 -0.753861 0.364564 0.807888 -0.038164 0.520754 0.153318 0.581044 0.201415 -0.160148 0.101432 -0.029711 0.426224 -0.324036 -0.575838 0.160843 0.566517 -0.303214 0.387261 -0.386639 -0.157446 -0.3455 -0.281712 0.082674 0.283625 -0.300203 0.346199 0.314017 1.078381 0.276645 -0.181528 -0.832102 0.700519 -0.155107 -0.003817 -0.470142 0.478916 0.682381 0.312485 0.070289 0.095896 0.215314 1.644022 0.136511 -0.681191 -0.590364 -0.338752 0.265716 0.037231 -0.059763 -0.010422 0.492624 -0.032376 -0.306149 -0.363285 0.567895 0.011629 0.391925 -0.165823 0.042833 0.077201 -0.056076 -0.476203 0.385452 0.754549 -0.32242 0.344393 0.023959 -0.773783 -0.187872 0.289546 -0.372893 0.553756 -0.154356
chemistry 0.079767 -0.470465 0.120375 -0.102811 0.799849 0.440121 -0.213099 -0.045276 0.986019 -0.533941 0.063601 -0.464324 -0.155077 0.258044 0.009843 0.161983 -0.897978 -0.078804 -0.81287 0.151466 0.645722 0.575243 0.341019 -0.028278 -0.26093 -0.066263 0.088569 0.346679 -0.163304 0.528133 0.25241 0.056762 -1.285685 -0.905889 0.562141 0.257941 -0.073861 -0.403352 -1.061041 -0.389007 -0.234051 -0.100719 -0.858911 0.309531 -0.103651 -0.626754 0.191291 -0.720186 0.131124 0.111629 -0.073824 -1.035993 -0.463552 0.190345 -0.564948 -0.169532 0.826496 0.409388 -0.295323 0.210804 -0.666675 0.510799 -0.285335 -0.395331 0.081866 -0.51149 0.648177 0.248854 1.067442 -0.137727 0.460143 -0.604923 0.486393 -0.442788 0.262333 -0.670836 -0.025576 -0.251227 -0.822752 0.243134 0.100368 0.215912 -0.620592 -1.402574 -0.535116 -0.490815 -0.064502 0.291895 -0.034878 -0.412552 0.652518 0.744215 0.532994 0.207531 -0.212687 0.813448 -0.185383 0.70782 -0.076321 0.347401
seafood 0.136183 -0.876592 -0.209336 0.13202 0.466743 0.089614 0.215956 0.339228 0.209581 0.05515 0.135432 -0.250963 0.246139 0.203238 0.640087 -0.543412 0.807756 0.347758 -0.143706 0.734709 0.280444 -0.334271 0.633043 -0.371553 -0.03205 0.111103 0.282899 0.073245 -0.424639 -0.268899 -0.254121 -0.12856 0.294595 0.428098 0.68213 0.441553 -0.711293 0.59386 -0.462953 -0.60237 0.320518 0.399087 -0.339221 0.551742 0.190567 0.282696 -0.008866 -0.222883 -0.680557 -0.255784 0.024901 -0.442036 1.241274 0.518131 0.330786 0.329546 0.542444 -0.028465 1.664713 -1.406115 -0.069729 0.369912 -0.377041 -1.075118 0.050832 -0.093385 0.236493 -0.483202 0.803688 -0.275203 -0.945612 -0.599578 0.161838 -0.10921 0.823291 0.153033 -0.185128 -0.002918 -0.113033 -1.252324 -0.993542 -0.685731 0.043403 -0.107062 -0.219303 -0.731918 0.738936 -0.392118 -0.020473 0.225305 -0.338847 -0.699948 0.391297 0.177397 -0.601686 0.289778 -0.264334 0.173249 -1.141517 -0.147685
CD 0.967848 0.042628 1.133075 0.155734 -0.222572 0.376608 0.841662 0.455447 -0.01428 -0.517722 0.199384 0.284584 0.53078 0.298451 0.164047 -0.417098 0.757906 0.065997 -0.724038 0.111396 -0.534226 0.442244 -0.280662 0.650242 -0.159764 -0.945732 0.072283 0.01246 0.386308 -0.244276 0.199664 0.713361 -0.193008 0.263935 -0.195712 -0.26081 -1.179204 -0.214447 0.209708 0.742238 -0.122375 -0.042967 -0.176648 -0.294596 -0.529915 -0.331074 -0.402551 -0.28587 0.122781 -0.278252 -0.404737 0.006936 0.637537 -0.336133 0.767855 -0.256144 0.266235 -0.494901 0.020905 0.814737 -0.192962 0.55829 0.03161 1.066296 -0.165863 -0.760158 -0.001036 0.829434 1.235132 0.296915 0.16428 0.062091 0.601927 0.246382 -0.661768 0.035186 -0.160912 0.376916 0.2645 -1.232435 0.079284 0.09171 -0.390779 -0.439671 1.099029 -0.293989 0.916542 0.526792 1.096529 -0.345916 0.694279 -0.317888 1.037044 -0.022368 0.319589 0.158698 0.782788 -0.76228 0.281625 -0.227085
mind -0.621389 0.101703 0.507164 0.046967 0.432147 0.414089 0.116119 -0.01936 0.216746 0.04524 -0.355353 -0.459677 -0.009717 0.326624 -0.113868 0.105607 0.132388 0.279623 0.189301 0.213237 0.315454 1.395157 0.269432 -0.028957 0.627126 -0.441014 0.041179 0.133082 -0.053178 -0.525063 0.167122 0.308461 -0.654802 0.114975 -0.006908 -0.272691 -0.038113 0.231755 -0.275945 -0.267541 -0.23341 0.160703 -0.220358 -0.320932 -0.362511 -0.21326 0.255386 0.015245 0.442947 0.355308 -0.176261 -0.182136 -0.468909 -0.003501 0.223322 0.269779 -0.245222 -0.199889 -0.181037 -0.175345 0.322 0.061189 0.054912 -0.208295 -0.305788 0.108577 -0.239557 -0.247178 2.851908 -0.072149 -0.455542 -0.212382 -0.218487 0.080982 -0.520331 -0.09755 0.329151 -0.214065 -0.088546 -0.113745 -0.23123 0.587453 -0.321829 -0.379986 -0.163088 -0.773014 -0.187071 0.347301 0.046979 0.061818 -0.337527 0.601519 -0.018821 -0.017268 -0.080574 -0.382033 -0.203497 -0.31649 -0.329647 0.175337
sex 0.40498 0.047941 0.099426 -0.49439 -0.676863 0.771211 -0.970313 0.466021 -0.150665 0.297877 -0.424129 -0.567629 -0.926463 0.089471 0.113743 -0.567185 0.782084 -1.174186 0.323949 0.003767 0.332493 0.8191 -0.127715 0.393431 0.33488 0.237019 0.516713 0.091686 -0.034368 0.051393 -0.047435 -0.092213 0.298471 0.095162 -0.040435 -0.714709 0.760934 -1.11107 -0.147222 0.164629 0.134522 -0.798573 -0.061437 -1.075813 -0.264778 -0.701074 0.975657 -1.218425 0.378702 0.393729 -1.148376 -0.515542 0.205321 -0.116067 0.398812 -0.413415 -0.218911 0.795672 -0.601055 -0.186069 0.259941 -0.146642 -0.643353 0.231198 0.55351 0.463165 -0.027204 0.372093 2.993913 0.341307 -0.402807 0.045375 -0.600937 -0.749154 -0.03541 -0.030926 0.036369 -0.126558 -0.179211 -0.283746 -0.384349 -0.847123 0.197489 -0.892271 -0.163608 -1.058401 -0.307033 0.500697 -0.534197 0.15443 0.03463 0.126992 -1.047129 0.023009 -0.28001 0.440798 -0.232775 0.0392 -0.258063 -0.679556
food 0.140798 -0.921195 0.108219 0.115599 0.136985 -0.508967 0.042544 -0.10288 -0.112239 0.382904 -0.323513 -0.939111 -0.479055 0.427483 0.022474 -0.743315 0.418882 -0.089525 -0.570445 -0.134356 0.31411 0.248269 0.237581 0.064379 -0.51845 -0.047704 0.087728 -0.835538 -1.848761 -0.288534 -0.609126 0.189621 -0.178229 0.231445 0.914178 -0.111752 -0.592206 0.049135 -0.647412 -0.218095 0.027713 0.165457 -1.139051 0.018429 0.564935 0.147798 -0.250303 0.071992 -0.888977 -0.516275 -0.294553 -0.348306 1.27 -0.043278 0.39918 0.165083 0.409497 -0.102968 1.135921 -0.392866 0.222604 0.486286 -0.438318 -1.054871 -0.297377 -0.05839 0.832092 -0.186404 3.736193 -0.429504 -0.050003 0.021713 0.851406 -0.017104 0.677793 -0.211035 -0.475191 0.279284 0.104978 -1.129719 -0.523501 -0.185534 0.559716 -0.195108 -0.23031 -0.767292 1.316922 -0.474806 -0.799386 -0.012488 -0.865834 -1.100408 -0.310477 -0.323559 -0.405628 0.42976 0.143368 -0.0546 -0.716734 -0.449832
precedent -0.225579 -0.311024 0.691907 0.014362 0.302911 -0.174874 0.074041 -0.107778 -0.117116 0.668803 0.322181 0.380759 -0.312907 -0.089586 0.642628 0.439085 0.023271 -0.11709 -0.363984 -0.464983 -0.19132 0.569546 0.3813 -0.129304 1.07581 -0.033678 0.593714 0.311139 -0.42557 -0.038593 0.467622 -0.39831 -0.582686 0.272531 0.074563 0.322331 0.9608 0.372785 -0.230772 0.197413 -0.519002 -0.131503 0.149997 0.371835 -0.248344 -0.149099 1.138347 -0.409091 0.192473 -0.13695 0.161846 0.395945 0.095689 -0.101284 0.126801 -0.061029 0.033485 0.233674 0.064038 -0.569298 0.145211 0.117281 0.206931 0.434827 0.033328 0.1643 -0.772725 -0.038003 1.188236 -0.022621 -0.192013 0.01316 -0.630202 -0.150668 0.219122 0.410234 0.245504 -0.059095 -0.300262 0.398931 -0.637947 0.55348 -0.179369 0.291918 0.432227 -0.32233 0.017345 -0.451862 -0.321955 -0.21243 0.284062 0.879128 0.271662 0.351425 -0.105285 -0.518301 0.820227 -0.454099 -0.302287 -0.047809
series -0.181816 0.101199 -0.768524 -0.03749 -0.015494 -0.010859 0.619899 -0.350245 -0.32387 -0.638308 0.991007 0.185485 -0.889071 -0.318034 -0.049535 -1.196614 0.004484 0.37738 0.099494 -0.306642 -0.582448 -0.566982 -0.561183 0.105323 0.527391 -0.26277 -0.193388 0.043102 0.580374 -0.882806 0.786488 0.580891 0.112933 0.328133 -0.808022 0.834363 -0.881371 -0.721405 -0.354176 0.434749 -0.094625 0.295069 0.060935 -0.376954 -0.59389 -0.034398 -0.704413 -0.852522 0.112757 0.348687 -0.835002 -0.25227 0.272828 0.559265 -0.00983 -0.784756 -0.411718 0.020674 -0.294327 0.458965 -0.927388 -0.287782 -0.033765 0.201548 -0.222478 -0.096784 -0.047282 0.736819 3.239983 -0.257146 -0.024898 0.081605 -0.121515 0.102951 0.107423 0.374226 -0.254404 -0.309432 0.18506 0.400113 -0.914851 -0.040668 -0.147369 0.317399 -0.709948 -0.275859 0.190761 -0.098459 -0.475615 -0.444637 0.381263 0.740303 0.520255 0.010274 1.003065 0.249165 -0.40909 -0.971184 0.172688 0.369489
kilometer 0.084266 -0.263071 -0.646032 0.935386 -0.931324 0.69862 0.006476 -0.228796 -0.308388 0.0841 -0.191325 -0.035256 -0.271955 -0.060948 0.558477 0.347418 -0.245984 -0.36659 0.17 0.052601 0.075917 0.718617 -0.629654 -0.478325 0.411669 -0.36858 -0.156252 0.448286 0.607236 0.691059 0.23502 -0.21722 0.634384 -0.177412 0.380604 -0.812742 -0.898859 -0.103259 0.686022 -0.394051 0.241801 -0.134645 0.211008 -0.361261 0.625404 0.495587 0.80838 1.810614 0.600833 0.214697 -0.438553 -0.225518 0.12395 -0.166573 -0.129447 -0.099796 0.502449 -0.330121 0.828756 -1.022339 0.188943 -0.25231 -0.121001 0.978324 0.721797 0.206474 -0.171077 0.44096 -0.061461 -0.235793 -0.255069 -0.024296 0.863863 0.190621 -0.760831 -0.059881 -0.161167 -0.275615 -0.222744 0.861237 0.166875 -0.857515 -0.18418 0.982461 -1.136002 0.055435 -0.314691 -0.81195 -0.098448 0.008067 -0.204009 -0.204537 0.103484 -0.039667 0.193183 0.444964 0.351719 0.44301 0.549623 -0.292518
grocery -0.073108 -0.418173 0.656603 0.108324 0.373598 -0.166697 -0.019125 -0.635387 -0.342539 0.742901 -0.045997 -0.685696 0.548468 1.005161 0.122041 -0.650269 1.190285 0.034497 0.183264 0.387044 0.003527 0.308739 0.015842 0.208871 -0.863302 -0.053566 -0.474562 -0.637405 -0.022897 -0.437055 0.036367 0.058397 0.317828 -0.60659 0.493434 -0.520515 -0.712046 0.040491 0.346701 0.049444 0.631743 0.61854 -0.456417 -0.081911 0.715523 -0.173665 0.13613 0.456905 -0.723544 -0.323963 -0.224397 -0.629887 0.595757 -0.22064 -0.05311 0.327867 -0.324685 0.334841 1.634257 -0.232809 1.076376 0.507589 1.267717 -0.421665 -0.675337 -0.87765 0.21736 0.050639 1.672758 -0.166485 -0.15666 -0.009576 0.645397 0.491778 0.418919 0.41289 0.025837 0.340499 0.409082 -0.881096 -0.116811 -0.244073 0.87467 -0.331991 0.252973 -0.311991 0.892996 -0.221981 -0.214035 -0.218619 -0.226165 -1.116949 -0.554544 -0.169212 -0.437167 0.393892 0.517672 -0.110879 0.108457 0.005588
wizard -0.078595 0.619013 0.109915 -0.107309 -0.185973 0.236904 -0.322508 -0.43711 -0.271435 -0.12576 0.05123 -0.613237 1.172698 -0.293624 -0.409888 -0.111462 0.71032 0.913051 -0.279911 0.20438 -0.315485 -0.034139 -0.324188 -0.344806 0.172669 -0.594373 -0.226746 -0.027607 0.692906 -0.454811 0.547263 0.406458 -0.740494 0.160051 -0.012409 0.874604 -0.689166 0.01395 0.09723 0.688481 -0.449315 0.156541 0.058645 -0.926783 0.724876 0.15347 -0.020017 -1.060242 0.027167 -0.089138 -0.945888 0.013341 -0.215853 0.226599 0.54515 0.133477 -0.113908 1.421392 -0.359056 0.866536 -0.820532 0.047904 -0.518194 0.721196 0.671743 0.174067 0.613686 -0.292192 -0.041664 0.16422 0.002295 0.664289 0.235847 -0.312487 -0.570019 -0.519627 0.405112 -0.88144 -0.027244 -0.637329 -0.553731 0.266602 -0.330418 -0.292308 0.023972 -0.363076 -0.774676 0.481247 0.129895 -0.415623 -0.197441 -0.037055 -0.705745 -0.21326 0.177222 -0.294705 -0.207537 -0.46253 0.539239 0.024126
information 0.328692 -0.196666 0.794855 -0.854332 0.490969 -0.003404 0.537462 -0.044412 -0.708559 0.500721 -0.481562 0.285862 0.128253 0.913772 -0.514184 -0.169272 0.997388 -0.32435 0.687565 -0.387157 0.134403 -0.348312 0.39684 -0.049912 0.59191 -0.193945 0.071701 0.614467 0.110487 1.060595 -1.23204 0.942625 -0.644251 0.319936 0.498936 -0.264928 0.567443 0.575518 -0.418406 -0.878325 -0.627405 0.603058 0.367913 -0.368761 -0.31277 -0.051102 -0.220375 -0.561609 -0.358251 -0.643784 0.07763 -0.13738 0.540264 0.805317 0.445615 -0.853678 0.01686 -0.37972 -0.035254 -0.080891 -0.377559 -0.299833 0.131917 0.055226 0.080445 -0.724626 -0.167208 0.129292 3.816429 0.832995 0.401735 0.50264 0.363135 -0.18003 0.031062 -0.859686 0.44579 -0.048008 -0.065395 0.632722 0.088377 0.331267 0.215912 0.014962 -0.556481 -0.178398 0.328661 1.154478 -0.589438 0.195063 0.446803 -0.614466 -0.137598 0.720148 -0.300561 0.04063 -0.385412 0.399942 -0.387827 -0.114896
Israel -0.304374 -0.569554 -0.195544 0.540552 -0.29787 0.833119 0.179496 0.817589 -0.425555 0.744592 -0.68767 -0.165292 -1.027487 -0.208791 -0.453321 0.812373 -1.393794 -0.052513 0.006258 -0.529928 0.463565 -1.04311 0.731308 0.310961 1.171826 -0.160911 -0.688198 -1.259579 -0.430293 0.110352 -0.843472 0.141661 0.028462 0.613653 -0.190714 0.185501 1.297711 0.370864 0.429758 0.383344 -0.138352 -0.851269 0.00783 -0.575395 -0.031945 -0.263145 -0.01864 1.069405 -0.169489 0.475909 0.472898 -0.016901 0.192469 -0.941595 -0.851042 -0.042767 -0.780207 -0.498706 0.30183 -0.806185 0.537885 0.023761 0.486689 -0.780727 -0.429522 0.23119 0.027951 0.69483 3.132135 -0.286995 -0.498891 -0.302247 0.296381 0.395009 0.671943 0.556884 0.1999 -0.241126 -0.727183 1.092231 -0.397719 1.017796 -0.711492 -0.205552 -0.328047 0.567287 0.585971 0.129062 0.185465 0.419823 -0.052874 0.001059 0.302739 -0.049914 0.960471 0.391628 0.48305 -0.970484 -0.183748 0.976505
brandy -0.032995 -0.315122 -0.19524 -0.69286 -0.512643 -0.47376 0.341487 0.431542 0.098904 -0.28187 0.503221 0.097481 0.346827 0.350112 -0.018722 0.549903 -0.770507 0.437911 -0.694824 -0.380498 -0.015417 0.61476 0.78221 0.187726 -0.61955 -0.093994 0.811054 0.001783 0.115631 0.086223 0.009562 -0.74732 -0.073086 -0.589283 0.097811 -0.201084 -0.462206 0.39085 -0.024804 0.706235 -0.104397 0.387587 -0.470916 -0.357522 0.069125 0.278654 0.550133 -0.345076 0.737967 0.264526 -0.406794 0.353648 0.545879 -0.113531 -0.138631 0.923931 0.938283 1.054633 0.372868 -0.882447 -0.093719 0.54797 0.125391 -0.227712 0.43149 -0.454323 0.497925 0.191077 -0.463402 0.139135 0.050859 0.707023 0.68721 0.206592 -0.342423 -0.608654 -0.210434 -0.920915 0.932136 -0.985736 0.103334 -0.148515 -0.579338 -0.515632 -0.27887 -0.697684 0.553316 -0.786192 0.163182 0.021503 0.151044 -0.222953 0.035848 0.375685 0.062709 -0.008371 -0.767442 0.558811 -1.030258 -0.245524
interview 0.126285 0.515982 -0.162073 -0.745892 -0.448818 0.074825 0.222488 0.436901 -0.219039 -0.369004 -0.027691 -0.1185 -0.660428 -0.227595 -0.529043 -0.290456 -0.674677 -0.278914 0.680642 0.313641 0.148353 -0.081708 -0.038127 0.891699 0.632637 -0.399582 -0.714533 0.218664 0.912312 -0.222271 -0.471051 0.093136 -0.121862 0.879793 -0.736397 -0.025134 1.044704 -0.195852 0.543414 -0.20883 0.302669 0.195046 0.905727 -0.165022 -0.499013 -0.256521 -0.527205 -0.463991 0.498663 -0.19202 -0.227435 0.471465 0.24341 0.955923 -0.331391 -0.418267 0.040062 -0.623904 0.076514 0.097544 0.182402 -0.273454 -0.132598 -0.119628 0.147853 -0.469147 0.540207 0.584685 3.16415 -0.986395 0.507809 -0.739472 0.087909 -0.863975 -0.194785 0.115687 0.030095 0.17548 -0.188935 -0.375658 0.240762 -0.263019 0.731226 -0.116432 -0.053596 -0.380446 0.057238 0.149639 0.280381 -0.583775 -0.147817 0.64734 -0.212212 0.235475 -0.030024 -0.219805 0.151085 0.106263 -0.439991 -0.304775
prominence -0.479737 -0.514031 -0.036252 -0.034098 -0.108431 -0.3069 -0.792064 0.393035 0.47911 -0.097171 0.486618 0.317077 0.179818 -0.482817 0.621719 -0.089111 -0.884347 -0.627713 0.306538 -0.236614 -0.153423 -0.084958 -0.115531 1.184731 0.553016 0.719133 -0.461915 0.129297 0.200935 0.077801 -0.500565 -0.201987 -0.541785 0.187407 -0.29804 0.217631 -0.244111 -0.468309 -0.917591 0.288847 -0.123463 0.088734 -0.399526 0.314951 0.102856 0.668727 -0.020924 -0.172994 -0.35805 0.213538 -0.013528 0.207201 0.27565 0.231776 0.445713 0.119691 0.404409 0.09026 -0.24154 0.383101 -0.02353 -0.45812 0.110617 -0.483596 -0.446106 0.336795 0.643977 -0.040398 0.978961 0.165205 -0.307081 0.025447 -0.695549 0.114726 -0.039207 -0.428209 0.61326 0.26826 0.199164 -0.244043 0.091583 0.119313 0.089483 -0.526167 -0.047097 -0.769328 -0.609509 0.163091 0.132383 -0.146783 0.391939 -0.532967 0.200532 -0.174947 0.198918 -0.111097 0.279321 -0.666026 0.25086 -0.490255
bed 0.870145 0.448678 0.019401 -0.77895 0.03876 -0.096934 -0.446261 -0.013582 0.155555 0.130529 -0.068175 -0.514915 0.29935 0.009848 -0.538561 -0.602966 -0.011762 -0.048571 0.345866 0.199082 0.097986 1.687849 -0.125651 -0.075472 -0.275358 -0.550624 -0.918699 0.14605 -0.215693 -0.767051 0.0207 0.322595 0.329023 -0.321669 0.561335 -0.334041 -0.625992 -0.540256 0.508701 -0.038564 0.025864 -0.586797 -0.322056 -0.635493 -0.590277 -0.383097 -0.008582 0.412722 0.872249 -0.288506 0.599645 -0.289346 0.742562 0.600386 -0.172156 0.642843 -0.186203 0.687689 0.114522 -0.462162 0.02598 0.915852 -0.497889 0.485619 0.854923 0.113348 0.903567 -0.648282 2.377757 -0.629587 -0.05736 -0.035881 0.01048 0.254038 -0.256458 0.06999 -0.820285 -0.289081 -0.235809 -1.010709 0.665973 -0.098706 0.111873 -0.284511 -0.134306 -0.229777 0.724257 -0.114319 0.608931 0.538576 -0.47209 0.498116 -0.209907 -0.533927 -0.571419 0.233786 0.257963 0.255661 -0.479167 -0.044416
furnace 0.072321 -0.25676 0.289727 -0.465201 0.146075 -0.073969 -0.427224 -1.064293 0.16924 -0.157992 -0.426585 -0.10399 0.287216 -0.299816 0.221948 0.345031 -0.328736 0.512314 -0.30963 -0.139745 0.409351 0.261945 0.047835 -0.018877 0.342027 -0.071105 -0.982505 0.752588 -0.383257 0.600596 -0.376989 0.209493 0.420676 -1.355746 0.338941 0.235962 -0.718842 -0.504439 0.100378 0.465343 0.521699 0.198345 -0.521022 -0.072301 0.129668 -0.242463 -0.457366 -0.170832 0.309748 -0.329554 -0.336858 -0.604647 0.823659 -0.168268 -0.21103 0.126639 0.466499 0.222931 0.056282 -0.057258 -0.766341 0.316756 -0.272069 0.092983 0.24112 -0.039171 0.443656 -0.122296 -0.30614 -0.976468 -0.089533 0.899857 0.115712 -0.489672 -0.591536 0.370188 -0.353488 0.068976 -0.548836 -0.274662 -0.293965 0.071975 0.173395 -0.738854 -0.039974 -0.206305 0.766356 -0.358595 0.38973 0.435893 -0.328643 -0.494513 0.609996 0.174589 -0.637584 0.056138 -0.510681 -0.415362 -0.188419 0.716943
evidence 0.35532 -0.956525 0.794934 -0.837294 0.224813 0.060049 -0.095699 0.578703 -0.511999 0.404267 0.104741 -0.050162 -0.064898 -0.369727 -0.305442 -0.769762 0.381248 -0.31681 0.116795 0.139056 -0.019818 0.318843 0.663136 0.430071 1.515374 -0.309756 0.130062 0.656943 -0.292124 0.603847 0.194119 0.22627 -0.227806 0.339024 -0.021372 -0.185952 1.652411 -0.152886 -0.91367 0.194556 -0.450944 0.403016 0.365473 0.25306 0.082275 0.64479 0.039882 -0.345441 0.803813 -0.980074 -0.348259 -0.053762 -0.298663 0.529442 0.089409 -0.215731 0.14053 0.167034 -0.467817 -0.209024 0.015926 0.458892 -0.259057 -0.141018 -0.147234 -0.024124 -0.133884 -0.626154 3.599893 0.391337 0.142288 -0.009238 0.055323 -0.422199 0.416285 -0.424553 -0.691908 -0.381113 -0.438147 0.597113 -0.322739 -0.322587 -0.388322 -0.198101 0.076921 -0.311021 0.525507 0.608 -0.083957 0.440995 0.480763 -0.123467 0.238776 0.187044 -0.375386 0.695989 0.732662 0.314214 -0.326051 -0.379462
sprint -1.070358 0.101285 -0.419401 0.092819 -1.225327 0.809802 0.022095 -0.453744 0.241042 0.365847 -0.184975 -0.41415 -0.148916 -0.776693 0.559093 -0.328668 0.022426 0.273721 -1.233452 -0.142773 -0.944179 0.660365 -0.506019 0.12952 0.589969 0.518328 0.507377 -0.032186 1.355439 0.313699 0.992468 -0.163289 -0.147698 0.310893 -0.115809 -0.364272 -1.263869 0.558567 0.413012 0.346197 0.02099 0.426411 0.195355 0.100763 0.127177 0.139518 0.862537 0.201241 0.512687 -0.691057 -0.403457 -0.773847 -0.601884 0.134437 -0.678501 -0.112471 0.112391 -0.245244 -0.116023 0.177655 -0.269735 -0.092556 -0.592423 -0.278481 0.710173 -0.532095 0.11298 -0.096225 0.715989 0.107276 -0.257302 -0.897791 -0.694984 0.45486 -0.381811 0.517876 0.258121 0.449982 0.278262 0.772578 0.524448 -0.327489 0.159896 0.178786 -1.130644 -0.142894 -1.343516 0.204948 -0.177377 -0.063247 0.500511 -0.165047 -0.192962 0.431593 -0.148214 0.962191 0.724958 -0.003709 0.152608 -0.340315
emergency -0.139465 0.566242 0.469224 -0.112134 0.216115 -0.180081 -0.133621 0.010106 0.08175 -0.728113 0.050636 0.185324 -0.116337 0.219726 0.044161 0.689198 -0.121844 0.233176 0.133788 -0.809738 0.293979 -0.301176 -0.306871 -0.578009 0.290852 0.532056 -0.275729 -0.20312 -0.49833 0.421059 0.890897 0.930358 0.503754 -0.06338 0.372105 -0.046972 0.65415 -0.225511 0.631609 0.276419 -0.153949 -1.133715 -0.180377 0.200542 -0.516837 0.528956 -0.92712 0.190991 -0.130087 -0.183807 0.06019 0.104707 1.112216 0.275971 -0.125457 -0.744098 -0.141492 0.739611 0.187701 0.444453 -0.540496 0.214888 -0.650575 0.37416 0.195912 -0.723316 -0.098771 -0.102343 3.2883 -0.191866 0.741029 0.383312 0.136825 0.949971 0.301275 -0.217305 -0.257188 0.417473 0.094633 -0.468662 0.38689 0.440738 1.533017 1.035013 0.311082 -0.006532 0.478946 -0.244236 -0.693399 0.656513 -1.0278 0.045384 -0.18029 -0.142822 -0.080096 -0.62538 0.235393 0.596565 -0.216108 -1.246513
Jackson 0.681345 0.386468 0.402957 -0.108766 0.738831 0.679331 -0.132714 0.46054 0.137041 0.221376 -0.029619 -0.562344 -0.543937 0.340705 -0.732048 -0.65846 0.265482 0.280518 0.014476 -0.244678 -0.71569 0.163221 -0.337117 0.171384 -0.269296 0.575164 -0.525173 0.372242 0.888753 -0.150692 0.246071 0.348203 -0.088519 0.568635 -0.417705 -1.079927 0.300281 -0.060694 0.736365 0.799991 -0.351921 0.421376 0.359109 0.051431 0.359396 0.628985 -0.382584 -0.548944 0.532594 0.172812 -0.1777 0.108492 0.389046 -0.004981 0.969957 0.052934 0.086002 -0.761917 -0.970324 0.21213 -0.152112 0.100253 -0.844437 -0.045502 -0.09199 0.147593 -0.167108 0.386328 2.871161 -0.594126 1.292592 -0.767444 0.085117 0.731989 -0.829186 0.229841 0.681132 0.177944 -0.188388 0.231142 0.198744 -0.630152 -0.195254 0.044513 0.773993 -0.458208 -0.09959 -0.464071 0.70882 0.287452 0.116759 -0.326161 -0.168766 -0.254435 0.018656 -0.001127 -0.479687 -0.139175 0.60085 -0.475201
institution -0.028796 0.084002 0.392406 0.252434 -0.089462 -0.017822 -0.308272 0.110555 0.914995 0.658303 0.533982 -0.359326 0.092746 0.480648 0.957163 0.462002 -0.015214 0.151041 0.376583 0.06457 -0.127772 -0.449862 -0.12765 -0.271767 -0.033479 0.69071 0.006434 -0.033883 0.521394 0.594489 -0.386756 0.013394 -0.784954 0.195338 0.158136 0.426608 0.23486 0.430725 -0.422706 0.195573 0.447712 -1.246842 -0.434824 -0.551089 0.346166 -0.343171 -0.290914 -0.078671 -0.656958 0.917911 -0.182947 -0.388538 -0.501357 0.224508 0.487834 0.071958 -0.247486 -0.087286 -0.22216 -0.578137 -0.394377 0.903831 0.383985 0.801779 -0.196348 0.124689 -0.755321 -0.088901 2.181755 -0.157103 -0.630091 -0.167964 -0.008569 -0.32787 0.260346 0.057859 0.151305 0.412413 0.012098 0.212037 -0.511486 0.424869 0.230307 0.101744 0.777279 -0.011104 -0.120399 0.683997 -0.517688 -0.762666 -0.550941 -0.031062 0.293082 -0.451915 -0.275764 -0.773581 0.439026 0.110615 -0.48371 -0.46654
bird 0.13272 0.245358 -0.323252 0.275754 -0.026132 -0.326395 1.317569 0.495716 -0.287803 -0.643395 -0.527793 -0.279772 0.766703 0.181622 0.41429 -0.871619 1.148888 -0.492678 0.047542 0.554886 0.514325 0.386536 0.656431 0.426894 0.72169 0.475862 -0.540228 -0.510729 -0.671672 -0.567943 0.804762 -0.02765 -0.054291 0.339046 0.714731 0.496533 -0.499111 -0.313075 -0.360872 0.272757 -0.407166 -0.313272 0.069668 0.221162 0.355941 0.514823 -0.556442 0.563715 -0.491844 0.037188 -0.098653 -0.911217 0.798373 0.613004 -0.319024 0.435779 -0.227467 0.313797 0.111955 -1.422557 0.166038 -0.433 -0.819893 0.195328 0.343453 0.483706 -0.187857 -0.07605 1.771559 0.421644 -0.465854 0.28367 -0.584076 0.266675 -0.027586 -0.379685 -0.335914 0.117774 -0.422804 -0.110575 -0.621908 0.026847 -0.229831 -0.049112 -0.182576 0.396583 -0.097855 -0.273513 -0.686896 0.121251 -0.381618 -0.457572 0.3968 -0.996226 -1.080013 0.195307 -0.198074 -0.210846 -1.006397 -0.543325
Brazil -0.099912 -0.924052 -0.609933 -0.254239 -1.035178 -0.109787 0.750317 0.932274 0.14946 -0.566461 -0.316087 0.357761 -0.752075 -0.376225 0.090677 0.679355 0.480358 -0.549327 -0.583986 -0.079955 -0.141576 -0.056747 -0.594655 0.011678 0.058328 0.041263 0.226103 0.176881 -0.030483 0.038267 -0.01058 0.186901 0.683063 0.431215 0.949765 0.782136 -0.735759 -0.287812 -0.252251 -0.16682 0.891931 0.125563 -0.046183 0.838833 -0.075175 -0.087949 0.783719 0.24654 0.025652 -1.091335 0.198357 1.111592 -0.45227 -0.376888 0.583024 0.324532 1.277694 0.311314 -0.342785 0.476648 -0.26269 -0.767036 -0.464345 -0.023097 0.941587 0.14458 -0.112001 -0.055771 2.58909 -0.285361 0.386648 0.008192 0.077154 0.380833 0.622017 -0.305559 -0.345763 1.226219 -0.007376 -0.023856 -0.195871 0.236185 -0.107333 -0.958823 0.135123 0.265619 -0.244642 -0.83482 -0.346312 -0.36938 -0.192135 0.44382 -0.185411 -0.234983 -0.451082 -0.404325 0.354759 -0.035491 0.026261 0.110755
warning -0.594343 0.376687 0.375165 -0.28214 -0.123315 -0.556413 0.382451 0.19157 -0.741849 -0.530203 -0.36255 0.748502 0.375283 0.528379 0.120962 0.505133 -0.495365 0.238713 0.290873 -0.924994 0.460168 -0.2157 -0.098242 -0.19291 0.456757 -0.234444 0.455514 -0.305432 -0.442174 0.128634 0.74491 0.092848 0.314867 0.423475 -0.578806 0.748996 0.646876 0.573362 -0.001819 0.120394 -0.299421 -0.021268 -0.478985 0.397517 -0.02859 0.560418 -0.226397 -0.487755 -0.060819 -1.040012 -0.192866 0.449967 0.685238 -0.201761 -0.253664 0.265744 -0.661773 0.430971 0.332803 -0.234994 0.312637 0.224247 -0.298605 -0.304226 0.161023 -0.295837 0.001496 0.317905 3.083648 0.922317 -0.309799 0.248267 -0.312422 0.023977 -0.263419 0.041123 -0.102603 -0.592017 -0.20921 0.101005 -0.04802 0.80892 0.605556 0.496793 -0.187117 0.255902 0.456705 -0.035139 0.166739 -0.008028 -0.272302 -0.37861 -0.260258 0.193959 0.138644 -0.371525 0.533041 0.238537 -0.724728 -0.717307
implement -0.240565 0.053604 0.929569 0.28959 0.274201 -0.551125 -0.437383 -0.263163 0.106672 0.100431 -0.3251 0.886347 -0.032685 -0.044496 0.209877 0.331337 0.028632 -0.006583 -0.263974 -0.207954 0.479224 -0.481081 0.079916 -1.031539 0.31829 0.300744 0.798895 0.23184 -1.073261 0.645089 0.217885 0.998041 -0.462438 0.228717 -0.371257 0.488467 0.184703 0.120063 0.135291 -0.623024 0.011622 -0.655512 -0.092402 -0.344963 -0.049485 -0.163195 0.157456 -0.095944 -0.413238 -0.014838 -0.487866 -0.027049 0.266908 -0.456873 -0.083399 -0.605745 -0.362003 0.219698 0.339024 0.039003 -0.471212 -0.454039 0.752958 0.477359 0.105595 -0.46511 0.02667 -0.228714 1.856441 -0.807415 -0.392596 -0.442476 0.484086 0.720382 1.220558 -0.393515 0.146247 0.563721 0.141813 0.135587 0.939002 0.172457 0.382372 0.221174 -0.210049 0.28517 -0.180878 0.29189 -0.145858 0.436138 -0.065027 0.559063 0.141399 0.400495 -0.26112 0.152656 -0.719255 -0.789985 -0.187427 -0.380706
train -0.771023 -0.014663 -0.139665 0.33902 0.462861 0.763219 0.095272 -0.403687 -0.175796 0.200555 -0.370252 -0.184921 -0.316707 0.252869 0.215919 0.3528 0.21479 -0.4647 -0.320283 -0.210399 0.171821 0.745548 -0.393376 -0.882172 -0.306902 0.394744 -0.256427 -0.553077 0.698395 0.365144 0.257091 0.595122 1.291461 -0.82932 -0.107128 0.81124 -0.737396 0.301355 0.350075 0.039776 -0.169448 -0.522406 0.189226 -0.271794 -0.692349 0.099638 -0.220838 1.050668 0.038963 -0.700493 0.084469 -0.616513 -0.07953 -0.092996 -1.007914 -0.107343 0.444817 0.522335 0.525921 0.925784 0.097894 -0.16686 -0.233168 0.431368 -0.413949 -0.641852 -0.109301 -0.293079 2.857858 0.743837 0.033737 0.042378 -0.25766 -0.573646 -0.401115 -0.112774 -0.284699 -0.456301 -0.236579 0.049589 0.118252 -0.081329 0.492401 0.449661 -0.403179 0.607779 0.09492 0.372808 -0.359867 0.433741 -0.864876 0.088915 -0.679062 -0.321745 -0.983169 0.023595 -0.862506 -0.379057 -0.537817 0.262408
area 0.246381 -0.71178 -0.034935 0.086528 0.320649 0.293209 0.239122 0.242653 -1.048741 0.40571 0.477015 0.182285 0.037705 0.0947 0.369908 0.062221 0.386874 -0.362123 1.190069 -0.226112 0.078069 0.231352 -0.698445 0.568016 0.263296 0.226464 0.031428 0.123577 -0.289798 0.377738 -0.219043 -0.286632 0.070232 -0.64077 0.670107 0.220407 -0.87312 -0.398545 0.4394 -0.394338 0.564104 0.174261 0.054861 0.116556 0.739866 0.045236 0.388696 0.79607 0.73143 0.486836 0.531423 -0.386527 0.603825 0.063914 0.033214 0.036424 -0.062804 0.945164 0.692902 -0.27576 0.533495 0.136792 -0.124005 -0.165975 0.243065 -0.540277 -0.27097 0.572625 3.635327 0.112894 0.634408 0.131994 -0.49442 -0.057871 0.336565 0.045578 0.081464 -0.574579 -0.428434 0.812575 0.125924 0.031643 0.019701 0.451221 0.145046 1.091576 1.145831 -0.216626 0.117303 0.311743 -0.342201 -0.228089 0.466218 -1.210554 -0.432038 -0.418246 -0.734349 0.601218 -0.435912 -0.855054
image 0.333415 -0.154405 1.292475 -0.309346 -0.43461 0.806032 0.24069 0.359119 0.181884 0.392526 -0.201277 0.584498 -0.106162 0.074091 0.02436 -0.165287 0.180999 -0.207515 0.368968 0.134102 0.608674 0.242564 -0.597273 -0.407455 0.819025 0.19972 0.128637 0.177376 0.745359 -1.085597 -0.26521 -0.179667 -0.98235 0.796727 -0.565868 -0.369934 -0.637972 -0.055352 -0.725724 -0.268149 -0.134164 -0.54533 -0.612209 0.130492 0.104766 0.258097 -0.668853 -0.192742 0.648219 0.424512 0.003741 -0.077126 -0.236431 0.434074 0.28548 0.261517 0.050304 0.026297 0.064783 -0.605461 -0.018562 -0.50703 0.008265 0.227036 0.10171 0.126298 0.67789 0.308051 2.435639 1.067221 -0.153977 0.149127 0.030954 -0.315114 -0.50769 -0.673466 -0.303396 0.169698 -0.199491 0.73318 0.163635 0.597059 0.115993 -0.54609 0.279009 -0.266989 -0.146532 0.383614 0.100874 -0.234505 -0.082306 0.039467 -0.308816 0.095262 0.512949 0.173966 -0.213394 -0.835959 -0.832699 -0.328279
murder 0.448518 0.102743 0.078259 -0.422674 -0.199828 0.499837 -0.706558 0.391548 -0.37302 0.363079 0.305038 -0.107225 -0.886889 -0.098766 0.505736 0.133571 0.601311 -0.236426 0.455762 0.830014 -0.805077 0.033988 0.993364 0.400739 0.705421 -0.644072 0.721352 0.621878 0.818267 0.29559 0.137316 0.28605 0.242721 -0.892359 0.057993 -0.016923 1.344554 -0.193849 0.21948 0.788581 -0.567295 -1.062802 0.609586 -0.422648 0.241775 0.366712 -0.305632 0.071686 1.147505 0.007301 -0.792629 -0.897513 0.195264 -0.122635 0.124701 -0.245757 0.016237 1.267018 -1.35485 -0.099332 0.587565 0.271913 -0.109885 -0.74069 -0.053066 -1.022293 0.212405 -1.005594 2.920708 0.444534 -0.282051 0.390312 -0.423646 0.340597 0.4787 0.556673 -0.402291 0.205516 -0.648385 0.07444 -1.502651 -1.26034 -0.283492 -0.780268 -0.002632 0.024098 0.329336 0.333957 0.58072 -0.869278 0.901658 -0.487689 -0.648349 -0.151874 -0.26963 0.949182 0.02241 -1.03695 -0.065785 0.835451
journey -0.808971 -0.54017 -0.249422 0.172742 0.102581 0.350634 0.777825 0.057498 0.087977 0.336702 -0.109372 -0.178092 -0.830839 -0.187822 0.395084 0.393201 -0.061005 -0.051159 0.021339 -0.216211 -0.131352 1.316547 -0.164152 0.03962 0.151195 -0.492152 -0.074965 0.355723 1.351152 -0.283081 0.120165 0.991948 0.150869 0.467955 0.430425 0.104907 -0.543664 0.455474 0.354852 -0.256902 -0.830244 -0.543409 0.155405 -0.125078 -0.251431 0.049626 0.837858 0.907413 0.360355 0.784584 -0.2787 -0.921532 -0.122382 -0.161004 -0.79414 0.433666 0.478443 -0.025603 0.617522 0.870452 -0.216837 -0.473799 -0.168908 0.523962 0.268519 0.654151 0.433237 0.219926 2.287329 -0.0067 0.105892 -0.163249 0.368914 0.102935 -0.353098 -0.642965 -0.242363 -0.1148 -0.327513 -0.236559 -0.2866 -0.379267 0.480829 0.692172 -0.775708 -0.251569 -0.325595 0.091603 -0.749106 -0.506708 -0.261894 0.454274 -0.655242 -0.537739 -0.294644 0.401557 -0.438444 -0.554615 0.257079 -0.363919
minister -1.277153 0.677576 -0.363373 -0.275639 -0.422013 -0.300988 -0.021088 -0.033413 0.321997 -0.759257 -0.513816 0.105831 -0.069776 -0.44255 -0.192184 0.641038 -1.856096 0.546723 0.202186 -0.528551 -0.354495 -1.069148 0.186782 0.179727 1.312795 0.401883 0.184163 -0.239577 -0.149863 -0.263179 -1.302746 0.044686 -0.681394 0.218218 -0.154435 -0.206107 1.265167 0.557309 0.071352 0.516065 0.701421 -0.727307 0.394104 -0.21636 -0.040807 -0.116665 -0.123888 -0.030466 0.114588 -0.117728 0.420258 0.092491 -0.734278 0.368365 0.34194 -0.102804 0.113121 1.28217 -0.11769 -0.36881 0.480619 -1.07658 -0.291495 -0.706458 0.857867 -0.209011 -0.019456 -0.160819 3.427704 -0.446844 -0.247254 -0.268427 1.255203 -0.567518 1.242394 0.195972 -0.339715 0.634022 0.166764 -0.551733 -0.394545 -0.137989 0.139724 0.144445 0.016494 -0.101629 -0.235363 -0.601284 0.731669 0.786641 -0.369584 -0.091284 -0.97569 -0.727264 0.820303 -0.306668 0.288295 -0.036832 0.09237 0.31223
planet -0.116836 -0.358702 0.277076 -0.364327 -0.140103 -0.056452 0.863986 0.35392 0.145732 0.390848 0.207499 0.233971 0.180999 -0.243188 0.305541 -0.179522 -1.186805 -0.596834 -0.245621 -0.487956 1.032097 1.38003 -0.292839 -0.378217 0.559395 -0.833685 -0.13372 0.368721 -0.643009 0.105996 0.17361 0.774445 -1.000367 0.448848 1.085107 -0.047767 -0.671925 -0.86209 0.310618 -0.743206 0.165945 0.135825 -0.70878 0.361874 0.349739 -0.256626 -0.127639 0.927983 -0.366547 0.372553 -0.215015 -0.432582 -0.574819 0.196757 -0.010965 0.643509 0.225261 0.118875 -0.724073 -0.407389 -0.180699 0.696646 -1.092869 0.299638 0.965076 0.788346 -0.268995 -0.268069 2.093103 0.168641 -0.264674 0.767194 -0.47842 -0.526113 -0.679927 -0.569615 -0.103335 0.307575 -0.407574 0.799948 -0.338478 0.100674 -0.581009 0.013767 0.100384 -0.224818 0.053151 -0.506696 0.046325 -1.078507 0.062859 3.0E-5 0.22245 -0.538164 -0.551311 0.205409 -0.644979 -0.618319 -0.137079 0.49301
article 0.041227 0.345126 -0.114447 -0.13696 -0.295203 -0.619762 0.407415 0.809491 -0.535812 0.028482 0.377596 -0.055408 0.047916 0.454863 -0.454219 0.068101 0.335167 -0.44418 1.011011 0.638636 0.659371 -0.193698 -0.044056 -0.371938 0.438514 -0.378348 0.420485 0.442504 0.082903 -0.154953 -0.509564 0.125286 0.169981 0.584614 -0.498355 -0.108114 0.862457 0.481737 -0.364243 -0.807996 -1.347963 0.017553 0.603411 -0.391653 -0.133146 -0.291891 -1.099058 -1.003478 0.532996 0.102488 -0.2929 -0.207679 0.419596 0.524916 0.19366 -0.137112 0.407876 -0.624735 0.118019 -0.318877 1.167748 -0.458445 0.250488 0.687273 -0.741579 -0.290314 -0.104427 0.233431 2.680344 -0.933194 -0.282737 -0.32429 -0.244846 -1.313106 -0.262744 0.287382 -0.838073 0.430004 -0.409112 -0.6373 0.505997 0.438051 -0.758177 -0.3601 -0.604176 -0.321286 0.080682 0.051784 -0.298641 -1.467117 0.145855 0.55194 0.432404 0.264735 -0.165265 -0.58889 0.305157 -0.07535 0.16738 0.515437
anxiety -0.224911 -0.064505 -1.263072 0.620172 0.686288 -0.467999 -0.927904 0.163248 -0.05257 0.593748 -0.189661 -0.732543 0.156506 0.710704 -0.370722 -0.302981 -0.008291 -0.337696 0.481934 0.243788 -0.142331 0.435267 -0.275357 0.206895 0.374923 -0.424663 -0.532863 0.148908 -0.678516 0.204975 0.616502 0.2113 -0.390709 0.029729 -0.679299 -0.388633 0.5035 0.096402 -1.041519 -0.19528 -0.767018 -0.434243 -0.922468 0.033127 -0.493179 -0.106084 -0.022656 -0.349221 0.274505 0.139266 -1.026358 0.090534 -0.020771 -0.048484 0.151532 1.086247 0.709791 0.332207 0.080242 0.732894 -0.300584 -0.377972 -0.178103 -0.594164 -0.138924 0.909984 0.039023 0.308112 1.973042 0.792228 -0.513857 0.351717 0.52229 0.477286 -0.575793 0.600135 0.497095 -0.166376 -0.740697 -0.009551 -0.169455 0.833009 0.508484 -0.32716 0.100062 -0.639435 0.558862 0.655578 -0.265837 0.667851 -1.145037 0.297291 0.144468 0.218586 0.19935 -0.244094 0.402295 0.77374 -0.522263 -0.17817
month 0.364981 0.182366 0.012537 -0.291552 -0.237782 -0.308779 0.149237 0.238263 -0.078499 -0.772686 0.078973 -0.079359 -0.35188 -0.069209 -0.02323 0.205204 -0.282352 0.439011 -0.09411 -0.350941 -0.081135 -0.853587 -0.241216 0.780522 -0.056288 -0.508397 -0.095934 0.106577 0.37746 0.214057 0.359327 -0.26873 0.79261 0.052918 -0.329085 -0.117036 0.047419 -0.502403 0.069211 0.32203 -0.020648 -0.341817 0.365809 0.238128 0.267207 -0.099711 -0.061182 0.454409 -0.197943 0.104676 -0.457763 0.662701 0.21464 0.155862 -0.152611 0.304458 -0.211363 -0.008373 0.540179 0.451557 0.318143 -0.23222 0.198361 0.436576 0.278052 -0.258464 -0.08921 -0.134086 4.185498 -0.053703 -0.398394 -0.172444 0.324594 -0.137607 0.169291 0.471807 -0.524534 0.598567 -0.279915 -0.191199 0.17069 0.188576 0.007337 0.038664 -0.238555 0.095856 -0.027393 -0.004823 0.151937 -0.278778 0.260804 -0.420852 -0.202835 0.291056 -0.076682 0.449004 0.353548 -0.150196 0.26154 -0.051542
carnivore 0.107845 0.589028 0.120211 -0.827294 -0.853889 -0.849095 0.102671 -0.138401 0.692871 0.425707 0.278146 -0.199597 0.759233 -0.244929 0.714343 -0.208587 0.440599 -0.295161 -0.290082 0.581112 0.037873 -0.108671 -0.299356 0.723946 0.646535 -0.434186 -0.411738 -0.407656 -0.522442 0.786003 0.34623 0.37348 -0.257519 0.280748 1.239307 -0.8003 -0.123408 0.211008 0.164482 0.379062 0.364494 0.23919 -0.154324 0.056151 0.287365 -0.035139 -0.122922 0.432987 -0.252718 0.030151 -0.149221 -0.475022 -0.8849 -0.31345 0.141498 0.132239 0.881335 -0.337668 -0.44906 -0.30911 0.076991 0.390168 -0.797056 0.268396 0.19746 0.787201 0.163149 0.241356 -0.882209 -0.880176 -0.427799 0.622553 -0.656164 -0.069307 -0.086609 -0.094238 0.303477 0.659575 -0.262203 -0.55799 -0.734902 -0.242546 0.199914 0.495315 0.491349 0.257642 -0.357117 0.466249 -0.011231 0.235293 0.168423 -0.384818 0.209327 -0.570788 -0.54976 -0.035826 0.673414 0.320625 0.002149 -0.137474
party 0.593455 -0.011431 -0.313068 0.024078 -0.343526 -0.103668 -0.239042 -0.328878 0.686864 0.121785 -0.458708 -0.1141 -0.0627 0.091389 -0.324977 0.186288 -0.588659 0.172212 -0.057731 -0.644591 0.150158 0.050271 -0.665257 0.17252 0.976429 0.588587 -0.091958 -0.223971 0.664157 -0.609064 -0.434698 0.024971 -1.021826 -0.428803 -0.729115 -0.37728 0.398801 -0.169321 -0.520895 0.58555 0.50686 -0.38803 -1.282612 0.246523 -0.668256 0.482449 -0.274107 -0.085593 -0.013794 -0.048709 0.7401 0.210996 -0.932663 -0.112079 0.669877 -0.005093 0.143463 0.49936 0.825807 -0.452649 0.814112 -0.932649 1.236053 -0.161685 0.079137 -0.361899 -0.546009 -0.157993 3.686599 -0.154251 -1.357941 -0.396421 0.340013 -0.441412 -0.037336 0.403329 0.636603 0.121639 0.154592 -0.326981 0.476295 -1.086944 -0.008133 1.073528 0.346761 -0.582873 -0.568172 -0.019695 0.921208 0.297276 0.576957 -0.090698 -1.042199 -0.417211 0.114278 0.180454 -0.021571 0.178435 -0.103913 0.823747
production -0.377735 -1.523487 0.371483 0.028584 0.200262 0.437491 0.210262 -0.55491 0.145411 -1.148499 -0.192241 -0.466894 0.534204 -1.183673 0.61804 -0.380025 -0.627851 -0.827059 -0.913884 -0.265766 -0.299386 -0.412577 0.827715 -0.703156 -1.230422 0.060356 -0.146335 0.348726 0.05462 0.191674 0.106502 0.102228 0.319934 0.493224 -0.073944 -0.190139 -0.995396 -0.207346 -0.288436 0.752822 0.690143 0.574209 -0.361189 0.5695 0.052283 -0.17505 0.073279 -0.1653 -0.001319 -0.122304 -0.925668 0.518189 0.864868 0.211352 0.180129 -0.359029 0.129194 -0.409702 0.918722 0.14094 -0.551602 -0.391243 0.253748 0.157399 0.032119 0.599044 0.47217 0.142812 3.268702 -0.346254 0.605986 -0.095252 0.591427 -0.077565 0.105095 -0.246374 -0.468252 0.10211 -0.684678 -0.08131 -0.056653 -0.408538 -0.324676 -0.875397 -0.311908 0.352205 1.05499 -0.036446 -3.88E-4 0.291561 -0.911223 -0.064188 1.011693 0.434729 -0.338776 -0.154768 -0.714669 -0.925871 0.669037 0.312508
importance -0.392079 -0.400886 -0.011873 -0.475075 0.258853 -0.774919 0.024538 0.121651 0.310333 0.407699 0.004137 -0.029289 -0.068784 0.224049 0.533212 -0.019336 -0.032835 -0.869035 0.559272 -0.23773 -0.220276 0.20971 0.397281 -0.465977 0.889167 0.168652 0.266068 0.44167 -0.388931 -0.136432 -0.150142 0.468483 -0.592337 0.750626 0.460808 -0.35283 0.55689 -0.012397 -0.936761 -0.434736 -0.193446 -0.231409 -0.629142 -0.044322 -0.360073 0.179872 0.10308 -0.038698 -0.364705 0.133937 -0.194302 0.273564 -0.649452 0.172485 -0.255208 0.378631 -0.049828 -0.102832 0.640548 0.367208 0.542761 -0.322066 0.085867 -0.85671 0.025958 -0.127235 -0.02192 0.238943 2.307679 -0.29859 0.770892 -0.533249 -0.04793 -0.076999 0.756445 -0.357617 0.626561 -0.596227 0.187695 0.369362 -0.262597 1.208557 -0.31366 -0.459714 0.262587 -0.764929 -0.09034 -0.083324 0.258238 -0.114288 -0.225166 0.023917 0.761569 -0.278162 -0.373125 -0.352998 0.082427 -0.25137 -0.422635 -0.883987
inmate 0.23841 0.467649 0.354515 -0.213465 0.11982 1.058182 0.219291 -0.255965 0.027832 0.138757 -0.658867 -0.81508 0.42297 0.395502 0.361753 -0.417456 0.308359 -0.315026 0.445402 0.196659 0.057702 -0.593888 0.528901 -0.055738 0.208245 -0.450053 0.670841 0.257126 0.41409 0.193715 0.21549 -0.194518 0.693848 -0.463177 0.300318 -0.189836 0.717387 0.073711 0.52943 0.760501 0.137088 -0.993733 0.467348 -0.193565 0.066291 0.247187 -0.01656 0.545157 0.689221 0.182712 -0.226142 -0.159526 1.32528 -0.12349 -0.546041 -0.509505 -0.246176 0.918301 -0.849152 -0.367023 -0.400654 0.205153 0.30815 -0.061146 -0.022261 0.089109 0.18359 -0.584238 1.142138 -0.298165 0.259773 0.714575 0.35138 0.177859 -0.639485 -0.117995 0.131595 0.523842 -0.698032 -0.892522 0.113901 -0.543099 0.451602 -0.055488 1.093088 -0.185812 -0.565941 0.207559 -0.223442 -0.016433 0.246775 -0.439317 0.175235 0.076622 -0.462432 0.304508 0.526695 0.282856 0.013614 -0.798931
Harvard -0.543752 0.59293 -0.254775 0.501363 0.389356 -0.117378 -0.360461 0.063632 0.659739 -0.282697 0.173511 -0.454054 0.249722 0.796019 0.307364 0.122997 -0.031488 -0.573358 0.015179 0.502017 0.717885 -0.71432 0.499372 0.083244 -0.656908 0.435535 -0.172489 -0.027736 0.725696 0.35271 0.157299 -0.974478 -0.276204 -0.261683 -0.367675 0.891903 0.81879 -0.244391 -0.338179 -0.53248 -0.581947 -0.213999 0.899034 0.04215 0.151148 -0.677896 -0.653248 -0.345721 -0.554852 -0.005173 0.088874 -0.565704 -0.643544 0.363602 -0.217289 0.106351 0.271022 -0.414672 -1.380564 0.272068 -0.627755 1.06278 0.573452 -0.256355 -0.347005 -0.179806 0.075863 0.389733 2.049055 -0.306475 -0.435238 -0.008674 0.394678 -0.090062 0.178165 -0.214983 0.05815 0.172727 -0.294381 -0.20545 0.646638 -0.082177 -0.367924 -1.081235 -0.046639 -0.640962 -0.453508 0.54516 0.296212 -1.17036 -0.013006 0.060146 -0.295554 -1.095998 0.379061 0.143736 0.392383 1.178848 0.268251 -0.726676
psychology -0.900593 0.027445 0.199949 0.613279 0.690154 0.099314 -0.425742 0.164454 0.23105 0.076815 0.189319 -0.676404 0.477038 0.298494 0.67966 0.032312 0.162234 0.012357 -0.556795 0.353139 0.205925 0.216554 0.183511 0.145508 -0.162459 -0.190862 0.017261 0.280901 0.184961 0.717039 0.76347 -0.481094 -1.373489 -0.388057 0.33119 0.436161 0.458414 -0.081773 -0.909152 -0.097195 -0.069956 0.059046 -0.1308 -0.046231 0.339596 -0.641679 -0.087156 -0.573354 -0.113518 0.447104 -0.575003 -1.02201 -0.576671 0.249021 0.352988 -0.326058 0.525048 0.113965 -0.761986 0.42331 -0.089292 0.592565 -0.235754 -0.769455 -0.164027 -0.250404 0.213117 0.775916 1.143481 0.065622 0.109161 0.010931 0.085968 -0.444912 0.303177 -0.473542 0.316271 0.037785 -0.724981 -0.086893 -0.237189 0.289682 -0.194113 -0.792737 -0.094307 -0.715695 -0.039406 0.995937 0.005311 -0.858885 -0.125921 1.120321 -0.046574 -0.495353 0.279339 0.319974 0.49795 1.461915 0.158353 -0.469574
medal 0.608253 -0.295711 -1.056146 -0.393769 -1.368033 0.50148 0.164427 -0.436496 0.551471 0.384441 -0.184759 -0.205607 -0.330127 -0.74076 -0.167517 -0.315992 -0.291997 0.506092 -1.033535 -0.21757 -0.258851 0.829147 -0.544405 0.057986 0.599039 1.396313 0.742924 0.097346 0.98446 -0.078934 0.365692 -0.676029 -0.002284 0.298602 0.214955 -0.094556 -0.855745 0.319466 -0.315761 0.196661 -1.027566 0.387015 0.119018 0.289878 -0.142258 0.276965 0.441631 0.491141 0.472429 -0.281463 -0.058922 -0.377578 -0.784403 0.483924 -0.774962 0.557378 -0.207307 -0.96327 0.330737 0.314692 -0.123029 0.540501 -0.612821 -0.283621 1.157706 -0.592973 0.294103 -0.743566 1.887138 0.101343 0.18211 -0.758867 -0.675281 -0.064384 -0.084206 0.144264 0.8259 0.185949 0.751836 0.70558 -0.256945 0.94749 -0.39747 -0.975359 -0.79652 0.191965 -1.414923 -0.676309 -0.780301 -0.360673 0.896443 -1.026193 0.517097 0.4763 0.176603 0.526456 0.616968 -0.341712 -0.244806 -0.365742
company 0.053455 0.213837 1.232078 -0.770623 -0.108874 -0.368783 -0.336007 -0.190392 0.797489 -0.332806 -0.062033 -0.142118 0.328696 0.480362 0.601961 -0.145836 0.078237 -0.066651 -0.303471 -0.335818 0.356632 -1.487845 0.079595 -0.522993 -0.672872 -0.378826 -0.631549 -0.067892 0.521195 0.728782 -0.659824 -0.08312 0.195807 0.355772 0.140464 -0.67021 -0.968524 0.773266 -0.442327 -0.285569 0.178643 1.23644 -0.216359 0.312414 0.320854 -0.714065 -0.002645 -0.690475 -0.379375 -0.216263 -0.034517 0.799555 0.13221 0.16556 -0.024569 0.26854 0.098308 -0.350445 0.401706 -0.316927 -0.233999 0.376558 0.705586 0.481396 -0.417156 0.214656 0.451466 -0.068988 4.115822 0.186302 0.622129 0.021396 -0.349809 0.165687 0.084253 -0.33709 0.16693 0.391643 -0.35667 0.086194 -0.350616 0.187792 0.811995 -0.092542 0.18984 0.698001 0.429883 0.991198 -0.23021 0.203769 -0.049254 0.01803 -0.198616 0.593214 -0.584735 0.099554 -0.520061 -0.658915 0.029584 0.902665
live 0.953908 0.364116 -0.19422 0.151369 -0.497111 0.542334 0.677777 0.293356 -0.122393 0.053751 0.23703 -0.673564 -0.74245 -0.019213 -0.634048 0.107117 0.319756 -0.40023 0.213044 0.411912 -0.315207 1.23544 -0.39983 0.680207 0.665149 -0.008897 -0.194947 0.597362 -0.105933 -0.394019 -0.402232 0.517287 0.004401 0.012268 0.103104 -0.085221 -0.185206 -0.095169 0.232552 -0.281067 0.902168 -0.168212 -0.438795 0.171977 -0.448169 -0.743799 -0.270072 0.84631 -0.636577 0.471565 0.007482 -0.463471 0.929424 0.238308 -0.159153 -0.568006 -0.230869 -0.645436 0.081519 -0.575054 -0.545355 -0.224628 -0.557891 -0.075566 0.579954 0.817501 0.121778 0.716441 3.459602 -0.204063 0.320978 0.076325 -0.251568 -0.332953 -0.040422 -0.435734 0.2477 -0.016496 -0.12961 -0.134195 0.239606 -0.189487 -0.419738 0.069784 0.220496 0.186575 0.927871 0.480601 0.33519 -0.270189 0.169359 0.17388 -0.294177 -0.433567 -0.359755 -0.297976 -0.349565 -0.550604 -0.470321 0.132773
holy -0.157321 -0.084075 -0.442709 -0.149084 -0.452668 0.776276 -0.047108 -0.31111 -0.582613 0.423307 -0.228469 -0.61402 -0.053251 0.357998 -0.454681 1.053262 -0.055824 0.579866 -0.387672 -0.854109 0.151649 0.607666 -0.105356 0.531493 1.255858 -0.084094 -9.89E-4 0.064031 0.16384 0.215237 -0.664475 -0.224782 -0.321742 0.794891 1.304318 0.749871 0.086424 -0.074471 0.103557 0.796545 -0.272914 -0.5549 -0.259558 -1.19654 0.741452 -0.597562 0.44243 0.219172 -0.261724 0.469464 -0.629869 -0.20827 0.525807 -0.433864 -0.725796 1.293636 -0.481199 0.741585 0.218106 0.326492 0.221454 -0.388919 0.513803 0.074067 0.26431 -0.16672 0.447837 1.128828 1.482867 -0.613622 -0.128502 0.312094 -0.161416 -0.185642 -0.334113 -0.356736 -0.56306 -0.968398 0.386941 0.718525 0.476233 0.470839 -1.075065 0.50997 -0.547088 0.066945 0.178532 -0.222716 -0.404421 -0.673461 -0.018339 -1.48395 -0.047094 -0.249231 -0.820917 -0.131987 -0.049399 -0.713803 -0.027027 0.348279
ticket 0.407683 0.301227 -0.037795 0.495234 -0.030997 1.120927 0.280195 0.054789 0.172983 -0.106612 -0.025153 0.158409 0.320365 0.327571 0.185482 -0.172931 0.405507 -0.456407 -0.925612 -0.16727 0.405166 0.785586 -0.789068 0.393823 -0.343884 0.788094 -0.046615 -0.759891 0.376065 -0.232125 -0.213875 0.127641 0.213637 -0.510059 -0.219947 -0.31477 -0.970264 -0.713781 -0.279084 0.340076 -1.300145 -0.205993 0.435721 0.343316 -0.851434 -0.191477 -0.109783 0.531617 -0.639111 -0.407713 0.748006 0.071616 0.264129 0.052975 0.08878 -0.229106 -0.304474 -0.876539 1.432571 0.471219 0.866771 -0.383546 1.363273 0.302395 0.317722 -0.521097 -0.033598 -0.582923 2.562784 0.807737 -0.218993 -0.489136 0.084968 0.141047 -0.530907 -0.028945 1.072184 -0.050442 0.188601 -0.512006 -0.746452 -0.632481 0.952849 -0.116431 -0.014114 0.00994 0.352348 -0.009005 -0.256337 0.015733 0.114221 -0.242045 -0.478866 0.423111 -0.091895 -0.042002 0.176785 -0.030632 0.369217 0.188274
victory -0.13601 -0.370701 -1.654276 0.313941 -0.741863 0.288349 0.394852 0.429685 -0.204746 0.440823 -0.118247 0.117307 -0.498485 -0.554676 -0.170397 0.624945 -0.410022 1.019967 0.013694 -0.303972 -0.446212 -0.459037 -0.073281 0.452697 0.702471 0.599528 0.434757 0.778853 0.745265 -0.702609 0.787782 -0.564763 -0.403312 0.474537 -0.480118 -0.208411 -0.996143 -0.086461 -0.439388 0.092246 -0.332549 0.298351 -0.663587 0.496592 -0.153402 0.898691 -0.52111 0.638347 0.913564 -0.346634 0.692977 -0.083198 -1.613437 -0.201898 -0.703281 0.079852 -0.187642 0.076367 0.225221 -0.271271 -1.021975 -0.295345 0.744226 -0.997596 -0.091304 -0.332173 -0.441414 -0.771605 3.123202 -0.265963 0.112182 -0.389183 -0.468724 0.686899 -0.445374 0.560158 0.533648 0.453712 0.663541 -0.379812 0.284012 0.756358 0.463616 0.450535 -0.058588 -0.190593 -0.751287 -0.261136 -0.605843 -0.905055 1.785718 0.601984 -0.065732 0.179496 0.50456 0.089254 0.491168 0.04974 0.657018 -0.03367
football 0.161165 0.596383 -0.45677 0.134708 0.169788 0.953532 -0.086144 0.232711 0.037163 -0.576392 -0.01553 -0.984397 0.104855 -0.486603 -0.038085 0.64587 0.032615 1.018323 -0.061773 1.027455 0.836484 0.712956 -0.774065 0.260252 0.274672 0.42825 0.151831 -0.407912 0.352502 -0.717653 -0.353918 -0.012865 0.221605 -0.544262 -0.441626 0.219652 -1.065283 -0.241636 -0.374836 -0.378194 0.610753 -0.194857 -0.168676 -0.001089 0.128149 0.359857 0.842948 -0.484874 -0.547102 -0.336891 -0.133964 -0.028315 -0.569847 -0.124624 0.333104 -0.395018 -0.218247 0.07367 -0.596448 0.092585 -0.175117 0.56566 0.198376 -0.887671 0.126096 -0.396077 -0.680855 0.160683 2.993947 0.283416 0.776701 -0.445593 -0.181082 -0.590025 0.210006 0.011545 0.735988 0.285605 0.759655 0.581002 -1.009489 -0.046108 -0.099211 -0.275672 -0.334707 -0.722707 -0.066819 0.660268 0.56063 -1.245113 0.241437 0.876154 0.18961 -0.700881 -0.439842 0.168597 -0.222912 -0.66466 -0.107029 -0.757464
seepage 0.108971 -0.889526 0.289846 0.433 0.064929 -0.044592 -0.637353 0.460255 -0.557672 0.086573 -0.265859 -0.070961 0.426152 0.071304 0.356917 0.269736 -0.270207 -0.284688 0.10052 -0.406776 0.514212 1.106426 -0.064369 -0.006638 0.839331 0.209527 -0.64089 -0.183215 -0.905591 0.269587 -0.093027 0.087058 -0.227927 -0.435902 0.58792 0.369442 0.14946 -0.414982 -0.140396 -0.235086 -0.095843 0.428626 -0.557734 0.243055 -0.669556 0.247127 -0.255574 -0.117207 0.394567 0.192033 -0.557991 0.332643 0.941372 0.237956 0.303812 0.254633 0.292753 0.101394 -0.238897 -0.301628 -0.736343 0.070769 -0.097605 -0.062219 -0.921949 0.554258 0.053868 -0.383879 -0.894698 0.674172 0.692586 0.502967 -0.476849 0.024698 -0.135141 -0.194675 0.163565 0.599594 -0.630161 0.189773 0.552577 -0.115038 0.206757 0.24534 -0.190972 0.205732 0.741281 -0.703353 -0.181915 0.28541 0.438383 -0.617288 0.549172 -0.009479 -0.005134 0.470297 0.062561 0.284893 0.093803 -0.669243
rook 0.15672 0.547265 -0.262259 -0.998979 -0.474477 0.20975 -0.348807 0.015669 0.520519 -0.669663 -0.209959 -0.303788 0.425072 -0.064704 1.054661 -0.136652 -0.016175 0.006781 -0.188489 0.393424 0.035055 0.460506 0.690223 0.008429 -0.016656 0.058189 -0.047684 -0.475895 0.140073 0.079875 0.030477 -0.244686 0.134814 0.570336 -0.174929 -0.951729 -0.288316 0.060762 0.135995 -0.114968 -0.011795 -0.172592 -0.00105 -0.232294 0.556471 0.097638 -1.08799 0.179748 -0.197779 -0.130033 -0.676876 -0.198846 0.235447 0.581116 -0.555476 0.098768 -0.595638 -0.419656 -0.633272 -0.593227 0.059991 -0.860903 0.532262 0.273467 0.182463 0.509027 0.116529 0.357618 -1.025032 0.002352 -0.287232 0.692725 -0.181689 0.579752 -0.251237 -0.573947 0.1909 -0.119247 0.671543 -0.314035 -0.54835 -0.329181 -0.264366 0.633952 -0.588664 -0.638166 0.285688 0.541485 -0.140808 -0.075821 -0.685705 0.257004 0.091791 0.0942 0.421641 -0.230279 -0.126012 0.962068 0.07711 -0.025362
stroke -0.184349 0.317695 -1.100664 0.717721 -0.07202 -0.802259 -0.234953 0.4019 1.223398 0.732937 -0.445575 0.016969 -0.275434 0.918087 0.39124 0.408419 0.215473 0.212034 0.523675 -0.670601 0.63559 0.46649 0.366953 0.320861 0.270673 0.245526 -0.357965 0.441186 0.064375 0.227859 1.286385 -0.203182 0.413359 -0.053957 -0.431879 -0.080825 -0.293829 0.575789 0.09031 0.42661 -0.100366 0.20936 -0.424969 0.375795 -0.289121 0.449532 -0.985216 0.336997 1.264485 0.294919 0.068234 0.419832 0.231164 0.552763 -0.554271 0.232041 -0.083023 0.142651 -0.728118 -0.703975 -0.820328 0.227405 -0.766045 0.031818 0.663205 0.583791 -0.107762 0.024562 2.029797 0.170002 0.277289 0.368533 0.545369 0.602398 -0.382849 0.212826 0.247548 -0.041248 -0.285859 -0.430614 0.010847 -0.142587 -0.271313 -0.446382 -1.129411 -0.352995 -0.409599 0.90264 0.392857 0.636652 -0.269269 0.02211 0.603833 -0.297742 0.955141 0.750394 0.573747 0.13511 -0.364067 -0.774161
environment -0.523346 0.041218 0.346427 -0.047429 -0.16813 -0.414925 0.043696 -0.828536 0.24276 0.026491 -0.617929 0.235835 0.230175 0.029771 0.181774 -0.033451 -0.399153 -0.700603 -0.615875 -0.44226 -0.302411 0.353039 -0.35676 -0.1571 0.145127 -0.500196 0.417159 0.422364 -1.260807 -0.195709 -0.830512 0.487914 -1.437889 0.055301 0.659006 -0.451519 -0.063895 0.072508 -0.834788 -1.496404 0.163965 -0.383052 -0.847187 0.382558 0.553521 -0.889764 0.610511 -0.206909 0.364026 0.408051 -0.204176 0.064858 0.078671 -0.011536 0.280954 -0.496292 -0.285765 0.229738 0.62522 -0.519453 -0.185817 0.011982 -0.628354 -0.545182 0.97534 0.079583 0.535402 0.146103 2.974479 0.069512 0.043875 0.118111 0.311923 -0.880367 0.199247 0.090194 0.274213 0.828595 -0.323242 0.208852 -0.04987 -0.011855 0.163404 0.148076 0.165393 0.349384 0.374136 0.179161 0.044399 -0.340559 -0.274191 0.53075 0.521374 -0.137043 -0.422629 0.138077 -0.720419 0.272357 -0.384386 -0.530773
coffee 0.114561 0.15971 -0.141901 -0.395936 -0.438146 -0.491117 -0.238292 0.326032 0.116053 0.205032 -0.271593 -0.228305 -0.266666 0.913579 0.326836 0.091616 0.436513 -0.219791 -0.808631 -0.036667 0.697183 0.702813 0.174029 0.725133 -0.605869 -0.232963 -0.307352 -0.084194 -0.171553 -0.40303 0.007672 -1.237409 -0.090567 -0.051833 0.784748 -0.356136 -0.502886 0.227996 0.15842 -0.202132 0.624941 1.063937 -0.464954 -0.264821 -0.09155 -0.285232 0.68086 0.07758 -0.494899 -0.17954 0.02587 -0.207446 0.545699 0.118941 -0.04804 0.689697 1.19647 0.593902 1.573705 -1.270217 0.117307 0.617936 0.693713 -0.366491 -0.408036 -0.577082 0.952318 0.150143 2.181338 0.085931 -0.172622 -0.528814 0.255452 0.108584 -0.189892 -0.26396 -0.313743 -0.649658 0.033083 -1.559736 0.145392 -0.375044 0.736121 -0.505003 0.089623 -0.653344 1.262464 -0.345372 0.267621 -0.376025 0.06003 -0.557458 0.053766 -0.260061 0.200569 0.249648 -0.276134 -0.094693 -0.846343 -0.100271
baby 1.408062 -0.471562 0.632648 -0.586785 -0.155814 -0.076948 0.265918 0.108223 0.459519 0.095268 -0.678629 -0.575463 0.081886 -0.055058 -0.358346 -0.239372 0.581581 -0.100119 0.389963 0.501278 0.421222 0.591407 -0.001474 -0.321178 -0.146618 -0.04628 -0.456764 0.21431 -0.453597 -0.882874 1.075305 0.50941 0.670323 0.138428 0.312537 -1.07815 0.090304 -0.117717 0.259757 1.012157 -0.092868 0.440921 -0.90473 -0.468942 0.207416 0.074334 -0.473803 -0.512762 -0.093672 0.148382 0.271949 -1.098071 0.285518 -0.069819 -0.285318 0.993387 -0.56365 0.434062 -0.250173 -0.072748 0.462663 0.581848 -0.907981 0.241605 0.643735 0.255406 0.882312 -0.389735 2.684831 -0.061853 -0.211753 0.190918 -0.259486 0.51593 0.199465 0.307829 -0.3117 0.600297 -0.421353 -1.345695 0.024485 -0.186485 0.008355 -0.905955 0.152634 -0.690976 -0.166129 0.078546 0.432984 0.076671 -0.495648 -0.45852 -0.967566 -0.429998 -0.639139 0.561901 -0.505372 -0.075589 -0.523788 -0.35037
personnel 0.204644 0.041767 0.263359 -0.383458 0.524381 0.334161 -0.060949 -1.062949 -0.090602 0.005837 0.245381 -0.257098 0.315769 -0.446366 0.01768 -0.245121 0.375441 -0.619001 0.071491 -0.079771 0.119693 -0.566718 0.229178 -0.541053 0.08628 0.105425 -0.175128 -0.414769 -0.086893 0.663509 -0.658614 0.285371 0.703529 -0.097459 0.352025 -0.288151 0.429872 0.292437 0.709716 -0.001081 -0.08109 -1.043288 -0.012647 0.046385 0.474358 0.658551 -0.04107 0.411243 -0.328429 -0.128853 0.13526 1.029812 0.353584 0.140142 -1.133684 -1.181982 0.35218 0.148265 -0.219437 0.532556 -0.355947 -0.230293 -0.019243 -0.576915 -0.122489 -0.96403 -0.674318 -0.220372 2.675059 0.649627 0.476156 0.194147 -0.586457 -0.045103 0.209961 -0.302213 0.114362 0.44173 0.158379 0.33878 0.282255 0.32296 0.23209 0.240272 -0.555838 0.162602 -0.192938 0.533481 -0.416695 0.697284 -0.778716 -0.317123 0.618841 -0.099856 0.27842 -0.361181 -1.448642 0.837856 -0.753389 -0.355604
family 0.799573 -0.287919 0.31761 -0.520821 0.308784 0.140906 -0.61028 -0.601993 0.777924 0.38661 -0.271069 -0.482436 -0.795167 0.227355 -0.601363 -0.298921 0.41434 0.273965 0.889389 0.498087 -0.675003 0.667693 0.11935 0.314159 0.073663 0.145547 -0.752465 0.514993 0.840002 -0.407108 -0.415618 0.107589 0.106169 -0.002751 0.343522 -0.784835 0.49586 0.235845 0.161455 0.164224 -0.072185 -0.306077 -0.142444 0.014968 0.110707 -0.180483 0.047693 -0.229915 0.043227 0.245668 -0.022388 -0.288762 0.146143 -0.181918 0.052967 0.67052 0.440889 0.125687 0.221567 -0.104706 -0.091025 0.11771 -0.376597 -0.246058 -0.063263 0.190887 0.296413 0.704906 3.941361 -0.267643 0.323154 0.921242 0.395296 0.450387 0.275292 -0.481692 0.553962 -0.142127 0.143583 -0.685554 -0.957047 -0.02907 -0.118441 -0.002408 0.393503 0.059792 0.146665 0.11066 -0.126565 -0.180937 -0.248055 0.187696 -1.259638 -0.920154 -0.602792 0.015594 -0.535695 -0.280504 -0.642109 0.092957
hypertension -0.144994 -0.254503 -1.282489 1.332578 0.790836 -0.363146 -0.732458 0.449287 0.551148 1.473534 -0.46124 -0.282341 -0.116288 1.219587 0.451831 -0.416834 0.472435 -0.810967 -0.45714 -0.241655 1.195795 2.31E-4 -0.469954 -0.030218 -0.103419 0.245869 -0.21192 -0.008075 -0.792661 0.695425 0.778519 0.079968 0.628346 0.567953 -0.032344 -0.68645 0.443883 0.435334 0.244704 0.224224 -0.458234 -0.347025 -0.451347 0.298 0.146009 0.027647 -0.313766 0.008998 0.969445 0.419187 -0.317283 -0.213264 -0.03218 0.067402 0.56193 0.109854 0.480363 0.250243 0.075097 -0.182601 -0.710576 0.502858 -0.552323 -0.066814 0.507738 0.706387 0.624147 0.630507 0.426873 0.222482 0.20978 -0.419674 0.501121 0.492452 -0.110682 -0.26353 0.703965 -0.824272 -0.387131 -0.45784 0.02122 -0.351267 -0.11164 -0.257583 -0.504359 0.042087 0.087401 0.420096 0.433476 0.809827 -0.792872 -0.286132 0.883279 0.239925 0.037057 0.051599 1.036949 -0.173153 -0.410168 -0.545531
president 0.098644 0.619974 0.496309 0.500719 0.367535 -0.169319 0.183091 0.497775 0.391013 0.319211 -0.542818 0.08445 -0.384278 0.29261 0.032594 0.397559 -0.804253 -0.00888 -0.557746 -0.402897 0.489251 -1.197801 0.131211 -0.673339 0.112729 0.387809 -0.264579 0.334987 0.273309 -1.022677 -0.5469 -0.660535 -0.66604 0.832413 -0.155437 0.711408 0.704645 0.061357 0.044425 0.380515 0.408529 -0.362149 0.580122 0.570916 -0.368656 0.008597 0.493106 0.700009 -0.179727 -0.271579 0.336726 0.911069 -0.96147 -0.106304 0.276551 0.107347 -0.466035 -0.366464 0.184907 -0.175464 0.30936 -0.030906 0.736292 -0.498151 0.176903 -0.441807 0.985563 -0.073793 3.837414 0.235605 0.096305 0.002458 0.31773 0.018774 0.039013 0.286481 0.654777 0.884439 0.235286 0.270323 0.216115 -0.037251 0.368848 0.023526 0.199332 -0.445787 -0.720288 -0.45306 0.409088 -0.864068 -0.455032 0.794544 -0.504071 -0.209301 0.29772 -0.514921 -0.225412 0.154857 -0.228564 0.701893
atmosphere -0.246943 -0.059088 -0.303566 0.452942 -0.357437 0.342048 0.018782 -0.073354 -0.295491 -0.173557 -0.089884 -0.19612 -0.623948 -0.376952 -0.529835 0.41314 -0.94688 -0.357552 -0.470127 0.004237 0.249544 0.960604 0.094907 0.403853 0.456777 -0.838805 -0.731976 0.728416 -0.625074 -1.56E-4 -0.190781 -0.056908 -1.478028 -0.666391 0.069975 0.468876 -0.754203 -0.413051 -0.885322 -1.364975 -0.040381 -0.468411 -1.169212 -0.095147 0.019202 0.210256 0.597134 0.405626 0.424328 0.570729 -0.540222 0.236407 -0.116802 -0.202866 0.029378 0.412508 0.167146 -0.247311 0.308268 -0.227219 -0.458126 0.361572 -0.244202 -0.310314 0.416707 0.743634 -0.419399 0.205518 2.050718 0.431343 -0.137196 -0.485365 0.026544 -0.710201 -0.7984 -0.385781 -0.119005 0.363959 -1.014347 0.920451 -0.545516 -0.284454 0.372338 0.389642 -0.134309 -0.435127 0.891455 -0.918672 0.331843 -0.477579 0.209602 -0.558587 0.296586 0.091651 -0.588552 0.471157 -1.087459 -0.017723 -0.187373 -0.273632
practice -0.006524 -0.176455 0.085336 -0.205225 0.333226 -0.015428 -0.796855 0.141923 -0.050814 -0.151389 -0.434026 -0.668646 0.030616 0.526915 0.093049 -0.10272 0.679128 0.192535 -0.75625 -0.392109 -0.008706 0.019435 0.186599 -0.034837 0.368802 0.29527 0.106488 0.456646 -0.090246 0.462404 0.194245 -0.768435 0.002256 0.300576 0.182014 -0.140182 -0.556111 0.161832 0.385918 -0.703527 0.280693 -0.366156 -0.036688 -0.443155 0.078809 -0.317722 0.438661 -0.796558 0.263878 0.188046 -0.244863 0.144944 0.45663 0.133822 -0.594396 -0.165101 -0.339187 -0.182292 -1.016642 0.324234 -0.060545 0.180605 0.329141 -0.428394 -0.161384 -0.402291 -0.902492 0.510043 2.959651 -0.595561 0.5012 -0.077778 -0.374495 -0.43324 0.555317 0.288642 0.125406 0.378604 0.172924 0.518563 0.359412 0.123648 -0.23631 0.724533 -0.29739 -1.085773 -0.303382 0.58853 0.196769 0.354995 -0.224467 0.819957 0.042543 -0.401914 -0.64172 0.386307 0.136842 0.038778 -0.143641 -0.727418
movie 0.340651 -0.411654 0.745456 0.57077 -0.152363 1.206997 0.283078 -0.533217 0.517681 -0.308714 0.349471 -0.69989 -0.119687 -0.471536 0.020436 -0.729173 -0.244668 -0.457617 0.196566 -0.564212 -0.457175 0.783447 -0.333133 -0.119915 -0.222254 -0.047018 -0.003937 -0.319036 0.94062 -1.764565 0.151956 -0.520532 -0.411643 -0.29463 -0.726263 0.375949 -0.789375 -0.086414 0.184113 0.326222 -0.499489 0.384313 -0.07361 0.117887 -0.63089 -0.243363 0.146728 -1.221605 -0.355257 0.250384 -1.106597 0.28575 0.954039 0.903431 0.667424 -0.608029 0.046701 -0.341373 0.147667 0.177766 -0.470031 -0.423314 -0.117185 0.655329 0.084164 -6.8E-4 -0.139041 0.102257 2.91074 -0.196377 0.281147 -0.022739 0.006652 0.467529 -1.635403 0.346218 0.404701 -0.849478 -0.227746 0.003048 -0.686613 -0.502272 -0.478409 -1.265289 0.069754 -0.071799 0.526718 -0.186871 -0.384073 -0.440714 -0.369978 -0.0373 -0.416434 0.217969 0.236299 -0.108626 -0.431516 -1.482971 0.118822 0.680251
popcorn 1.164918 -0.181951 0.478377 0.265559 -0.121766 -0.061825 -0.435513 -0.431291 0.49059 -0.202198 -0.056178 -0.76386 0.113207 -0.154567 0.250801 0.247579 -0.500081 0.138049 -0.542958 -0.031098 0.43183 0.476115 0.410198 0.371757 0.098771 -0.173594 -0.887526 -0.166147 -0.729605 -0.232279 0.23944 -0.360424 0.065753 -0.274391 -0.405335 -0.305324 -0.731109 -0.014484 -0.219644 0.505078 0.509336 0.553607 -0.106354 -0.24015 0.124541 -0.018721 -0.375118 -0.476179 -1.087313 -0.446234 -0.354402 -0.295326 1.01594 0.177337 -0.37146 0.48744 0.55293 0.400161 0.534507 -0.686975 -0.170252 1.287299 -0.054353 -0.273892 0.192865 0.210886 0.455741 0.22608 0.067245 0.176755 0.11237 -0.427483 0.342864 1.23982 -0.88174 0.43625 -0.124426 -1.073379 0.410185 -0.039117 -0.631815 -0.031022 -0.018844 -0.475188 -0.073207 -0.990272 0.182448 -0.481785 -0.221167 0.130684 0.132298 -1.028398 0.256808 0.132962 0.011946 -0.058552 0.122327 -0.070082 -1.296088 0.263158
recommendation 0.69791 0.163187 0.814956 0.067582 -0.202611 -0.56164 0.207939 -0.183984 0.658303 -0.420766 -0.477225 0.94633 0.118312 0.598381 0.531616 0.058055 -0.094979 0.356606 -0.51952 0.158916 0.799214 -0.674649 0.470147 0.436185 0.681194 -0.448573 0.651138 0.142893 -0.52956 0.499428 0.288302 0.329289 -0.372554 -0.341792 -0.675805 -0.443141 0.843353 -0.210111 0.100586 -0.005431 -0.852653 -0.092381 0.322155 -0.205613 -0.124693 0.331609 0.671026 -0.173516 0.041389 -0.641432 -0.805967 0.354265 0.005155 0.568903 -0.152927 0.34215 -0.431449 -0.256051 0.230536 0.181901 -0.196526 0.053797 0.121436 0.346735 0.163104 -0.961305 -0.30734 0.325105 1.606276 -0.476638 -0.130884 -0.463736 -0.22642 0.300808 -0.061327 -0.066881 -0.048972 -0.174238 -0.172954 -0.595058 -0.162336 0.011974 -0.211673 0.016695 -0.600924 -0.120524 -0.217012 0.112981 -0.198698 -0.054156 -0.701683 -0.349242 0.102641 0.197451 -0.552024 -0.964007 0.092989 0.1451 0.007867 0.210545
focus -0.801667 -0.604322 0.28422 -0.267423 0.05935 -0.421068 -0.217144 -0.343175 0.31379 0.059076 -0.167244 0.100301 -0.087411 0.133978 0.710229 -0.564998 0.272942 -0.431316 0.007891 -0.245656 -0.089543 -0.077915 -0.126121 -0.259255 0.601198 -0.562568 0.234183 0.138702 -0.129639 -0.248845 -0.006925 0.627493 -0.407631 0.295121 -0.154 -0.355396 0.090845 -0.203728 -0.573748 -0.743823 0.358054 0.090364 -0.630056 -0.151449 -0.229577 -0.080725 0.116015 0.194537 -0.225576 0.224267 -0.335272 0.297017 -0.544336 0.271043 0.061236 -0.076868 -0.181596 -0.09599 0.134922 0.813911 0.246278 -0.231026 0.449471 -0.471585 -0.195837 -0.326168 0.077386 0.43975 3.240928 -0.279 0.087162 -0.177614 0.138716 0.277028 0.482817 -0.119889 0.340382 -0.382703 -0.090218 0.670854 0.2612 0.291276 -0.036748 -0.043345 0.276717 -0.362864 0.089728 0.406894 0.027756 -0.049266 -0.606411 0.367454 0.4349 0.129103 0.198512 -0.118303 -0.188968 -0.300694 -0.111569 -0.395576
